tree
version=v4
num_class=1
num_tree_per_iteration=1
label_index=0
max_feature_idx=192
objective=regression
feature_names=feature.geometry.long_edge feature.geometry.short_edge feature.geometry.orientation feature.geometry.orientation.cos feature.geometry.orientation.sin feature.geometry.aspect_ratio feature.geometry.wwr feature.geometry.num_floors feature.geometry.f2f_height feature.geometry.zoning feature.geometry.energy_model_conditioned_area feature.geometry.energy_model_occupied_area feature.geometry.attic_height feature.geometry.shading_mask_00 feature.geometry.shading_mask_01 feature.geometry.shading_mask_02 feature.geometry.shading_mask_03 feature.geometry.shading_mask_04 feature.geometry.shading_mask_05 feature.geometry.shading_mask_06 feature.geometry.shading_mask_07 feature.geometry.shading_mask_08 feature.geometry.shading_mask_09 feature.geometry.shading_mask_10 feature.geometry.shading_mask_11 feature.geometry.shading_mask_12 feature.geometry.shading_mask_13 feature.geometry.shading_mask_14 feature.geometry.shading_mask_15 feature.geometry.shading_mask_16 feature.geometry.shading_mask_17 feature.geometry.shading_mask_18 feature.geometry.shading_mask_19 feature.geometry.shading_mask_20 feature.geometry.shading_mask_21 feature.geometry.shading_mask_22 feature.geometry.shading_mask_23 feature.geometry.shading_mask_24 feature.geometry.shading_mask_25 feature.geometry.shading_mask_26 feature.geometry.shading_mask_27 feature.geometry.shading_mask_28 feature.geometry.shading_mask_29 feature.geometry.shading_mask_30 feature.geometry.shading_mask_31 feature.geometry.shading_mask_32 feature.geometry.shading_mask_33 feature.geometry.shading_mask_34 feature.geometry.shading_mask_35 feature.geometry.shading_mask_36 feature.geometry.shading_mask_37 feature.geometry.shading_mask_38 feature.geometry.shading_mask_39 feature.geometry.shading_mask_40 feature.geometry.shading_mask_41 feature.geometry.shading_mask_42 feature.geometry.shading_mask_43 feature.geometry.shading_mask_44 feature.geometry.shading_mask_45 feature.geometry.shading_mask_46 feature.geometry.shading_mask_47 feature.semantic.DHW feature.semantic.Walls feature.semantic.Region feature.semantic.Cooling feature.semantic.Heating feature.semantic.Windows feature.semantic.Lighting feature.semantic.Typology feature.semantic.Equipment feature.semantic.Thermostat feature.semantic.Age_bracket feature.semantic.Distribution feature.semantic.RoofInsulation feature.semantic.Weatherization feature.semantic.AtticVentilation feature.semantic.AtticFloorInsulation feature.semantic.GroundSlabInsulation feature.semantic.BasementWallsInsulation feature.semantic.BasementCeilingInsulation feature.weather.file feature.weather.annual.daily_max_median feature.weather.annual.daily_median_median feature.weather.annual.daily_min_median feature.weather.annual.daily_range_median feature.weather.annual.dd_cooling feature.weather.annual.dd_heating feature.weather.latitude feature.weather.longitude feature.weather.monthly.daily_max.01 feature.weather.monthly.daily_max.02 feature.weather.monthly.daily_max.03 feature.weather.monthly.daily_max.04 feature.weather.monthly.daily_max.05 feature.weather.monthly.daily_max.06 feature.weather.monthly.daily_max.07 feature.weather.monthly.daily_max.08 feature.weather.monthly.daily_max.09 feature.weather.monthly.daily_max.10 feature.weather.monthly.daily_max.11 feature.weather.monthly.daily_max.12 feature.weather.monthly.daily_max_median.01 feature.weather.monthly.daily_max_median.02 feature.weather.monthly.daily_max_median.03 feature.weather.monthly.daily_max_median.04 feature.weather.monthly.daily_max_median.05 feature.weather.monthly.daily_max_median.06 feature.weather.monthly.daily_max_median.07 feature.weather.monthly.daily_max_median.08 feature.weather.monthly.daily_max_median.09 feature.weather.monthly.daily_max_median.10 feature.weather.monthly.daily_max_median.11 feature.weather.monthly.daily_max_median.12 feature.weather.monthly.daily_median_median.01 feature.weather.monthly.daily_median_median.02 feature.weather.monthly.daily_median_median.03 feature.weather.monthly.daily_median_median.04 feature.weather.monthly.daily_median_median.05 feature.weather.monthly.daily_median_median.06 feature.weather.monthly.daily_median_median.07 feature.weather.monthly.daily_median_median.08 feature.weather.monthly.daily_median_median.09 feature.weather.monthly.daily_median_median.10 feature.weather.monthly.daily_median_median.11 feature.weather.monthly.daily_median_median.12 feature.weather.monthly.daily_min.01 feature.weather.monthly.daily_min.02 feature.weather.monthly.daily_min.03 feature.weather.monthly.daily_min.04 feature.weather.monthly.daily_min.05 feature.weather.monthly.daily_min.06 feature.weather.monthly.daily_min.07 feature.weather.monthly.daily_min.08 feature.weather.monthly.daily_min.09 feature.weather.monthly.daily_min.10 feature.weather.monthly.daily_min.11 feature.weather.monthly.daily_min.12 feature.weather.monthly.daily_min_median.01 feature.weather.monthly.daily_min_median.02 feature.weather.monthly.daily_min_median.03 feature.weather.monthly.daily_min_median.04 feature.weather.monthly.daily_min_median.05 feature.weather.monthly.daily_min_median.06 feature.weather.monthly.daily_min_median.07 feature.weather.monthly.daily_min_median.08 feature.weather.monthly.daily_min_median.09 feature.weather.monthly.daily_min_median.10 feature.weather.monthly.daily_min_median.11 feature.weather.monthly.daily_min_median.12 feature.weather.monthly.daily_range_median.01 feature.weather.monthly.daily_range_median.02 feature.weather.monthly.daily_range_median.03 feature.weather.monthly.daily_range_median.04 feature.weather.monthly.daily_range_median.05 feature.weather.monthly.daily_range_median.06 feature.weather.monthly.daily_range_median.07 feature.weather.monthly.daily_range_median.08 feature.weather.monthly.daily_range_median.09 feature.weather.monthly.daily_range_median.10 feature.weather.monthly.daily_range_median.11 feature.weather.monthly.daily_range_median.12 feature.weather.monthly.dd_cooling.01 feature.weather.monthly.dd_cooling.02 feature.weather.monthly.dd_cooling.03 feature.weather.monthly.dd_cooling.04 feature.weather.monthly.dd_cooling.05 feature.weather.monthly.dd_cooling.06 feature.weather.monthly.dd_cooling.07 feature.weather.monthly.dd_cooling.08 feature.weather.monthly.dd_cooling.09 feature.weather.monthly.dd_cooling.10 feature.weather.monthly.dd_cooling.11 feature.weather.monthly.dd_cooling.12 feature.weather.monthly.dd_heating.01 feature.weather.monthly.dd_heating.02 feature.weather.monthly.dd_heating.03 feature.weather.monthly.dd_heating.04 feature.weather.monthly.dd_heating.05 feature.weather.monthly.dd_heating.06 feature.weather.monthly.dd_heating.07 feature.weather.monthly.dd_heating.08 feature.weather.monthly.dd_heating.09 feature.weather.monthly.dd_heating.10 feature.weather.monthly.dd_heating.11 feature.weather.monthly.dd_heating.12 feature.extra_spaces.basement.exists feature.extra_spaces.basement.occupied feature.extra_spaces.basement.conditioned feature.extra_spaces.basement.use_fraction feature.extra_spaces.attic.exists feature.extra_spaces.attic.occupied feature.extra_spaces.attic.conditioned feature.extra_spaces.attic.use_fraction
feature_infos=[0.006679782351473644:1] [0.020488536796111977:1] [0:1] [0:1] [0:1] [0:1] [0:1] [0:1] [0:1] [0:1] [0.00011293925891075732:1] [0.00011090833661051994:1] [0:1] [0:1] [0:1] [0:1] [0:1] [0:1] [0:1] [0:1] [0:1] [0:1] [0:1] [0:1] [0:1] [0:1] [0:1] [0:1] [0:1] [0:1] [0:1] [0:1] [0:1] [0:1] [0:1] [0:1] [0:1] [0:1] [0:1] [0:1] [0:1] [0:1] [0:1] [0:0.94713381448359024] [0:0.93527432534788724] [0:1] [0:1] [0:1] [0:1] [0:1] [0:1] [0:1] [0:1] [0:1] [0:1] [0:1] [0:1] [0:1] [0:1] [0:1] [0:1] [0:3] [0:4] none [0:4] [0:5] [0:3] [0:1] [0:1] [0:1] [0:1] [0:2] [0:5] [0:2] [0:2] [0:1] [0:2] [0:1] [0:1] [0:1] [0:58] [0:1] [0:1] [0:1] [0:1] [0:1] [0:1] [0:1] [0:1] [0:1] [0:1] [0:1] [0:1] [0:1] [0:1] [0:1] [0:1] [0:1] [0:1] [0:1] [0:1] [0:1] [0:1] [0:1] [0:1] [0:1] [0:1] [0:1] [0:1] [0:1] [0:1] [0:1] [0:1] [0:1] [0:1] [0:1] [0:1] [0:1] [0:1] [0:1] [0:1] [0:1] [0:1] [0:1] [0:1] [0:1] [0:1] [0:1] [0:1] [0:1] [0:1] [0:1] [0:1] [0:1] [0:1] [0:1] [0:1] [0:1] [0:1] [0:1] [0:1] [0:1] [0:1] [0:1] [0:1] [0:1] [0:1] [0:1] [0:1] [0:1] [0:1] [0:1] [0:1] [0:1] [0:1] [0:1] [0:1] [0:1] [0:1] [0:1] [0:1] none [0:1] [0:1] [0:1] [0:1] [0:1] [0:1] [0:1] [0:1] [0:1] [0:1] none [0:1] [0:1] [0:1] [0:1] [0:1] [0:1] [0:1] [0:1] [0:1] [0:1] [0:1] [0:1] [0:1] [0:1] [0:1] [0:1] [0:1] [0:1] [0:1] [0:1]
tree_sizes=2882 2976 2971 2979 2988 2994 2997 3002 3001 2989 3020 3013 3005 2995 3027 3028 3026 3029 3020 3050 3036 3049 3023 3038 3063 3053 3037 3063 3060 3053 3057 3054 3075 3049 3066 3041 3062 3023 3065 3029 3047 3057 3070 3065 3036 3058 3043 3071 3053 3066 3041 3074 3053 3052 3064 3090 3022 3039 3055 3048 3085 3042 3053 3085 3019 3056 3044 3017 3082 3050 2997 3063 3031 3032 2996 3006 3045 2995 3027 3064 3037 2973 3026 3046 2984 3033 2997 2992 2981 3024 3012 3040 3041 2993 2987 3016 2992 3066 2983 3031 3014 3033 3021 2995 3009 3096 3083 2977 3029 2985 3008 3014 3021 3006 2995 3000 3001 3104 2974 2984 3039 2988 3020 3055 3031 2999 2992 2962 2979 2954 3052 2978 3022 2983 3049 3055 3030 2991 2954 3040 2956 3033 2976 3020 3009 2989 3017 2997 3034 2971 3051 3038 3007 2958 2972 3000 2941 2928 2958 2997 2963 2964 3009 3025 3023 3026 2965 2963 2986 3041 2959 2997 3005 2965 2968 2984 2991 3019 3008 2998 2973 2958 3005 2972 2968 2935 2937 3041 3047 2963 3010 2958 3016 2983 2978 3043 3031 3004 2982 3024 2954 2997 3013 3046 2977 2943 2991 2943 2953 2969 2977 2935 3046 2973 2953 3008 2971 2991 3021 2970 2995 2988 2994 2953 2964 2990 3042 2997 3026 2987 3001 2936 3044 2985 2940 2988 2971 3017 2974 3000 2969 2942 3008 2973 3026 3003 2968 3046 3009 3001 3017 2986 3017 2968 2970 3013 2976 3010 2983 3024 3010 2982 3013 2990 2986 2955 3001 2983 2996 2999 2957 2986 3013 2970 2967 2981 2965 2977 2969 3031 3013 2979 2971 2968 2978 2982 2971 2950 2969 2976 3002 3001 3058 3005 2968 2987 3005 2986 2992 3020 3003 3010 2953 2944 2975 2983 2987 2993 2957 2970 2978 2968 2989 3008 2969 2937 3001 2979 3015 2980 3024 3008 2991 2989 3012 2971 2981 3001 2957 2987 2977 3014 2971 2985 2972 2959 2983 3042 3037 2991 2973 3037 2981 3013 2970 2963 3033 2983 3022 2987 2995 2971 3025 2988 2971 2998 2966 2982 2984 3001 2969 2981 2998 3023 2994 2981 3006 2984 3008 3003 3015 2993 2978 2978 2973 3068 3001 2986 3032 3062 2994 2976 3004 3006 2977 3005 2976 2985 2960 2988 2999 2999 3006 3044 3021 2966 2983 3015 2981 2974 2997 3010 3030 3048 3015 2986 3019 2968 2979 3019 2974 3012 3005 2981 2984 2976 2980 2953 2973 2996 2976 3014 2949 2998 2997 3084 2978 2981 3033 2996 2975 3011 3020 2984 3005 3025 2954 2975 3027 2959 3047 3019 2950 3011 2997 3024 2970 3072 2998 3004 3004 2989 2975 2983 3014 3048 2970 2969 2975 2990 2978 2993 3006 3001 2972 3008 3097 2975 3003 2987 3032 3016 3000 3009 3009 3014 3010 2985 3015 2975 2990 3000 2998 2991 2991 2993 2974 2989 2995 2987 2993 2958 3002 2981 3005 3014 2977 3014 2962 2976 2997 3069 2968 2989 2964 3000 2994 2946 2982 2965 2972 2990 2999 2977 2972 2983 2986 2979 2962 3011 2982 3024 2980 3028 2983 3020 3008 2971 2985 3009 2991 2983 2976 2970 3009 3002 2983 2991 2963 2984 2980 2968 2979 2997 3003 3015 2992 3001 3022 3002 2976 3021 3004 2983 3000 2988 2973 2986 2989 2980 3000 3032 2977 3003 3007 3002 2977 2954 2979 2987 2996 3020 2978 2983 2939 2975 3014 3002 2992 2987 2984 3022 2977 3014 2995 3008 3029 2982 3004 3011 2983 3009 2966 3020 3026 2971 2972 3000 2971 3012 2960 2972 2990 2990 2996 3006 2965 3030 2988 3015 2983 2979 2998 2997 3008 3020 2937 2971 2979

Tree=0
num_leaves=31
num_cat=0
split_feature=67 187 191 68 188 192 191 187 192 186 68 68 188 192 188 7 190 190 7 186 7 7 191 192 7 186 7 191 7 192
split_gain=1.52322e+06 239118 239469 143348 48753.2 40143.5 40000.8 41403.8 28074.6 22704.2 22311.1 17924.5 13342.1 10323.7 9884.2 9573.17 8966.88 7323.14 6342.66 6126.49 5687.88 5476.46 5290.68 5010.3 4447.7 4069.85 3246.73 3119.93 3053.32 2923.63
threshold=1.0000000180025095e-35 1.0000000180025095e-35 1.0000000180025095e-35 1.0000000180025095e-35 0.34072539320059009 0.33597343403924135 1.0000000180025095e-35 1.0000000180025095e-35 0.36265226377894477 1.0000000180025095e-35 1.0000000180025095e-35 1.0000000180025095e-35 0.34341756951806629 0.33888121421156642 0.41345777438794923 1.0000000180025095e-35 1.0000000180025095e-35 1.0000000180025095e-35 1.0000000180025095e-35 1.0000000180025095e-35 1.0000000180025095e-35 1.0000000180025095e-35 1.0000000180025095e-35 0.36044198394291166 1.0000000180025095e-35 1.0000000180025095e-35 1.0000000180025095e-35 1.0000000180025095e-35 1.0000000180025095e-35 0.65315701206101628
decision_type=2 2 2 2 2 2 2 2 2 2 2 2 2 2 2 2 2 2 2 2 2 2 2 2 2 2 2 2 2 2
left_child=6 2 3 8 5 -5 7 12 9 -2 19 23 13 -1 18 17 24 -6 -12 26 29 25 -16 -4 -13 -10 -3 -21 -11 -7
right_child=1 10 11 4 15 20 -8 -9 21 28 14 16 -14 -15 22 -17 -18 -19 -20 27 -22 -23 -24 -25 -26 -27 -28 -29 -30 -31
leaf_value=10.188254299047694 10.923079629552667 10.221500148780196 10.377069366967335 11.38235355344681 12.133696657662428 11.93277985406929 9.954199153048144 9.9811855615792489 11.494349857284664 11.472885257574957 10.464000707400679 10.505667527508479 10.430035071661436 10.392501803060634 10.979668559955543 11.800778957059414 10.965850979454707 12.865160555679505 10.773288280349181 10.610989649439965 11.737142148686258 11.23370164653541 10.623500359705963 10.613918976123928 10.819971446931472 12.04923078003568 10.447205205360502 10.347578107250868 11.191208193675594 12.311824707174722
leaf_weight=15608 7909 1367 1883 7764 780 404 9857 7353 809 828 1451 984 3640 2941 1669 858 1770 166 1221 1870 715 820 556 1699 830 158 1194 592 719 410
leaf_count=15608 7909 1367 1883 7764 780 404 9857 7353 809 828 1451 984 3640 2941 1669 858 1770 166 1221 1870 715 820 556 1699 830 158 1194 592 719 410
internal_value=10.5684 11.0078 11.1506 11.312 11.5669 11.4746 10.1286 10.1868 11.0603 10.9916 10.5831 10.6476 10.255 10.2206 10.735 12.0427 10.8057 12.2621 10.6053 10.435 11.9429 11.4238 10.8907 10.4894 10.6495 11.585 10.3267 10.5477 11.342 12.1237
internal_weight=78825 39426 29506 22340 11097 9293 39399 29542 11243 9456 9920 7166 22189 18549 4897 1804 3584 946 2672 5023 1529 1787 2225 3582 1814 967 2561 2462 1547 814
internal_count=78825 39426 29506 22340 11097 9293 39399 29542 11243 9456 9920 7166 22189 18549 4897 1804 3584 946 2672 5023 1529 1787 2225 3582 1814 967 2561 2462 1547 814
is_linear=0
shrinkage=1


Tree=1
num_leaves=31
num_cat=0
split_feature=67 187 191 68 190 187 191 188 192 188 68 68 188 192 188 7 190 188 7 188 7 7 191 192 7 7 68 188 188 7
split_gain=1.23381e+06 193685 193970 116112 39772.8 32933.4 33105.7 32259.6 22856.1 18718.4 18072 14518.8 10856.6 8506.83 8006.21 7476.28 7263.17 6206.22 5137.56 4984.35 4667.98 4397.42 4285.45 4077.23 3602.64 3098.49 2943.2 2782.26 2780.38 2615.61
threshold=1.0000000180025095e-35 1.0000000180025095e-35 1.0000000180025095e-35 1.0000000180025095e-35 1.0000000180025095e-35 1.0000000180025095e-35 1.0000000180025095e-35 0.35381773665192745 0.44910886710593828 0.3816209656320515 1.0000000180025095e-35 1.0000000180025095e-35 0.38473457352212898 0.34966219655437331 0.41345777438794923 1.0000000180025095e-35 1.0000000180025095e-35 0.33559622956634233 1.0000000180025095e-35 0.4912164972441796 1.0000000180025095e-35 1.0000000180025095e-35 1.0000000180025095e-35 0.39951913076920537 1.0000000180025095e-35 1.0000000180025095e-35 1.0000000180025095e-35 0.37083977623837988 0.33824057690391957 1.0000000180025095e-35
decision_type=2 2 2 2 2 2 2 2 2 2 2 2 2 2 2 2 2 2 2 2 2 2 2 2 2 2 2 2 2 2
left_child=5 2 3 8 7 6 12 -5 9 -2 19 23 13 26 18 17 24 -6 -12 25 -9 27 -16 29 -13 -3 -1 -10 -7 -4
right_child=1 10 11 4 15 28 -8 20 21 -11 14 16 -14 -15 22 -17 -18 -19 -20 -21 -22 -23 -24 -25 -26 -27 -28 -29 -30 -31
leaf_value=-0.38420477660802116 0.32754547937773737 -0.28855933939768857 -0.27576361506021463 0.7328751923079293 1.3977863640984389 -0.60830247321006592 -0.52601569767478795 1.4116090547822859 0.87640247529685245 0.71567949541447839 -0.093940713469691323 -0.056440579751885038 -0.11778872774816701 -0.15545655167342509 0.37016034951247168 1.1075510747251456 0.35772453425462641 2.0653649784269787 0.1844181035624235 0.0097615644951460027 1.0564348896736824 0.61716829275508367 0.049608971035650685 0.048143028952997637 0.22643294841410166 -0.090024983466080025 -0.29801341954694777 1.3723973931206599 -0.50170171637973882 -0.046140140212479641
leaf_weight=7867 8245 1695 1043 7777 814 4875 7423 774 697 1463 1451 984 3406 2935 1669 855 1770 168 1221 1862 709 703 556 1593 830 1466 7981 135 4912 946
leaf_count=7867 8245 1695 1043 7777 814 4875 7423 774 697 1463 1451 984 3406 2935 1669 855 1770 168 1221 1862 709 703 556 1593 830 1466 7981 135 4912 946
internal_value=-6.09993e-09 0.395498 0.524014 0.669228 0.898703 -0.395769 -0.343207 0.814381 0.442733 0.386037 0.0132397 0.0713084 -0.282051 -0.311838 0.149938 1.32375 0.213609 1.512 0.0332584 -0.12003 1.24181 0.8013 0.290059 -0.0710715 0.0729889 -0.196484 -0.340799 0.956882 -0.554801 -0.166551
internal_weight=78825 39426 29506 22340 11097 39399 29612 9260 11243 9708 9920 7166 22189 18783 4897 1837 3584 982 2672 5023 1483 1535 2225 3582 1814 3161 15848 832 9787 1989
internal_count=78825 39426 29506 22340 11097 39399 29612 9260 11243 9708 9920 7166 22189 18783 4897 1837 3584 982 2672 5023 1483 1535 2225 3582 1814 3161 15848 832 9787 1989
is_linear=0
shrinkage=0.1


Tree=2
num_leaves=31
num_cat=0
split_feature=67 187 191 68 188 191 187 192 192 186 68 68 190 188 188 7 192 192 186 191 7 7 7 190 7 186 192 192 191 7
split_gain=999388 156885 157116 94050.6 32535 26977.3 26525.5 26462.2 18962.6 14966.8 14638.3 11760.3 9082.75 6754.24 6610.76 6232.09 6009.18 4617.18 4218.94 4090.77 4009.04 3926.08 3720.92 3348 3182.98 2809.61 2778.73 2632.5 2519.15 2459.76
threshold=1.0000000180025095e-35 1.0000000180025095e-35 1.0000000180025095e-35 1.0000000180025095e-35 0.37335509770475089 1.0000000180025095e-35 1.0000000180025095e-35 0.43573525533900548 0.33597343403924135 1.0000000180025095e-35 1.0000000180025095e-35 1.0000000180025095e-35 1.0000000180025095e-35 0.45292216598572516 0.33559622956634233 1.0000000180025095e-35 0.40626736520739087 0.4197469279435822 1.0000000180025095e-35 1.0000000180025095e-35 1.0000000180025095e-35 1.0000000180025095e-35 1.0000000180025095e-35 1.0000000180025095e-35 1.0000000180025095e-35 1.0000000180025095e-35 0.39195851554316224 0.37603965169995635 1.0000000180025095e-35 1.0000000180025095e-35
decision_type=2 2 2 2 2 2 2 2 2 2 2 2 2 2 2 2 2 2 2 2 2 2 2 2 2 2 2 2 2 2
left_child=5 2 3 8 7 6 12 -5 9 -2 18 23 13 -1 21 17 24 -6 -3 27 -9 -12 25 -4 -13 -10 -7 -16 -20 -11
right_child=1 10 11 4 15 26 -8 20 22 29 14 16 -14 -15 19 -17 -18 -19 28 -21 -22 -23 -24 -25 -26 -27 -28 -29 -30 -31
leaf_value=-0.305766059530034 0.28445138146790566 -0.19788520588466482 -0.15946247237297057 0.66774356232190768 1.2946986335197359 -0.54851681940352859 -0.47300096304906597 1.3189412613191467 0.74600256533662157 0.74371888147959009 -0.10120181010905555 -0.037216560801700584 -0.10860667393048046 -0.12890449551860417 0.27139519688330199 1.0093910160915989 0.33898841427761406 1.9309091062688115 0.042359733661829074 0.029114813151844617 0.96720758069751689 0.15509847490009268 0.53649128769282939 0.033909052795197618 0.21510449482047039 1.1993676349429265 -0.44199774045824508 0.59398695025222981 -0.194335289683018 0.48978288418465366
leaf_weight=16089 7835 2561 1813 8066 767 5316 7353 690 847 823 1299 1095 3606 2494 1558 829 1569 134 1870 631 611 1107 864 1769 920 163 4541 302 592 711
leaf_count=16089 7835 2561 1813 8066 767 5316 7353 690 847 823 1299 1095 3606 2494 1558 829 1569 134 1870 631 611 1107 864 1769 920 163 4541 302 592 711
internal_value=3.57416e-10 0.355948 0.471612 0.602305 0.808832 -0.356192 -0.308394 0.735246 0.39846 0.340377 0.0119158 0.0641776 -0.253846 -0.28203 0.134944 1.20726 0.192248 1.38932 -0.108027 0.249133 1.15375 0.0167219 0.688842 -0.0639644 0.0779871 0.819169 -0.499445 0.323773 -0.0145547 0.626021
internal_weight=78825 39426 29506 22340 11097 39399 29542 9367 11243 9369 9920 7166 22189 18583 4897 1730 3584 901 5023 2491 1301 2406 1874 3582 2015 1010 9857 1860 2462 1534
internal_count=78825 39426 29506 22340 11097 39399 29542 9367 11243 9369 9920 7166 22189 18583 4897 1730 3584 901 5023 2491 1301 2406 1874 3582 2015 1010 9857 1860 2462 1534
is_linear=0
shrinkage=0.1


Tree=3
num_leaves=31
num_cat=0
split_feature=67 191 187 68 190 187 188 191 192 188 68 68 188 192 192 186 192 7 188 7 192 190 7 7 7 7 7 7 68 187
split_gain=809504 127086 127910 76181 26917.4 22275.6 21379.7 21151.6 15433.8 12610 11259 10300.4 7585.36 6316.36 5404.07 5357.79 4697.69 4039.64 3807.96 3329.88 3328.3 3296.01 3155.48 2863.26 2819 2576.53 2541.74 2475 2474.25 2296.59
threshold=1.0000000180025095e-35 1.0000000180025095e-35 1.0000000180025095e-35 1.0000000180025095e-35 1.0000000180025095e-35 1.0000000180025095e-35 0.45995677495542414 1.0000000180025095e-35 0.48431452015249959 0.43095222623056745 1.0000000180025095e-35 1.0000000180025095e-35 0.34072539320059009 0.47909658239802894 0.462231464365501 1.0000000180025095e-35 0.39474277059994306 1.0000000180025095e-35 0.5324494029326986 1.0000000180025095e-35 0.36044198394291166 1.0000000180025095e-35 1.0000000180025095e-35 1.0000000180025095e-35 1.0000000180025095e-35 1.0000000180025095e-35 1.0000000180025095e-35 1.0000000180025095e-35 1.0000000180025095e-35 1.0000000180025095e-35
decision_type=2 2 2 2 2 2 2 2 2 2 2 2 2 2 2 2 2 2 2 2 2 2 2 2 2 2 2 2 2 2
left_child=5 2 3 8 6 7 -5 12 9 -2 20 21 14 17 28 22 18 -12 24 -8 25 27 -6 -10 -13 -3 -14 -4 -1 -15
right_child=1 10 11 4 15 -7 19 -9 23 -11 13 16 26 29 -16 -17 -18 -19 -20 -21 -22 -23 -24 -25 -26 -27 -28 -29 -30 -31
leaf_value=-0.31489040932729451 0.26845770464646024 -0.2822617461882479 -0.17451864660191765 0.5986387015132888 1.1361669662550753 -0.45136462849421827 1.2018803013037451 -0.42346722429273714 0.79287020068132241 0.59810267260526639 -0.085660225246697044 -0.051974439969067088 -0.019491069625757852 0.32070542242887212 -0.11470359660805879 1.4588785786582128 0.45016215742694954 0.15013912900592449 0.28619103268698987 0.8748815901836946 -0.017839406950300177 0.15392189838835224 0.84840181205930154 0.50977622792920996 0.18502843043475498 -0.07897930661392312 -0.18666843733276095 0.0030291589813554471 -0.23653807261884396 0.064998589708380641
leaf_weight=7978 8457 1299 1704 8013 812 9787 644 7423 786 1345 1613 1113 1965 1390 2408 307 562 1322 1097 603 2293 654 718 655 914 1199 1693 1456 8145 470
leaf_count=7978 8457 1299 1704 8013 812 9787 644 7423 786 1345 1613 1113 1965 1390 2408 307 562 1322 1097 603 2293 654 718 655 914 1199 1693 1456 8145 470
internal_value=2.34901e-09 0.320353 0.422113 0.542075 0.727949 -0.320573 0.658581 -0.277345 0.358614 0.313691 0.00358689 0.0647876 -0.228462 0.111917 -0.254439 1.07762 0.183997 0.0205499 0.136114 1.04376 -0.104834 -0.0504207 1.00112 0.664191 0.0548932 -0.184689 -0.0968643 -0.0927118 -0.275308 0.256091
internal_weight=78825 39426 29840 22340 11097 39399 9260 29612 11243 9802 9586 7500 22189 4795 18531 1837 3686 2935 3124 1247 4791 3814 1530 1441 2027 2498 3658 3160 16123 1860
internal_count=78825 39426 29840 22340 11097 39399 9260 29612 11243 9802 9586 7500 22189 4795 18531 1837 3686 2935 3124 1247 4791 3814 1530 1441 2027 2498 3658 3160 16123 1860
is_linear=0
shrinkage=0.1


Tree=4
num_leaves=31
num_cat=0
split_feature=67 187 191 68 186 191 192 187 190 186 68 188 190 68 191 188 7 192 192 188 186 7 188 7 7 7 188 190 68 68
split_gain=655698 105175 101117 61706.6 21940.5 18288.7 17630.5 16903.8 12857.3 10035.6 9690.28 7854.28 6354.11 5580.37 5164.83 4445.77 4397.41 3833.26 3492.96 3431.04 3198.71 3154.37 2851.01 2580 2315.59 2286.71 2282.2 2269.84 2103.1 2077.28
threshold=1.0000000180025095e-35 1.0000000180025095e-35 1.0000000180025095e-35 1.0000000180025095e-35 1.0000000180025095e-35 1.0000000180025095e-35 0.47362712143665142 1.0000000180025095e-35 1.0000000180025095e-35 1.0000000180025095e-35 1.0000000180025095e-35 0.39763271509249409 1.0000000180025095e-35 1.0000000180025095e-35 1.0000000180025095e-35 0.55402861492489797 1.0000000180025095e-35 0.35531620687078175 0.33888121421156642 0.39008013869778513 1.0000000180025095e-35 1.0000000180025095e-35 0.3949731286788945 1.0000000180025095e-35 1.0000000180025095e-35 1.0000000180025095e-35 0.68593553279415409 1.0000000180025095e-35 1.0000000180025095e-35 1.0000000180025095e-35
decision_type=2 2 2 2 2 2 2 2 2 2 2 2 2 2 2 2 2 2 2 2 2 2 2 2 2 2 2 2 2 2
left_child=5 2 3 8 6 7 -5 12 9 -2 19 13 15 25 17 29 18 20 26 -3 -12 -15 -10 -8 -14 -4 -6 -7 -13 -1
right_child=1 10 11 4 16 27 23 -9 22 -11 14 28 24 21 -16 -17 -18 -19 -20 -21 -22 -23 -24 -25 -26 -27 -28 -29 -30 -31
leaf_value=-0.28206595510352989 0.22898570827275561 -0.1648938997453212 -0.16590153732677132 0.53933243743836867 0.87405872634638149 -0.45465189762103819 1.0900685676695809 -0.38056438802197468 0.51202110154330183 0.50870159890847544 0.018149568584040002 0.16040207789839667 -0.0085820883858579462 0.014221510054765144 -0.072439602796116373 -0.09081495012609693 0.80837153675349338 0.39733339659745082 1.5367914066892683 0.0014275384781719718 0.22170919573944836 0.2196451764183435 0.86873115282792313 0.79576228040509522 -0.16912814901603382 0.0082472579263839288 1.2129351849825878 -0.3586767072459861 0.43449329116814578 -0.21114273830566954
leaf_weight=8230 7828 2790 1618 8062 428 4908 630 7353 1621 1534 1532 552 1909 1648 1211 2064 876 598 165 2233 1556 1368 260 565 1697 1412 371 4949 568 8289
leaf_count=8230 7828 2790 1618 8062 428 4908 630 7353 1621 1534 1532 552 1909 1648 1211 2064 876 598 165 2233 1556 1368 260 565 1697 1412 371 4949 568 8289
internal_value=2.94529e-09 0.288318 0.383021 0.487867 0.655154 -0.288515 0.592465 -0.24916 0.322752 0.274818 0.006633 0.0561627 -0.205615 0.0111029 0.106732 -0.229188 0.970544 0.165597 1.11791 -0.0909549 0.12072 0.107398 0.561327 0.95092 -0.0841358 -0.084747 1.03141 -0.406465 0.299405 -0.246478
internal_weight=78825 39426 29506 22340 11097 39399 9257 29542 11243 9362 9920 7166 22189 6046 4897 18583 1840 3686 964 5023 3088 3016 1881 1195 3606 3030 799 9857 1120 16519
internal_count=78825 39426 29506 22340 11097 39399 9257 29542 11243 9362 9920 7166 22189 6046 4897 18583 1840 3686 964 5023 3088 3016 1881 1195 3606 3030 799 9857 1120 16519
is_linear=0
shrinkage=0.1


Tree=5
num_leaves=31
num_cat=0
split_feature=67 187 191 68 190 187 188 191 192 188 68 186 186 192 7 188 7 192 191 190 188 7 192 186 7 7 68 7 7 68
split_gain=531116 85191.4 81904.5 49982.4 18310.7 15151 14345.4 13435.2 10566 8729.67 7849.13 6427.03 5403.34 4893.69 4801.93 3790.05 3564.76 3543.72 3291.85 2658.45 2636.28 2321.8 2298.04 2258.23 2184.22 2150.25 2045.71 2000.49 1982.84 1837.79
threshold=1.0000000180025095e-35 1.0000000180025095e-35 1.0000000180025095e-35 1.0000000180025095e-35 1.0000000180025095e-35 1.0000000180025095e-35 0.53041765973421906 1.0000000180025095e-35 0.53019897339997668 0.51949734066330044 1.0000000180025095e-35 1.0000000180025095e-35 1.0000000180025095e-35 0.54869373010043099 1.0000000180025095e-35 0.45521924479458847 1.0000000180025095e-35 0.56582713353455039 1.0000000180025095e-35 1.0000000180025095e-35 0.50153142835888276 1.0000000180025095e-35 0.74913171220811836 1.0000000180025095e-35 1.0000000180025095e-35 1.0000000180025095e-35 1.0000000180025095e-35 1.0000000180025095e-35 1.0000000180025095e-35 1.0000000180025095e-35
decision_type=2 2 2 2 2 2 2 2 2 2 2 2 2 2 2 2 2 2 2 2 2 2 2 2 2 2 2 2 2 2
left_child=5 2 3 8 6 7 -5 12 9 -2 18 13 17 16 20 22 -4 -1 19 27 -12 -10 -6 -7 -8 -11 -15 -3 -14 -13
right_child=1 10 11 4 15 23 24 -9 21 25 14 29 28 26 -16 -17 -18 -19 -20 -21 -22 -23 -24 -25 -26 -27 -28 -29 -30 -31
leaf_value=-0.22215226967644219 0.22162540765106678 -0.14781002351849401 -0.14415288178744179 0.48743696593539626 0.73094413925178403 -0.41610359419325854 1.0146639978842615 -0.34047022807570815 0.67900144161047815 0.64796597612425932 -0.072626688155331506 0.13587026938667376 -0.0065734513122924195 0.034648942863387919 0.2040848587806964 1.2399403266906739 0.045568977339161931 -0.079783643112563155 -0.22564496707688139 0.1472370841430122 0.13244251649270367 0.41217526195449961 0.98176845989729233 -0.32002736259682485 0.72873365527899692 0.37157685665326701 0.23897530816867568 0.011813416930729816 -0.15352508838103313 0.38094408691122938
leaf_weight=16541 8800 1704 2134 8190 1017 4839 554 7423 713 594 1650 608 1983 979 2236 250 1848 1955 1209 654 1011 601 570 4948 516 535 981 1456 1710 616
leaf_count=16541 8800 1704 2134 8190 1017 4839 554 7423 713 594 1650 608 1983 979 2236 250 1848 1955 1209 654 1011 601 570 4948 516 535 981 1456 1710 616
internal_value=3.74859e-09 0.259486 0.344719 0.43908 0.589639 -0.259664 0.532425 -0.224013 0.290477 0.255211 0.0059697 0.0505465 -0.185054 0.007564 0.0960586 0.878042 -0.0561052 -0.207104 -0.0818594 -0.0362808 0.00528574 0.55696 0.821032 -0.36753 0.876776 0.516993 0.136916 -0.074262 -0.0746177 0.259208
internal_weight=78825 39426 29506 22340 11097 39399 9260 29612 11243 9929 9920 7166 22189 5942 4897 1837 3982 18496 5023 3814 2661 1314 1587 9787 1070 1129 1960 3160 3693 1224
internal_count=78825 39426 29506 22340 11097 39399 9260 29612 11243 9929 9920 7166 22189 5942 4897 1837 3982 18496 5023 3814 2661 1314 1587 9787 1070 1129 1960 3160 3693 1224
is_linear=0
shrinkage=0.1


Tree=6
num_leaves=31
num_cat=0
split_feature=67 191 187 68 186 191 192 187 190 188 190 188 192 68 7 7 7 188 192 68 188 7 192 7 187 187 68 7 188 188
split_gain=430204 69691.8 66165.2 40485.7 14932.8 12471.5 11880.5 10703.3 8802.6 6923.34 6899.15 5568.49 4573.73 4171.97 3467.07 3128.01 3105.23 3090.3 2547.5 2273.72 2191.88 2106.32 2095.4 1952.59 1913.6 1900.69 1822.26 1806.32 1712.44 1710.21
threshold=1.0000000180025095e-35 1.0000000180025095e-35 1.0000000180025095e-35 1.0000000180025095e-35 1.0000000180025095e-35 1.0000000180025095e-35 0.36044198394291166 1.0000000180025095e-35 1.0000000180025095e-35 0.57291480644447945 1.0000000180025095e-35 0.4912164972441796 0.43296103452312534 1.0000000180025095e-35 1.0000000180025095e-35 1.0000000180025095e-35 1.0000000180025095e-35 0.56992859362937942 0.44639105227536835 1.0000000180025095e-35 0.3949731286788945 1.0000000180025095e-35 0.34460722797662396 1.0000000180025095e-35 1.0000000180025095e-35 1.0000000180025095e-35 1.0000000180025095e-35 1.0000000180025095e-35 0.72489264736809667 0.41102229151416125
decision_type=2 2 2 2 2 2 2 2 2 2 2 2 2 2 2 2 2 2 2 2 2 2 2 2 2 2 2 2 2 2
left_child=5 2 3 8 6 7 -5 12 9 -2 14 16 17 -12 25 18 22 26 28 -13 -10 -8 -4 -7 -15 -3 -1 -14 -6 -9
right_child=1 10 11 4 15 23 21 29 20 -11 13 19 27 24 -16 -17 -18 -19 -20 -21 -22 -23 -24 -25 -26 -27 -28 -29 -30 -31
leaf_value=-0.23156482144845666 0.19302081521425746 -0.11605661889554078 -0.13041697005408776 0.42965580450604729 0.72935692057197477 -0.37202456994765132 0.85172748279083721 -0.34920637690982792 0.41560031268274544 0.47902056134595883 -0.0094565753228605925 0.071579615508872207 0.018934458644843416 0.23041988275397973 0.0050117140094993236 0.65409037370115664 0.073229978604122115 -0.068608507409558303 1.3232832547390101 0.24985209848641526 0.72836984937007621 0.61220041589240815 0.12045525062027612 -0.28269604604932141 0.02639515700934893 -0.31631548761562178 -0.16622106966607209 -0.13473132060896717 1.0204371777573074 -0.25222552980374918
leaf_weight=8476 8421 1932 2119 7783 486 5341 782 4059 1621 941 2387 1417 1628 1770 2248 876 2124 2046 132 1445 260 692 395 4516 621 628 8596 1443 346 3294
leaf_count=8476 8421 1932 2119 7783 486 5341 782 4059 1621 941 2387 1417 1628 1770 2248 876 2124 2046 132 1445 260 692 395 4516 621 628 8596 1443 346 3294
internal_value=-1.39283e-09 0.233537 0.308894 0.395172 0.530675 -0.233697 0.478957 -0.201198 0.261429 0.221767 -0.00103687 0.0518975 -0.166549 0.0840648 -0.0856076 0.790867 -0.0157898 -0.184745 0.915158 0.161588 0.458833 0.739277 -0.0909999 -0.331099 0.17743 -0.165183 -0.198663 -0.0532699 0.850407 -0.305761
internal_weight=78825 39426 29840 22340 11097 39399 9257 29542 11243 9362 9586 7500 22189 4778 4808 1840 4638 19118 964 2862 1881 1474 2514 9857 2391 2560 17072 3071 832 7353
internal_count=78825 39426 29840 22340 11097 39399 9257 29542 11243 9362 9586 7500 22189 4778 4808 1840 4638 19118 964 2862 1881 1474 2514 9857 2391 2560 17072 3071 832 7353
is_linear=0
shrinkage=0.1


Tree=7
num_leaves=31
num_cat=0
split_feature=67 187 191 68 192 187 188 191 192 188 186 188 186 68 68 191 7 68 192 7 7 7 7 192 192 7 192 188 7 68
split_gain=348465 56723.6 53022.2 32793.4 12448.6 10367.4 10293.5 8475.47 7387.17 6232.53 6107.08 5210.81 3856.45 3680.83 3200.78 2990.16 2457.17 2383.05 2331.11 2102.63 1893.59 1851.32 1772.42 1741.93 1738.81 1721.89 1678.99 1631.49 1612.32 1464.83
threshold=1.0000000180025095e-35 1.0000000180025095e-35 1.0000000180025095e-35 1.0000000180025095e-35 0.49724768778634271 1.0000000180025095e-35 0.56011237228189337 1.0000000180025095e-35 0.61411950318392539 0.34072539320059009 1.0000000180025095e-35 0.44796546816636229 1.0000000180025095e-35 1.0000000180025095e-35 1.0000000180025095e-35 1.0000000180025095e-35 1.0000000180025095e-35 1.0000000180025095e-35 0.61411950318392539 1.0000000180025095e-35 1.0000000180025095e-35 1.0000000180025095e-35 1.0000000180025095e-35 0.34460722797662396 0.43573525533900548 1.0000000180025095e-35 0.51990079260711031 0.57291480644447945 1.0000000180025095e-35 1.0000000180025095e-35
decision_type=2 2 2 2 2 2 2 2 2 2 2 2 2 2 2 2 2 2 2 2 2 2 2 2 2 2 2 2 2 2
left_child=5 2 3 8 6 7 -5 12 9 -2 15 13 18 26 -12 17 27 -3 29 -15 -7 -11 -16 -14 -9 -10 -4 -6 -8 -1
right_child=1 10 11 4 16 20 28 24 25 21 14 -13 23 19 22 -17 -18 -19 -20 -21 -22 -23 -24 -25 -26 -27 -28 -29 -30 -31
leaf_value=-0.20972053955034509 0.17452038410246926 -0.10847549987116106 -0.12308085673129564 0.40167016039108394 0.83559599462270018 -0.34013624063897152 0.84722903334797506 -0.31498089408818614 0.5955919685553871 0.48823195852803858 0.00071965374507310337 0.25248398608889094 -0.087921301956610853 0.010400034057955549 0.084747521194566078 -0.2132595688505442 0.6175139207618181 0.050793540507259941 -0.057720961146388916 0.17668463703801579 -0.25187774100179472 0.27391657170194844 0.25376571663897618 0.093977049851270977 -0.21708821167972456 0.34340062394617049 0.031761216056176683 1.3340322050329758 0.60128158789414632 -0.15061566357805423
leaf_weight=8310 8529 1944 2002 8656 654 5287 562 4265 602 866 2462 1019 3057 1676 1370 1192 645 1818 1722 1392 4500 754 1134 636 3158 492 1077 73 507 8464
leaf_count=8310 8529 1944 2002 8656 654 5287 562 4265 602 866 2462 1019 3057 1676 1370 1192 645 1818 1722 1392 4500 754 1134 636 3158 492 1077 73 507 8464
internal_value=1.32869e-09 0.210184 0.279733 0.355655 0.477607 -0.210328 0.437825 -0.180837 0.235286 0.208673 0.00331725 0.0430443 -0.149894 0.00832511 0.0816847 -0.07524 0.759592 -0.0315082 -0.168522 0.085846 -0.299556 0.388483 0.161292 -0.0565952 -0.273334 0.482175 -0.0689188 0.885645 0.730582 -0.179897
internal_weight=78825 39426 29506 22340 11097 39399 9725 29612 11243 10149 9920 7166 22189 6147 4966 4954 1372 3762 18496 3068 9787 1620 2504 3693 7423 1094 3079 727 1069 16774
internal_count=78825 39426 29506 22340 11097 39399 9725 29612 11243 10149 9920 7166 22189 6147 4966 4954 1372 3762 18496 3068 9787 1620 2504 3693 7423 1094 3079 727 1069 16774
is_linear=0
shrinkage=0.1


Tree=8
num_leaves=31
num_cat=0
split_feature=67 191 187 68 186 191 192 187 188 192 190 192 7 188 7 68 190 190 186 7 68 187 187 188 186 7 188 7 7 187
split_gain=282257 46554.5 42728.8 26562.7 10342.2 8559.98 7970.13 6725.27 6207.28 5410 5019.18 4785.35 3359.8 3246.25 3065.53 2637.67 2389.76 2300.06 2173.33 2055.65 1882.65 1729.83 1682.37 1583.94 1467.86 1453 1395.34 1342.21 1291.68 1282.8
threshold=1.0000000180025095e-35 1.0000000180025095e-35 1.0000000180025095e-35 1.0000000180025095e-35 1.0000000180025095e-35 1.0000000180025095e-35 0.57100559326088074 1.0000000180025095e-35 0.48340425512418184 0.45938799772149941 1.0000000180025095e-35 0.42774679867736537 1.0000000180025095e-35 0.64691443299706142 1.0000000180025095e-35 1.0000000180025095e-35 1.0000000180025095e-35 1.0000000180025095e-35 1.0000000180025095e-35 1.0000000180025095e-35 1.0000000180025095e-35 1.0000000180025095e-35 1.0000000180025095e-35 0.33824057690391957 1.0000000180025095e-35 1.0000000180025095e-35 0.37335509770475089 1.0000000180025095e-35 1.0000000180025095e-35 1.0000000180025095e-35
decision_type=2 2 2 2 2 2 2 2 2 2 2 2 2 2 2 2 2 2 2 2 2 2 2 2 2 2 2 2 2 2
left_child=5 2 3 8 6 7 -5 13 10 14 -2 12 18 16 22 -11 -1 27 -4 -10 -14 24 23 -3 -7 -8 -9 -6 -15 -16
right_child=1 9 11 4 17 21 25 26 19 15 -12 -13 20 28 29 -17 -18 -19 -20 -21 -22 -23 -24 -25 -26 -27 -28 -29 -30 -31
leaf_value=-0.16201461921431592 0.15192215468370418 -0.12651496273355897 -0.1338626011771567 0.35504226038313824 0.68662096054788213 -0.2663758477012414 0.77488797665582843 -0.28675046601879922 0.52554192712629877 0.0065129304819761345 0.34253779579759147 0.23793600147567615 0.01187360346002576 0.060426683341878479 0.053929961654222369 0.17135311739735309 -0.068529631159418555 0.89622278182436677 0.02444645756036808 0.28061022508745043 0.17194018131186939 -0.34314633947272921 -0.26068957375894702 0.099032735951014514 -0.14894912426088075 0.5299931748673834 -0.19952371731176713 0.49935925239155199 -0.10123686718563484 -0.10743371190717557
leaf_weight=16935 8206 1910 1749 8286 794 6135 507 3855 731 1952 1661 1090 1507 1086 1997 1931 3261 307 1720 645 1434 2434 770 372 1288 464 3498 739 907 654
leaf_count=16935 8206 1910 1749 8286 794 6135 507 3855 731 1952 1661 1090 1507 1086 1997 1931 3261 307 1720 645 1434 2434 770 372 1288 464 3498 739 907 654
internal_value=1.47173e-09 0.189165 0.250755 0.32009 0.429847 -0.189295 0.386806 -0.16237 0.211758 -0.002556 0.18401 0.0442304 0.0112914 -0.134904 -0.0645446 0.0884873 -0.14692 0.646383 -0.0553698 0.41073 0.0899203 -0.269989 -0.132875 -0.0897473 -0.246001 0.657863 -0.245255 0.596349 -0.0131452 0.0141216
internal_weight=78825 39426 29840 22340 11097 39399 9257 29542 11243 9586 9867 7500 6410 22189 5703 3883 20196 1840 3469 1376 2941 9857 3052 2282 7423 971 7353 1533 1993 2651
internal_count=78825 39426 29840 22340 11097 39399 9257 29542 11243 9586 9867 7500 6410 22189 5703 3883 20196 1840 3469 1376 2941 9857 3052 2282 7423 971 7353 1533 1993 2651
is_linear=0
shrinkage=0.1


Tree=9
num_leaves=31
num_cat=0
split_feature=67 187 191 68 190 191 188 187 192 188 188 188 7 192 188 7 7 191 68 192 191 188 192 192 192 68 7 7 192 7
split_gain=228628 37746.8 34336.7 21515.8 8631.7 6933.58 6603.43 5447.46 5246.09 4832.65 4197.67 4014.83 3120.52 3037.77 2704.52 2136.41 1948.72 1735.22 1716.93 1595.97 1595.83 1555.66 1541.46 1509.27 1450.38 1441.59 1408.19 1356.01 1325.21 1306.14
threshold=1.0000000180025095e-35 1.0000000180025095e-35 1.0000000180025095e-35 1.0000000180025095e-35 1.0000000180025095e-35 1.0000000180025095e-35 0.57579643720912699 1.0000000180025095e-35 0.61411950318392539 0.5805975008258033 0.64889035632863312 0.50153142835888276 1.0000000180025095e-35 0.64803710757006827 0.45995677495542414 1.0000000180025095e-35 1.0000000180025095e-35 1.0000000180025095e-35 1.0000000180025095e-35 0.51710385674443726 1.0000000180025095e-35 0.46777846619334645 0.5583050290928312 0.47362712143665142 0.39195851554316224 1.0000000180025095e-35 1.0000000180025095e-35 1.0000000180025095e-35 0.34239207382040127 1.0000000180025095e-35
decision_type=2 2 2 2 2 2 2 2 2 2 2 2 2 2 2 2 2 2 2 2 2 2 2 2 2 2 2 2 2 2
left_child=5 2 3 8 6 7 -5 14 10 12 -2 13 17 15 18 -4 21 22 -1 26 24 -6 -3 -20 -11 -14 -7 -10 -9 -16
right_child=1 9 11 4 16 19 -8 28 27 20 -12 -13 25 -15 29 -17 -18 -19 23 -21 -22 -23 -24 -25 -26 -27 -28 -29 -30 -31
leaf_value=-0.1652104077747957 0.14892397656966402 -0.09449687480835528 -0.095067413959606092 0.31849474371358033 0.63073260285919086 -0.31719918945603398 0.59276065350550011 -0.23960774070103136 0.49928623631943109 0.11125851096456441 0.38322739137106299 0.23289271350896215 -0.0374589296774296 0.12700775466484218 0.028656950039422022 0.040828201066979604 0.47449555252030584 -0.22955470239737319 -0.12046667034129997 -0.18989528027508545 -0.020894480153458142 0.9962472827346236 0.14984162048818286 -0.001505628260744045 0.32411210387556116 0.097819594448008168 -0.22203398727978968 0.2754864783760736 -0.12526304515334127 -0.10406900549257972
leaf_weight=9558 9316 2495 2525 8278 847 3385 982 6139 602 1950 833 909 1641 1597 1601 2135 855 891 8428 3596 757 135 288 1221 383 1515 2876 492 1214 1381
leaf_count=9558 9316 2495 2525 8278 847 3385 982 6139 602 1950 833 909 1641 1597 1601 2135 855 891 8428 3596 757 135 288 1221 383 1515 2876 492 1214 1381
internal_value=-1.00142e-09 0.170249 0.226984 0.288081 0.386862 -0.170365 0.34758 -0.146133 0.190582 0.00149697 0.168155 0.0365132 -0.0454498 0.00798376 -0.121414 -0.0328062 0.584876 -0.108097 -0.13517 -0.24299 0.105266 0.680982 -0.0692114 -0.105413 0.146202 0.0274799 -0.273485 0.398638 -0.220729 -0.03281
internal_weight=78825 39426 29506 22340 11097 39399 9260 29542 11243 9920 10149 7166 6830 6257 22189 4660 1837 3674 19207 9857 3090 982 2783 9649 2333 3156 6261 1094 7353 2982
internal_count=78825 39426 29506 22340 11097 39399 9260 29542 11243 9920 10149 7166 6830 6257 22189 4660 1837 3674 19207 9857 3090 982 2783 9649 2333 3156 6261 1094 7353 2982
is_linear=0
shrinkage=0.1


Tree=10
num_leaves=31
num_cat=0
split_feature=67 191 187 68 186 187 192 186 68 191 68 190 192 190 190 190 192 7 68 7 186 188 7 188 187 7 190 188 7 192
split_gain=185189 30887.1 27756.4 17427.8 7174.67 5789.05 5478.99 4551.82 4376.67 4291.78 3566.29 3241.95 2437.35 2394.65 2203.62 1771.41 1707.89 1670.19 1618.21 1471.84 1452.49 1411.62 1400.08 1367.26 1328.22 1270.55 1232.23 1156.52 1154.36 1147.42
threshold=1.0000000180025095e-35 1.0000000180025095e-35 1.0000000180025095e-35 1.0000000180025095e-35 1.0000000180025095e-35 1.0000000180025095e-35 0.61411950318392539 1.0000000180025095e-35 1.0000000180025095e-35 1.0000000180025095e-35 1.0000000180025095e-35 1.0000000180025095e-35 0.53759164292789619 1.0000000180025095e-35 1.0000000180025095e-35 1.0000000180025095e-35 0.66088093351990473 1.0000000180025095e-35 1.0000000180025095e-35 1.0000000180025095e-35 1.0000000180025095e-35 0.6339987393073957 1.0000000180025095e-35 0.68593553279415409 1.0000000180025095e-35 1.0000000180025095e-35 1.0000000180025095e-35 0.35691243156799241 1.0000000180025095e-35 0.56084114581615963
decision_type=2 2 2 2 2 2 2 2 2 2 2 2 2 2 2 2 2 2 2 2 2 2 2 2 2 2 2 2 2 2
left_child=5 2 3 7 6 9 -5 11 15 12 21 -2 18 24 23 -3 25 29 -1 27 -20 28 -14 -12 -10 -6 -11 -7 -4 -9
right_child=1 8 10 4 16 19 -8 17 13 26 14 -13 22 -15 -16 -17 -18 -19 20 -21 -22 -23 -24 -25 -26 -27 -28 -29 -30 -31
leaf_value=-0.15005749450110326 0.11708586744099901 -0.13112776759529496 -0.12788446057852748 0.28769069390674046 0.58246010312719421 -0.30135603781382947 0.5525696257957875 0.3648435885393167 0.03651640992508965 -0.23799361329879207 0.03572747607763066 0.27346503316683879 0.054462335464485173 0.13546307801346605 0.27952451269282708 -0.0095148984235030563 0.84618352966923871 0.21210044450333423 -0.10955935356154388 -0.17797062712104783 -0.0058876999431215302 0.069299863438789674 -0.094874590905445422 0.1938539618940166 -0.13620923177796906 0.4086265532905351 -0.15650640296694504 -0.20778357863815011 0.0011615086182429179 0.69842166228172109
leaf_weight=9751 7828 2404 1489 8396 879 2712 861 869 1814 3699 2357 1596 1319 2391 617 2387 155 833 8307 4500 1614 1028 1198 712 590 806 3724 2575 1297 117
leaf_count=9751 7828 2404 1489 8396 879 2712 861 869 1814 3699 2357 1596 1319 2391 617 2387 155 833 8307 4500 1614 1028 1198 712 590 806 3724 2575 1297 117
internal_value=6.0243e-10 0.153224 0.203391 0.259273 0.348176 -0.153329 0.312327 0.171524 -0.00293904 -0.131292 0.0369369 0.143569 -0.109272 0.0646026 0.107081 -0.0705371 0.528529 0.316352 -0.121128 -0.220005 -0.0926935 -0.030853 -0.0166166 0.0724124 -0.00587466 0.499309 -0.197113 -0.255782 -0.0678081 0.404426
internal_weight=78825 39426 29840 22340 11097 39399 9257 11243 9586 29612 7500 9424 22189 4795 3686 4791 1840 1819 19672 9787 9921 3814 2517 3069 2404 1685 7423 5287 2786 986
internal_count=78825 39426 29840 22340 11097 39399 9257 11243 9586 29612 7500 9424 22189 4795 3686 4791 1840 1819 19672 9787 9921 3814 2517 3069 2404 1685 7423 5287 2786 986
is_linear=0
shrinkage=0.1


Tree=11
num_leaves=31
num_cat=0
split_feature=67 187 191 68 190 191 188 188 186 187 186 192 7 190 68 191 7 7 7 187 192 188 188 188 192 192 68 7 68 7
split_gain=150003 25442.6 21964 14116.5 6017.3 4796.62 4590.27 3695.71 3638.83 3388.47 3336.12 2875.84 2271.72 2039.66 1948.35 1869.27 1558.91 1339.6 1336.63 1325.61 1276.46 1241.12 1183.45 1182.69 1153.44 1086.56 1079.19 1048.74 1011.47 1006.1
threshold=1.0000000180025095e-35 1.0000000180025095e-35 1.0000000180025095e-35 1.0000000180025095e-35 1.0000000180025095e-35 1.0000000180025095e-35 0.61526089631037262 0.54810081710962943 1.0000000180025095e-35 1.0000000180025095e-35 1.0000000180025095e-35 0.7067100116628785 1.0000000180025095e-35 1.0000000180025095e-35 1.0000000180025095e-35 1.0000000180025095e-35 1.0000000180025095e-35 1.0000000180025095e-35 1.0000000180025095e-35 1.0000000180025095e-35 0.75195092881374792 0.45995677495542414 0.68317918902603447 0.36500128204220339 0.67229458897586425 0.42536661610379523 1.0000000180025095e-35 1.0000000180025095e-35 1.0000000180025095e-35 1.0000000180025095e-35
decision_type=2 2 2 2 2 2 2 2 2 2 2 2 2 2 2 2 2 2 2 2 2 2 2 2 2 2 2 2 2 2
left_child=5 2 3 7 6 9 -5 11 15 13 12 -2 24 22 -10 17 20 -3 -9 23 -6 -15 -1 29 -4 -11 -14 -16 -12 -7
right_child=1 8 10 4 16 19 -8 18 14 25 28 -13 26 21 27 -17 -18 -19 -20 -21 -22 -23 -24 -25 -26 -27 -28 -29 -30 -31
leaf_value=-0.11906432392788478 0.11965697883550275 -0.08191253036080498 -0.089553532854484044 0.25747341311957445 0.47561080057112898 -0.23262421532860378 0.49527559590684422 0.42045976821845177 -0.0033194039245684824 -0.19242454443873633 0.090977660894522597 0.32537312850376432 0.0058637683709520591 -0.053519765054709081 0.063079340819379465 -0.1704076523172213 0.37996204997886696 0.037794865527826363 0.20796042623788977 -0.26244300484363431 0.71064083537747791 0.11388383968688216 -0.025213385433982945 -0.087835439647722058 0.051176277441916121 -0.08285533093826189 0.13145531069784039 0.19309189081252792 0.27279084042295237 -0.15179160382011531
leaf_weight=17125 9321 2027 2440 8361 610 3325 899 633 2462 6296 608 733 1381 3089 1370 1192 855 1735 556 2434 372 517 1458 1230 765 1057 1356 1134 616 2868
leaf_count=17125 9321 2027 2440 8361 610 3325 899 633 2462 6296 608 733 1381 3089 1370 1192 855 1735 556 2434 372 517 1458 1230 765 1057 1356 1134 616 2868
internal_value=-2.32959e-09 0.137901 0.18448 0.233345 0.313358 -0.137996 0.28056 0.154371 -0.000642742 -0.117841 0.032144 0.134655 0.00117646 -0.0983452 0.0598495 -0.0612815 0.478687 -0.0267046 0.321091 -0.198401 0.564645 -0.0295187 -0.111701 -0.177402 -0.0559628 -0.176674 0.068086 0.121959 0.182478 -0.19519
internal_weight=78825 39426 29506 22340 11097 39399 9260 11243 9920 29542 7166 10054 5942 22189 4966 4954 1837 3762 1189 9857 982 3606 18583 7423 3205 7353 2737 2504 1224 6193
internal_count=78825 39426 29506 22340 11097 39399 9260 11243 9920 29542 7166 10054 5942 22189 4966 4954 1837 3762 1189 9857 982 3606 18583 7423 3205 7353 2737 2504 1224 6193
is_linear=0
shrinkage=0.1


Tree=12
num_leaves=31
num_cat=0
split_feature=67 191 187 68 186 191 190 190 192 192 187 188 68 187 68 68 186 68 7 7 192 188 188 188 188 7 192 188 192 188
split_gain=121502 20691.3 17870.5 11434.4 5130.02 3885.26 3670.14 3268.68 3258.1 3064.95 2744.66 2219.43 2126.12 2022.18 1893.05 1609.61 1592.97 1344.59 1342.44 1334.96 1143.89 1097.08 1037.01 1036.15 1000.26 984.447 950.961 948.393 893.105 889.711
threshold=1.0000000180025095e-35 1.0000000180025095e-35 1.0000000180025095e-35 1.0000000180025095e-35 1.0000000180025095e-35 1.0000000180025095e-35 1.0000000180025095e-35 1.0000000180025095e-35 0.55367981627827922 0.55367981627827922 1.0000000180025095e-35 0.69918383217912372 1.0000000180025095e-35 1.0000000180025095e-35 1.0000000180025095e-35 1.0000000180025095e-35 1.0000000180025095e-35 1.0000000180025095e-35 1.0000000180025095e-35 1.0000000180025095e-35 0.56084114581615963 0.80838669092512483 0.50901264971301952 0.65171929915113191 0.56533700909779772 1.0000000180025095e-35 0.80060690253688305 0.39008013869778513 0.65561252796858749 0.56297379590937713
decision_type=2 2 2 2 2 2 2 2 2 2 2 2 2 2 2 2 2 2 2 2 2 2 2 2 2 2 2 2 2 2
left_child=5 2 3 7 6 10 -5 11 13 12 14 -2 27 15 -1 -3 28 -10 29 21 25 -6 -12 -14 -17 -7 -8 -4 -16 -9
right_child=1 8 9 4 19 20 26 18 17 -11 22 -13 23 -15 16 24 -18 -19 -20 -21 -22 -23 -24 -25 -26 -27 -28 -29 -30 -31
leaf_value=-0.11796661063074064 0.10117152902471932 -0.069978763361567289 -0.093912282080969176 0.22369072489431763 0.44866995901171275 -0.23789244333061679 0.34479673164154795 0.30606733067237196 0.014515154159320143 0.20994380567423493 -0.18779807341003704 0.28915770987222084 0.033133608025159432 -0.1422582596612563 -0.085506903111023116 0.023142831684001816 0.025036388913294266 0.144854864180128 0.16796214751306973 0.34517357989499287 -0.13008969515170127 0.68544627249022549 -0.11002271210408342 0.16206917784957126 0.23117915914325643 -0.16034254646841195 0.52158894331899075 0.012718929981408772 0.028494485013855195 0.6175041967747259
leaf_weight=11001 8685 2419 1890 7727 691 3587 1111 911 1592 854 4631 677 2424 1595 8584 2147 1857 1574 868 876 3259 273 2722 839 259 3011 419 1493 747 102
leaf_count=11001 8685 2419 1890 7727 691 3587 1111 911 1592 854 4631 677 2424 1595 8584 2147 1857 1574 868 876 3259 273 2722 839 259 3011 419 1493 747 102
internal_value=7.52867e-10 0.124111 0.165172 0.210011 0.282022 -0.124196 0.251709 0.138934 -0.00370413 0.0316105 -0.106057 0.114765 0.00869501 -0.0446445 -0.0885107 -0.0123763 -0.0595471 0.0793145 0.259226 0.434527 -0.178561 0.515724 -0.159006 0.0662862 0.0455374 -0.202503 0.393212 -0.0468533 -0.0763804 0.337426
internal_weight=78825 39426 29840 22340 11097 39399 9257 11243 9586 7500 29542 9362 6646 6420 22189 4825 11188 3166 1881 1840 9857 964 7353 3263 2406 6598 1530 3383 9331 1013
internal_count=78825 39426 29840 22340 11097 39399 9257 11243 9586 7500 29542 9362 6646 6420 22189 4825 11188 3166 1881 1840 9857 964 7353 3263 2406 6598 1530 3383 9331 1013
is_linear=0
shrinkage=0.1


Tree=13
num_leaves=31
num_cat=0
split_feature=67 187 191 68 188 187 192 7 186 186 186 191 7 192 191 192 68 7 192 192 68 68 188 188 192 192 7 192 7 7
split_gain=98416.8 16932.1 14215 9261.83 4229.15 3260.74 3218.76 2899.33 2768.39 2553.68 2346.88 2069.94 1845.49 1841.51 1668.09 1652.94 1358.35 1147.11 1112.05 1099.77 949.895 930.584 919.929 849.902 842.667 821.993 815.545 761.662 752.891 750.454
threshold=1.0000000180025095e-35 1.0000000180025095e-35 1.0000000180025095e-35 1.0000000180025095e-35 0.50901264971301952 1.0000000180025095e-35 0.66714175118598107 1.0000000180025095e-35 1.0000000180025095e-35 1.0000000180025095e-35 1.0000000180025095e-35 1.0000000180025095e-35 1.0000000180025095e-35 0.67229458897586425 1.0000000180025095e-35 0.33888121421156642 1.0000000180025095e-35 1.0000000180025095e-35 0.53019897339997668 0.53291882940342894 1.0000000180025095e-35 1.0000000180025095e-35 0.74656040463358264 0.46777846619334645 0.74644849616375097 0.34239207382040127 1.0000000180025095e-35 0.55367981627827922 1.0000000180025095e-35 1.0000000180025095e-35
decision_type=2 2 2 2 2 2 2 2 2 2 2 2 2 2 2 2 2 2 2 2 2 2 2 2 2 2 2 2 2 2
left_child=5 2 3 8 6 10 -5 14 13 12 11 20 24 -2 15 22 -9 23 26 29 -1 -12 -3 -7 -4 -14 -10 -11 -8 -6
right_child=1 7 9 4 19 17 28 16 18 27 21 -13 25 -15 -16 -17 -18 -19 -20 -21 -22 -23 -24 -25 -26 -27 -28 -29 -30 -31
leaf_value=-0.11406827965181346 0.090035683253002402 -0.072351666527658981 -0.076258418774114822 0.2139185339135993 0.46385035753635295 -0.22618042124390048 0.51690892522985288 0.0039369086940886679 0.27619846488817507 0.10279274900021043 -0.075884462508394299 -0.15823259720356397 0.0085774350545548134 0.25122562101969759 -0.14991763829619068 0.12713180425929727 0.11272820760996818 -0.12470881279466882 0.4550006413431259 0.67157822065539174 -0.068742393925427553 0.010562476460985385 0.062615881764138209 -0.14435937038096894 0.054525433337154317 0.11835770823568609 0.13350818423437422 0.27002933093490111 0.32048449925060485 0.3048961045210708
leaf_weight=9165 8652 2762 2597 8969 619 3169 418 2358 861 815 2489 6135 1446 772 1302 644 2236 4500 209 154 9331 2492 618 2118 608 1291 749 409 366 571
leaf_count=9165 8652 2762 2597 8969 619 3169 418 2358 861 815 2489 6135 1446 772 1302 644 2236 4500 209 154 9331 2492 618 2118 608 1291 749 409 366 571
internal_value=4.55125e-10 0.1117 0.149699 0.18901 0.25382 -0.111777 0.230903 -0.00132208 0.125041 0.0271461 -0.0952378 -0.107898 5.23599e-05 0.10324 -0.0515318 -0.0196983 0.056888 -0.161818 0.237988 0.420121 -0.0912019 -0.032635 -0.0476742 -0.193402 -0.0514483 0.0603591 0.209816 0.158675 0.425211 0.387579
internal_weight=78825 39426 29506 22340 11097 39399 9753 9920 11243 7166 29612 24631 5942 9424 5326 4024 4594 9787 1819 1344 18496 4981 3380 5287 3205 2737 1610 1224 784 1190
internal_count=78825 39426 29506 22340 11097 39399 9753 9920 11243 7166 29612 24631 5942 9424 5326 4024 4594 9787 1819 1344 18496 4981 3380 5287 3205 2737 1610 1224 784 1190
is_linear=0
shrinkage=0.1


Tree=14
num_leaves=31
num_cat=0
split_feature=67 191 187 68 190 191 188 68 190 190 190 187 188 7 192 188 7 7 187 187 188 190 7 7 68 68 188 190 188 188
split_gain=79717.6 13834.3 11522.1 7502.08 3567.31 2759.97 2604.86 2539.43 2355.38 2287.4 2257.54 1619.87 1582.64 1496.58 1486.2 1167.38 1081.12 1070.16 1028.56 1003.37 947.705 860.854 813.721 804.702 796.976 793.365 747.811 695.047 687.78 614.279
threshold=1.0000000180025095e-35 1.0000000180025095e-35 1.0000000180025095e-35 1.0000000180025095e-35 1.0000000180025095e-35 1.0000000180025095e-35 0.7386009664958012 1.0000000180025095e-35 1.0000000180025095e-35 1.0000000180025095e-35 1.0000000180025095e-35 1.0000000180025095e-35 0.7359412184321853 1.0000000180025095e-35 0.69879644299749277 0.60230076674395105 1.0000000180025095e-35 1.0000000180025095e-35 1.0000000180025095e-35 1.0000000180025095e-35 0.59929393853020596 1.0000000180025095e-35 1.0000000180025095e-35 1.0000000180025095e-35 1.0000000180025095e-35 1.0000000180025095e-35 0.72489264736809667 1.0000000180025095e-35 0.46777846619334645 0.57784714193697073
decision_type=2 2 2 2 2 2 2 2 2 2 2 2 2 2 2 2 2 2 2 2 2 2 2 2 2 2 2 2 2 2
left_child=5 2 3 9 6 8 -5 16 11 12 13 26 -2 25 18 23 27 29 20 21 -9 -7 -13 -6 -10 -4 -1 -3 -15 -11
right_child=1 7 10 4 15 19 -8 14 24 17 -12 22 -14 28 -16 -17 -18 -19 -20 -21 -22 -23 -24 -25 -26 -27 -28 -29 -30 -31
leaf_value=-0.088480366253244638 0.081645958238932628 -0.15348839999512043 -0.090995677325389601 0.18903868282622105 0.39496791830939681 -0.16231910271588057 0.40203777128603407 0.029172829479065382 -0.062329987135444034 0.25822744066300601 0.1483167424404343 -0.17628960315495323 0.25071208804417183 0.015662407035404547 0.15305833340026903 0.59834991190686571 -0.0046727467116053894 0.13168054752895172 -0.071680497591767242 -0.20213632918986124 0.22248675392029132 -0.094209620358606957 -0.10319859714496514 0.25535955830085233 0.018879640684886269 0.0059479794929553327 -0.0083040242544177439 -0.049155900413411627 0.11608005964367976 0.5279096734139227
leaf_weight=17336 8771 1243 1704 8645 881 3699 615 2518 2402 920 1271 3285 591 1723 1043 179 2235 868 952 2434 282 3724 2840 777 2432 1673 1247 1313 1129 93
leaf_count=17336 8771 1243 1704 8645 881 3699 615 2518 2402 920 1271 3285 591 1723 1043 179 2235 868 952 2434 282 3724 2840 777 2432 1673 1247 1313 1129 93
internal_value=-6.59669e-10 0.10053 0.134104 0.170109 0.228438 -0.100599 0.203185 -0.00398215 -0.0853107 0.112537 0.0268594 -0.0978002 0.0923187 0.00207659 0.0474658 0.355735 -0.055473 0.213165 0.0181126 -0.146419 0.0486423 -0.12815 -0.142399 0.329542 -0.0214732 -0.0429688 -0.0831002 -0.0998935 0.055414 0.282986
internal_weight=78825 39426 29840 22340 11097 39399 9260 9586 29542 11243 7500 24708 9362 6229 4795 1837 4791 1881 3752 9857 2800 7423 6125 1658 4834 3377 18583 2556 2852 1013
internal_count=78825 39426 29840 22340 11097 39399 9260 9586 29542 11243 7500 24708 9362 6229 4795 1837 4791 1881 3752 9857 2800 7423 6125 1658 4834 3377 18583 2556 2852 1013
is_linear=0
shrinkage=0.1


Tree=15
num_leaves=31
num_cat=0
split_feature=67 187 191 68 186 68 186 192 186 188 7 192 188 191 68 191 187 192 187 68 7 192 190 7 192 188 191 7 187 188
split_gain=64571.3 11405.4 9089.2 6076.69 3049.18 2498.05 2448.89 2130.92 1997.94 1949.04 1379.82 1345.46 1260.67 1201.58 1170.26 1151.99 1136.61 936.158 861.415 851.701 842.93 719.431 698.338 691.799 682.413 613.127 607.516 557.611 545.701 535.912
threshold=1.0000000180025095e-35 1.0000000180025095e-35 1.0000000180025095e-35 1.0000000180025095e-35 1.0000000180025095e-35 1.0000000180025095e-35 1.0000000180025095e-35 0.68082559357168504 1.0000000180025095e-35 0.50616595583482038 1.0000000180025095e-35 0.78038677052336292 0.64440764789010097 1.0000000180025095e-35 1.0000000180025095e-35 1.0000000180025095e-35 1.0000000180025095e-35 0.69879644299749277 1.0000000180025095e-35 1.0000000180025095e-35 1.0000000180025095e-35 0.66965570019074994 1.0000000180025095e-35 1.0000000180025095e-35 0.4146403384763056 0.83822479686362927 1.0000000180025095e-35 1.0000000180025095e-35 1.0000000180025095e-35 0.77934998168992076
decision_type=2 2 2 2 2 2 2 2 2 2 2 2 2 2 2 2 2 2 2 2 2 2 2 2 2 2 2 2 2 2
left_child=5 2 3 8 7 13 15 -5 11 10 22 -2 16 18 -8 19 21 23 -1 -3 29 26 -4 25 -12 -6 -7 -16 -14 -10
right_child=1 6 9 4 17 12 14 -9 20 -11 24 -13 28 -15 27 -17 -18 -19 -20 -21 -22 -23 -24 -25 -26 -27 -28 -29 -30 -31
leaf_value=-0.087412798984623452 0.073650179879562377 -0.07089814800733639 -0.084055932600366243 0.16842746075412685 0.31741064256896301 -0.058917699494706238 -0.0016146567075297309 0.34907253238740027 0.21268017838682451 0.16162663910846667 0.013492311677354665 0.23943582935093338 0.040681910628624446 -0.15830597897570495 0.052543823512595657 -0.13769680710443791 -0.12510317971991894 0.57269215678139562 -0.14337826241331594 0.024317385588810504 0.12317260721276904 0.00088242855359075905 0.0065612389386895927 0.23612923701036023 0.1123075836762063 0.51264050718732357 -0.11463948605487105 0.14734547085176361 -0.049150901012396303 0.37514273636824602
leaf_weight=11001 8906 1944 1715 8550 677 9342 2462 707 700 896 1662 518 1420 4968 1370 1192 3636 139 3667 1818 833 1599 1687 813 1206 211 2475 1134 1291 286
leaf_count=11001 8906 1944 1715 8550 677 9342 2462 707 700 896 1662 518 1420 4968 1370 1192 3636 139 3667 1818 833 1599 1687 813 1206 211 2475 1134 1291 286
internal_value=2.10749e-10 0.0904771 0.121664 0.153098 0.205594 -0.0905391 -0.00228347 0.182224 0.101283 0.023667 0.00395216 0.0827628 -0.06544 -0.115801 0.0473418 -0.052029 -0.0755106 0.323169 -0.101404 -0.0248849 0.197235 -0.06207 -0.0391203 0.302779 0.0550443 0.3638 -0.0705883 0.0954772 -0.0020972 0.259804
internal_weight=78825 39426 29506 22340 11097 39399 9920 9257 11243 7166 6270 9424 19763 19636 4966 4954 17052 1840 14668 3762 1819 13416 3402 1701 2868 888 11817 2504 2711 986
internal_count=78825 39426 29506 22340 11097 39399 9920 9257 11243 7166 6270 9424 19763 19636 4966 4954 17052 1840 14668 3762 1819 13416 3402 1701 2868 888 11817 2504 2711 986
is_linear=0
shrinkage=0.1


Tree=16
num_leaves=31
num_cat=0
split_feature=67 191 187 68 190 68 68 192 186 190 188 190 186 7 188 187 187 7 192 7 191 188 192 187 7 188 192 7 188 187
split_gain=52302.7 9298.65 7389.24 4922.12 2519.59 2023.42 1995.37 1896.81 1798.27 1704.86 1297.59 1135.74 1066.17 1047.17 1025.93 985.128 923.647 881.556 847.764 840.184 694.868 669.852 604.137 602.498 593.3 539.406 527.091 510.431 505.409 504.598
threshold=1.0000000180025095e-35 1.0000000180025095e-35 1.0000000180025095e-35 1.0000000180025095e-35 1.0000000180025095e-35 1.0000000180025095e-35 1.0000000180025095e-35 0.55581276251223855 1.0000000180025095e-35 1.0000000180025095e-35 0.72489264736809667 1.0000000180025095e-35 1.0000000180025095e-35 1.0000000180025095e-35 0.6318412778434398 1.0000000180025095e-35 1.0000000180025095e-35 1.0000000180025095e-35 0.6247414146475011 1.0000000180025095e-35 1.0000000180025095e-35 0.60753663011775183 0.7650486767823349 1.0000000180025095e-35 1.0000000180025095e-35 0.56533700909779772 0.8359899199708779 1.0000000180025095e-35 0.80257765854490748 1.0000000180025095e-35
decision_type=2 2 2 2 2 2 2 2 2 2 2 2 2 2 2 2 2 2 2 2 2 2 2 2 2 2 2 2 2 2
left_child=5 2 3 9 8 15 18 10 -5 12 13 23 -2 -4 16 20 22 21 24 -11 -1 26 -7 -8 -3 29 -6 -14 -10 -13
right_child=1 6 7 4 17 14 11 -9 28 19 -12 25 27 -15 -16 -17 -18 -19 -20 -21 -22 -23 -24 -25 -26 -27 -28 -29 -30 -31
leaf_value=-0.078671520834055611 0.058761250293553335 -0.11537566122860561 -0.057782372344543947 0.14418317131689454 0.28509212121992056 -0.062488631927128037 0.021364714657064313 0.16392219365280089 0.22538656332325138 0.23989475089964724 0.093548331521234082 0.094671395630949326 0.20354849618666085 0.031218709936672251 -0.0027930622397461147 -0.14327583984536055 -0.11320254679574865 0.21777665877638508 0.017538953996403976 0.10582928944886633 -0.12839427479140042 0.60194028210639949 0.014237961358238474 -0.094967572137839726 -0.03229738144191014 0.1940963876547549 0.46542789902642512 0.087871592094579454 0.35099027659825721 -0.028831666776899342
leaf_weight=11001 7828 1820 2881 7727 668 12257 1814 848 1077 1013 1328 1558 823 2443 2798 4860 3588 855 1342 868 3775 100 1120 590 1629 413 214 711 456 420
leaf_count=11001 7828 1820 2881 7727 668 12257 1814 848 1077 1013 1328 1558 823 2443 2798 4860 3588 855 1342 868 3775 100 1120 590 1629 413 214 711 456 420
internal_value=-1.35911e-10 0.0814294 0.108955 0.137788 0.185035 -0.0814852 -0.0042545 0.0230713 0.163812 0.0911548 0.00511553 0.0413504 0.0737001 -0.0169428 -0.058896 -0.104221 -0.068149 0.292018 -0.0498975 0.178029 -0.0913748 0.356657 -0.0560646 -0.00718605 -0.0761369 0.0901508 0.328847 0.149933 0.262748 0.0684473
internal_weight=78825 39426 29840 22340 11097 39399 9586 7500 9260 11243 6652 4795 9362 5324 19763 19636 16965 1837 4791 1881 14776 982 13377 2404 3449 2391 882 1534 1533 1978
internal_count=78825 39426 29840 22340 11097 39399 9586 7500 9260 11243 6652 4795 9362 5324 19763 19636 16965 1837 4791 1881 14776 982 13377 2404 3449 2391 882 1534 1533 1978
is_linear=0
shrinkage=0.1


Tree=17
num_leaves=31
num_cat=0
split_feature=67 187 191 68 192 188 191 192 188 186 192 191 188 7 68 68 7 7 192 192 187 68 7 68 192 7 7 190 192 188
split_gain=42365.2 7699.49 5794.77 3986.91 2067.9 1854.07 1803.58 1833.37 1780.48 1576.54 1464.15 1264.43 1140.07 1029.4 1002.05 944.364 834.566 768.111 655.668 613.237 584.421 574.713 571.288 535.461 511.829 496.106 478.946 452.37 449.904 447.7
threshold=1.0000000180025095e-35 1.0000000180025095e-35 1.0000000180025095e-35 1.0000000180025095e-35 0.74913171220811836 0.61860376626863178 1.0000000180025095e-35 0.53759164292789619 0.7124507466573563 1.0000000180025095e-35 0.72611853521091396 1.0000000180025095e-35 0.66517339395228214 1.0000000180025095e-35 1.0000000180025095e-35 1.0000000180025095e-35 1.0000000180025095e-35 1.0000000180025095e-35 0.35241794786066133 0.63280491001412054 1.0000000180025095e-35 1.0000000180025095e-35 1.0000000180025095e-35 1.0000000180025095e-35 0.62744543299056399 1.0000000180025095e-35 1.0000000180025095e-35 1.0000000180025095e-35 0.79288275270759268 0.70768506249819096
decision_type=2 2 2 2 2 2 2 2 2 2 2 2 2 2 2 2 2 2 2 2 2 2 2 2 2 2 2 2 2 2
left_child=6 2 3 10 8 11 7 15 27 13 12 14 -2 28 26 20 18 -9 -8 -16 -1 -7 -12 -15 -11 -6 -3 -5 -4 -17
right_child=1 5 9 4 25 21 16 17 -10 24 22 -13 -14 23 19 29 -18 -19 -20 -21 -22 -23 -24 -25 -26 -27 -28 -29 -30 -31
leaf_value=-0.076916875200898391 0.062588669749662651 -0.087480512232993607 -0.055139325641764908 0.13639198402355687 0.41266726445644464 0.020328169800468157 -0.17134680724672119 0.053217865376441881 0.30409103164944218 0.083250877045394786 0.29371089477243179 -0.10448206603607733 0.18554813778915952 0.00058690445223147716 0.022842237505935302 -0.057521502674684422 -0.078732738376954325 -0.042133165737217954 -0.10125239149775925 0.19275730586103104 -0.12607554981939087 0.11084362381221616 0.12181593325549432 0.089052558133164345 0.22660546202597948 0.239918405777656 -0.003814262401738871 0.20508558462331622 0.048368106605822386 0.0017921605632641566
leaf_weight=9751 9647 1466 2708 8595 376 1393 2734 1790 749 876 419 1729 818 1381 2403 11758 4516 1600 2607 233 3216 1413 359 1356 348 298 1283 1079 497 1427
leaf_count=9751 9647 1466 2708 8595 376 1393 2734 1790 749 876 419 1729 818 1381 2403 11758 4516 1600 2607 233 3216 1413 359 1356 348 298 1283 1079 497 1427
internal_value=-4.99257e-10 0.0732865 0.0989101 0.124009 0.166531 -0.00292824 -0.0733367 -0.0609779 0.155554 0.0206634 0.0820393 -0.0300797 0.0721998 -0.0006248 -0.00619086 -0.0699471 -0.110377 0.00821443 -0.137133 0.0378613 -0.0891089 0.0659085 0.214392 0.0444157 0.124009 0.336289 -0.0484322 0.144054 -0.0390884 -0.051102
internal_weight=78825 39426 29506 22340 11097 9920 39399 29542 10423 7166 11243 7114 10465 5942 5385 26152 9857 3390 5341 2636 12967 2806 778 2737 1224 674 2749 9674 3205 13185
internal_count=78825 39426 29506 22340 11097 9920 39399 29542 10423 7166 11243 7114 10465 5942 5385 26152 9857 3390 5341 2636 12967 2806 778 2737 1224 674 2749 9674 3205 13185
is_linear=0
shrinkage=0.1


Tree=18
num_leaves=31
num_cat=0
split_feature=67 187 191 68 186 186 191 190 188 186 192 68 7 191 192 187 192 192 187 7 191 7 7 188 7 192 192 192 68 188
split_gain=34315.8 6236.58 4693.76 3229.4 1817.31 1590.11 1460.9 1520.28 1320.46 1231.09 1163.81 940.411 881.612 842.096 951.458 784.217 751.977 732.158 714.735 702.414 685.263 661.89 661.639 639.467 588.455 560.17 539.464 499.066 460.276 453.338
threshold=1.0000000180025095e-35 1.0000000180025095e-35 1.0000000180025095e-35 1.0000000180025095e-35 1.0000000180025095e-35 1.0000000180025095e-35 1.0000000180025095e-35 1.0000000180025095e-35 0.58579699217787862 1.0000000180025095e-35 0.37857682179756569 1.0000000180025095e-35 0.078947368421052641 1.0000000180025095e-35 0.33597343403924135 1.0000000180025095e-35 0.78038677052336292 0.63536426884822339 1.0000000180025095e-35 1.0000000180025095e-35 1.0000000180025095e-35 1.0000000180025095e-35 1.0000000180025095e-35 0.45046805685987173 1.0000000180025095e-35 0.71798456078236017 0.68615008351073659 0.6939558917951224 1.0000000180025095e-35 0.69382304919069659
decision_type=2 2 2 2 2 2 2 2 2 2 2 2 2 2 2 2 2 2 2 2 2 2 2 2 2 2 2 2 2 2
left_child=6 2 3 9 10 12 7 15 11 16 -5 -4 20 14 -7 28 -2 -11 23 26 27 29 -17 24 -8 -13 -6 -3 -1 -9
right_child=1 5 8 4 19 13 18 21 -10 17 -12 25 -14 -15 -16 22 -18 -19 -20 -21 -22 -23 -24 -25 -26 -27 -28 -29 -30 -31
leaf_value=-0.070528663604728814 0.052484915109111602 -0.04231763114534004 -0.034308651025065605 0.11678090613213302 0.27719518021675155 0.037722152939938504 -0.12419203312785404 0.01608853408043677 0.14424348754273403 0.12951957482763241 0.21534323336377403 0.021046426996481196 0.12402690739039607 -0.034492417564928456 0.17051305550182438 -0.12650545800657578 0.17642558436574682 0.35414880634103935 -0.14636422426004772 0.1758326448351315 -0.12192171746907353 -0.043099666382338656 -0.060597680304265045 -0.012205446877040215 -0.063181338733538817 0.12466492267189229 0.549926104424875 0.10342841303609165 -0.039051841842469785 0.14861576036330879
leaf_weight=9230 8906 3292 3212 7843 885 3084 3413 2284 749 1660 1414 2549 298 1228 654 3285 518 159 2434 876 1111 2259 2840 1065 2945 656 79 253 9353 291
leaf_count=9230 8906 3292 3212 7843 885 3084 3413 2284 749 1660 1414 2549 298 1228 654 3285 518 159 2434 876 1111 2259 2840 1065 2945 656 79 253 9353 291
internal_value=-6.29331e-10 0.0659578 0.0890191 0.111608 0.149878 -0.00263541 -0.066003 -0.0548801 0.0185971 0.0738354 0.131836 0.00393145 -0.0427205 0.0373528 0.0609552 -0.0649142 0.0592974 0.149155 -0.0993391 0.240647 -0.0533929 -0.00359304 -0.0959458 -0.0839196 -0.0959321 0.0422551 0.299546 -0.031916 -0.0546861 0.0310654
internal_weight=78825 39426 29506 22340 11097 9920 39399 29542 7166 11243 9257 6417 4954 4966 3738 24708 9424 1819 9857 1840 4656 4834 6125 7423 6358 3205 964 3545 18583 2575
internal_count=78825 39426 29506 22340 11097 9920 39399 29542 7166 11243 9257 6417 4954 4966 3738 24708 9424 1819 9857 1840 4656 4834 6125 7423 6358 3205 964 3545 18583 2575
is_linear=0
shrinkage=0.1


Tree=19
num_leaves=31
num_cat=0
split_feature=67 68 187 191 192 191 187 68 188 190 190 192 7 188 191 191 7 190 7 7 191 192 188 187 7 191 188 7 188 188
split_gain=27795.8 5070.86 2765.88 2463.22 2224.98 2047.98 1642.77 1331.11 1223.57 1074.85 823.702 819.955 731.411 682.693 620.409 610.076 596.821 541.658 532.174 516.195 488.854 438.625 436.242 404.626 395.609 389.578 379.69 365.615 359.121 337.245
threshold=1.0000000180025095e-35 1.0000000180025095e-35 1.0000000180025095e-35 1.0000000180025095e-35 0.62187934815476786 1.0000000180025095e-35 1.0000000180025095e-35 1.0000000180025095e-35 0.73324924184499285 1.0000000180025095e-35 1.0000000180025095e-35 0.54015546070732212 1.0000000180025095e-35 0.76250386537454584 1.0000000180025095e-35 1.0000000180025095e-35 1.0000000180025095e-35 1.0000000180025095e-35 1.0000000180025095e-35 0.078947368421052641 1.0000000180025095e-35 0.70148212890903106 0.60753663011775183 1.0000000180025095e-35 1.0000000180025095e-35 1.0000000180025095e-35 0.74379740315046428 1.0000000180025095e-35 0.7124507466573563 0.45995677495542414
decision_type=2 2 2 2 2 2 2 2 2 2 2 2 2 2 2 2 2 2 2 2 2 2 2 2 2 2 2 2 2 2
left_child=7 2 5 4 6 9 8 14 -3 13 19 15 25 -2 21 26 28 -7 -8 -5 29 23 -6 -1 -12 -4 -9 -15 -11 -13
right_child=1 3 12 10 22 17 18 11 -10 16 24 20 -14 27 -16 -17 -18 -19 -20 -21 -22 -23 -24 -25 -26 -27 -28 -29 -30 -31
leaf_value=-0.062510041663311061 0.045970786445029693 0.11405062452186408 -0.055053227367856429 -0.020266629822958366 0.21409091732954583 -0.058787257331978253 0.0059414484816943947 -0.046368114648032421 0.25211243309419878 0.17237043888410936 0.038017529187218027 0.017464058625477768 0.00017893364917752222 0.24187703724387741 -0.10838553561421203 -0.089747101124035375 0.074580032528755752 0.018991765223348812 0.08602633900502149 0.16897758771846821 -0.033888124079559795 -0.0067952565873992529 0.37371728771658086 -0.10250634802837694 0.11979390953544328 -0.1451419544613855 0.011703689999926745 0.075736027210214635 0.42076313149544503 0.1238715906254466
leaf_weight=10204 8831 9395 2037 2250 1155 1813 1813 11951 689 951 1317 1293 2358 278 4968 3171 868 1769 1530 154 1718 1101 201 3363 1074 628 1243 253 62 387
leaf_count=10204 8831 9395 2037 2250 1155 1813 1813 11951 689 951 1317 1293 2358 278 4968 3171 868 1769 1530 154 1718 1101 201 3363 1074 628 1243 253 62 387
internal_value=-1.34557e-10 0.0593621 0.0237436 0.0954717 0.115673 0.0454727 0.103344 -0.0594027 0.123484 0.0664518 0.0331909 -0.0410811 -0.0403883 0.0525925 -0.0778429 -0.0503627 0.135432 -0.0203755 0.0425941 -0.00814366 0.00361964 -0.0674982 0.237752 -0.0724244 0.0747502 -0.0762824 -0.0408972 0.162718 0.187573 0.0419758
internal_weight=78825 39426 19848 19578 14783 14825 13427 39399 10084 11243 4795 19763 5023 9362 19636 16365 1881 3582 3343 2404 3398 14668 1356 13567 2391 2665 13194 531 1013 1680
internal_count=78825 39426 19848 19578 14783 14825 13427 39399 10084 11243 4795 19763 5023 9362 19636 16365 1881 3582 3343 2404 3398 14668 1356 13567 2391 2665 13194 531 1013 1680
is_linear=0
shrinkage=0.1


Tree=20
num_leaves=31
num_cat=0
split_feature=67 187 186 191 68 188 188 187 7 192 192 7 188 68 7 191 192 187 7 7 68 192 7 192 68 7 191 68 192 191
split_gain=22514.6 4233.56 3204.65 2752.41 1621.8 1379.44 1145.94 1263.22 1064.54 981.668 869.907 778.751 761.471 692.934 663.959 543.921 535.413 515.183 517.912 502.746 425.001 402.461 380.719 377.735 365.774 352.498 342.082 337.949 308.589 300.5
threshold=1.0000000180025095e-35 1.0000000180025095e-35 1.0000000180025095e-35 1.0000000180025095e-35 1.0000000180025095e-35 0.74656040463358264 0.67072699502145772 1.0000000180025095e-35 1.0000000180025095e-35 0.68872712065713071 0.7852355703875884 1.0000000180025095e-35 0.83255977784385549 1.0000000180025095e-35 1.0000000180025095e-35 1.0000000180025095e-35 0.8245671086677292 1.0000000180025095e-35 1.0000000180025095e-35 0.078947368421052641 1.0000000180025095e-35 0.76801934074020839 0.078947368421052641 0.65561252796858749 1.0000000180025095e-35 1.0000000180025095e-35 1.0000000180025095e-35 1.0000000180025095e-35 0.82188567154607906 1.0000000180025095e-35
decision_type=2 2 2 2 2 2 2 2 2 2 2 2 2 2 2 2 2 2 2 2 2 2 2 2 2 2 2 2 2 2
left_child=6 2 3 4 16 8 7 13 15 12 -6 28 20 26 -9 24 -2 18 -8 27 -4 -15 23 -13 -3 -14 -1 -10 -5 -11
right_child=1 5 9 11 10 -7 17 14 19 29 -12 22 25 21 -16 -17 -18 -19 -20 -21 -22 -23 -24 -25 -26 -27 -28 -29 -30 -31
leaf_value=-0.056616968554937024 0.042166972907749033 -0.067432613598001984 0.07055217785460699 -0.047266171270397589 0.099341570942454466 0.074460008178719617 0.064774043651363189 -0.12424909471136472 -0.027209908235634191 0.34692639952456511 0.24070011900303739 1.7657212656426143e-05 0.26057028625858519 -0.039087613567631935 -0.064013973358289705 -0.11740385756393275 0.15588714150789149 -0.041261774702682552 -0.02658258098624984 0.1136601172030593 0.14276839547000189 0.023480049004927242 0.13212426501884048 0.092568858067025098 -0.00059988040437302997 0.14538816397615092 -0.093070338668533925 0.037316310958074909 0.043419960661992982 0.20032601841564834
leaf_weight=10133 8990 1672 1645 2771 8799 1863 1372 3989 1677 270 458 1782 539 12402 3381 1050 434 2417 1133 480 1615 1121 369 586 1605 524 3451 1573 434 290
leaf_count=10133 8990 1672 1645 2771 8799 1863 1372 3989 1677 270 458 1782 539 12402 3381 1050 434 2417 1133 480 1615 1121 369 586 1605 524 3451 1573 434 290
internal_value=-4.08856e-10 0.0534259 0.0724262 0.0577502 0.0766064 -0.00308879 -0.0534625 -0.0599063 -0.0210202 0.146431 0.106335 -0.00153141 0.130294 -0.0499254 -0.0966161 -0.0547687 0.0474041 -0.00832543 0.0234539 0.0181299 0.106328 -0.033901 0.0376436 0.022921 -0.0346995 0.203792 -0.0658779 0.00402078 -0.0349861 0.271008
internal_weight=78825 39426 29506 24623 18681 9920 39399 34477 8057 4883 9257 5942 4323 27107 7370 4327 9424 4922 2505 3730 3260 13523 2737 2368 3277 1063 13584 3250 3205 560
internal_count=78825 39426 29506 24623 18681 9920 39399 34477 8057 4883 9257 5942 4323 27107 7370 4327 9424 4922 2505 3730 3260 13523 2737 2368 3277 1063 13584 3250 3205 560
is_linear=0
shrinkage=0.1


Tree=21
num_leaves=31
num_cat=0
split_feature=67 68 191 191 190 187 187 192 191 190 186 192 68 7 190 188 7 7 188 192 192 186 7 7 186 191 7 188 7 187
split_gain=18236.8 3550.78 1968.54 1585.98 1730.51 1416.12 1021.99 977.176 1021.58 775.362 754.222 654.675 608.833 569.283 564.718 521.193 478.976 448.206 438.203 434.322 388.933 386.313 376.652 367.144 358.629 350.084 356.872 338.752 279.385 276.098
threshold=1.0000000180025095e-35 1.0000000180025095e-35 1.0000000180025095e-35 1.0000000180025095e-35 1.0000000180025095e-35 1.0000000180025095e-35 1.0000000180025095e-35 0.7650486767823349 1.0000000180025095e-35 1.0000000180025095e-35 1.0000000180025095e-35 0.68872712065713071 1.0000000180025095e-35 1.0000000180025095e-35 1.0000000180025095e-35 0.70989609955979061 1.0000000180025095e-35 1.0000000180025095e-35 0.74844153550490389 0.67229458897586425 0.83028362199907446 1.0000000180025095e-35 0.078947368421052641 1.0000000180025095e-35 1.0000000180025095e-35 1.0000000180025095e-35 1.0000000180025095e-35 0.35691243156799241 1.0000000180025095e-35 1.0000000180025095e-35
decision_type=2 2 2 2 2 2 2 2 2 2 2 2 2 2 2 2 2 2 2 2 2 2 2 2 2 2 2 2 2 2
left_child=7 2 5 4 6 9 10 8 12 18 -3 17 -1 -10 -4 20 -11 -5 -2 27 -6 29 24 -12 -8 26 -9 -7 -20 -14
right_child=1 3 14 11 15 19 22 25 13 16 23 -13 21 -15 -16 -17 -18 -19 28 -21 -22 -23 -24 -25 -26 -27 -28 -29 -30 -31
leaf_value=-0.058826698961788083 0.036676219119369767 0.083108348175796515 -0.071763128195323683 -0.022796017775871341 0.13113635727457615 -0.056020525454527986 -0.015039271092289811 0.0766265601705996 -0.10861662651654402 0.15920227713669632 0.20710643834671388 0.096978796476877877 -0.031711763699015502 -0.05541291634201994 -0.0030981447994583187 0.30226940687055942 0.05797752242831488 0.047033876962241539 0.19509145824276672 0.095469821690492132 0.22963652288389791 -0.00056557407277145727 0.17084087362397191 0.10916720166605808 0.055394353878675501 -0.028712510523718635 -0.015264465128655489 0.0063473259059573161 0.053648581977625544 -0.075651009179388898
leaf_weight=13796 8802 7727 2404 2055 1655 1857 1430 931 4392 1013 794 1077 8815 3710 2387 270 868 1663 294 317 529 3519 177 739 1462 1755 774 1640 266 1707
leaf_count=13796 8802 7727 2404 2055 1655 1857 1430 931 4392 1013 794 1077 8815 3710 2387 270 868 1663 294 317 529 3519 177 739 1462 1755 774 1640 266 1707
internal_value=-2.97835e-10 0.0480833 0.0182778 0.0782998 0.0945096 0.0360425 0.0792452 -0.0481162 -0.0530027 0.0539045 0.0958202 0.0283249 -0.043907 -0.084254 -0.0375525 0.171199 0.112491 0.00843774 0.0421333 -0.0166116 0.154995 -0.0292476 0.029234 0.159894 0.0205672 0.00263994 0.0349118 -0.0267717 0.127906 -0.0388401
internal_weight=78825 39426 19848 19578 14783 15057 12329 39399 35939 11243 9260 4795 27837 8102 4791 2454 1881 3718 9362 3814 2184 14041 3069 1533 2892 3460 1705 3497 560 10522
internal_count=78825 39426 19848 19578 14783 15057 12329 39399 35939 11243 9260 4795 27837 8102 4791 2454 1881 3718 9362 3814 2184 14041 3069 1533 2892 3460 1705 3497 560 10522
is_linear=0
shrinkage=0.1


Tree=22
num_leaves=31
num_cat=0
split_feature=67 187 188 191 68 188 187 186 7 192 192 7 7 7 192 186 191 7 68 7 7 191 192 191 68 7 191 192 192 7
split_gain=14771.8 2976.43 2385.55 1886.09 1185.38 1026.95 899.327 1128.23 844.544 704.611 634.637 622.728 575.448 573.141 473.678 444.088 422.303 410.344 404.85 369.909 356.414 385.536 330.086 394.866 324.043 311.66 306.546 306.489 296.143 275.526
threshold=1.0000000180025095e-35 1.0000000180025095e-35 0.61860376626863178 1.0000000180025095e-35 1.0000000180025095e-35 0.75940512763563961 1.0000000180025095e-35 1.0000000180025095e-35 1.0000000180025095e-35 0.54869373010043099 0.68082559357168504 1.0000000180025095e-35 1.0000000180025095e-35 1.0000000180025095e-35 0.79790426771560863 1.0000000180025095e-35 1.0000000180025095e-35 1.0000000180025095e-35 1.0000000180025095e-35 0.078947368421052641 1.0000000180025095e-35 1.0000000180025095e-35 0.53019897339997668 1.0000000180025095e-35 1.0000000180025095e-35 0.078947368421052641 1.0000000180025095e-35 0.61185532138911547 0.71229603926532448 1.0000000180025095e-35
decision_type=2 2 2 2 2 2 2 2 2 2 2 2 2 2 2 2 2 2 2 2 2 2 2 2 2 2 2 2 2 2
left_child=6 2 3 4 14 8 7 18 16 -6 20 24 15 22 -2 -8 28 -11 -1 26 21 -4 -9 -24 -5 27 -10 -13 -3 -16
right_child=1 5 10 11 9 -7 12 13 19 17 -12 25 -14 -15 29 -17 -18 -19 -20 -21 -22 -23 23 -25 -26 -27 -28 -29 -30 -31
leaf_value=-0.056246825069917683 0.036185992352638412 -0.039408692321759857 0.19625607050492433 -0.056116002192651962 0.080124667874260938 0.065120585818478544 -0.12107480443130539 0.02294213762066204 0.020799190371487669 0.22163222282619799 0.28288973795436928 0.0022925249923215281 -0.043301478772458442 -0.028029170314957542 0.2025283730980279 -0.06310992295519878 -0.10393211717251689 0.10063908901867852 -0.030605678151291234 0.096879625276019857 0.091040130320599807 0.061953452536117226 0.20501819765272222 0.030169994077798225 0.0046146077171177651 0.11897263656556607 -0.050270556208607264 0.078888250187753819 0.080414542784109477 0.05729493476270188
leaf_weight=12287 9721 3093 998 1734 8903 1762 2631 2175 2495 590 309 1837 4500 2287 276 2656 1060 534 12344 487 1173 272 242 277 1781 400 802 730 221 248
leaf_count=12287 9721 3093 998 1734 8903 1762 2631 2175 2495 590 309 1837 4500 2287 276 2656 1060 534 12344 487 1173 272 242 277 1781 400 802 730 221 248
internal_value=3.69137e-10 0.0432749 0.0592064 0.050087 0.0651009 -0.00411166 -0.0433046 -0.0346188 -0.0190647 0.0895437 0.147863 0.00313211 -0.0695846 0.00878698 0.0411782 -0.0919553 -0.0489912 0.16415 -0.0433966 0.0155278 0.130784 0.167492 0.0400411 0.111698 -0.0253447 0.0368685 0.00351137 0.0240747 -0.0314181 0.133792
internal_weight=78825 39426 29506 26754 20272 9920 39399 29612 8158 10027 2752 6482 9787 4981 10245 5287 4374 1124 24631 3784 2443 1270 2694 519 3515 2967 3297 2567 3314 524
internal_count=78825 39426 29506 26754 20272 9920 39399 29612 8158 10027 2752 6482 9787 4981 10245 5287 4374 1124 24631 3784 2443 1270 2694 519 3515 2967 3297 2567 3314 524
is_linear=0
shrinkage=0.1


Tree=23
num_leaves=31
num_cat=0
split_feature=67 68 187 188 187 191 192 191 192 191 190 188 187 7 7 7 7 188 187 191 7 186 192 7 7 7 190 191 7 192
split_gain=11965.2 2559.91 1361.17 1295.25 1156.07 977.984 803.981 867.274 714.488 708.302 568.364 444.083 446.433 430.661 415.679 391.25 389.956 381.962 365.112 337.183 373.75 307.663 293.434 284.463 279.209 271.08 251.738 229.47 222.462 212.646
threshold=1.0000000180025095e-35 1.0000000180025095e-35 1.0000000180025095e-35 0.82972914454772817 1.0000000180025095e-35 1.0000000180025095e-35 0.65561252796858749 1.0000000180025095e-35 0.81384806698995349 1.0000000180025095e-35 1.0000000180025095e-35 0.76989443144755254 1.0000000180025095e-35 1.0000000180025095e-35 1.0000000180025095e-35 1.0000000180025095e-35 1.0000000180025095e-35 0.34574891436058613 1.0000000180025095e-35 1.0000000180025095e-35 1.0000000180025095e-35 1.0000000180025095e-35 0.47645282412869977 1.0000000180025095e-35 1.0000000180025095e-35 0.078947368421052641 1.0000000180025095e-35 1.0000000180025095e-35 1.0000000180025095e-35 0.75480097001750535
decision_type=2 2 2 2 2 2 2 2 2 2 2 2 2 2 2 2 2 2 2 2 2 2 2 2 2 2 2 2 2 2
left_child=6 2 5 4 8 10 7 11 9 26 21 12 -1 -9 27 -14 -6 23 29 20 -8 -2 -7 -12 -23 -11 -3 -4 -28 -5
right_child=1 3 14 18 16 22 19 13 -10 25 17 -13 15 -15 -16 -17 -18 -19 -20 -21 -22 24 -24 -25 -26 -27 28 -29 -30 -31
leaf_value=-0.032882527101499644 0.025277771866620044 0.072391678417933925 -0.042116289794073336 0.20118896466634612 -0.015279843641783312 -0.039613586346108468 0.060795538116786722 -0.09745428993417915 0.15771785919672876 0.015280310993404159 0.1142182106388287 0.0058568755615047274 -0.089599646420609108 -0.048643381048146285 -0.00076703885012144519 -0.036412493359998903 0.045330646603681364 0.20129515957187061 0.10936113716687941 -0.026966050458937782 -0.017353927996491662 0.11390775856386558 0.019007110291534436 0.029739387889948482 0.028353359855177031 0.14058442161135051 0.158711369055031 -0.11125734293237211 0.075997855021939537 0.42247586652557267
leaf_weight=19217 7828 8871 2037 571 2324 2177 1328 3944 905 2799 852 2297 2996 3337 2358 2569 1954 280 619 2576 1135 823 1405 749 711 184 685 628 619 47
leaf_count=19217 7828 8871 2037 571 2324 2177 1328 3944 905 2799 852 2297 2996 3337 2358 2569 1954 280 619 2576 1135 823 1405 749 711 184 685 628 619 47
internal_value=1.0744e-10 0.0389474 0.0136401 0.0646038 0.057924 0.0288835 -0.0389741 -0.0444446 0.0717712 0.0658598 0.0433809 -0.0362065 -0.0401052 -0.0750835 -0.0313496 -0.0650466 0.0124043 0.0935414 0.163646 -0.00167191 0.0247827 0.0333027 -0.0166203 0.0746963 0.0742538 0.0230094 0.0784223 -0.0584092 0.119448 0.218018
internal_weight=78825 39426 19848 19578 18341 14825 39399 34360 14063 13158 11243 27079 24782 7281 5023 5565 4278 1881 1237 5039 2463 9362 3582 1601 1534 2983 10175 2665 1304 618
internal_count=78825 39426 19848 19578 18341 14825 39399 34360 14063 13158 11243 27079 24782 7281 5023 5565 4278 1881 1237 5039 2463 9362 3582 1601 1534 2983 10175 2665 1304 618
is_linear=0
shrinkage=0.1


Tree=24
num_leaves=31
num_cat=0
split_feature=67 68 191 188 187 187 188 187 192 191 192 192 187 68 192 190 7 191 190 186 187 187 190 188 7 7 190 7 186 7
split_gain=9691.8 2073.53 1126.47 1062.31 929.752 788.485 728.555 746.601 571.08 590.413 466.493 396.755 392.097 382.695 366.244 352.789 345.608 339.197 308.046 306.064 304.421 295.527 282.59 267.022 239.544 233.112 233.047 224.666 219.688 212.948
threshold=1.0000000180025095e-35 1.0000000180025095e-35 1.0000000180025095e-35 0.76715078238092282 1.0000000180025095e-35 1.0000000180025095e-35 0.60230076674395105 1.0000000180025095e-35 0.85478906660972809 1.0000000180025095e-35 0.6380135488381028 0.73129768602044976 1.0000000180025095e-35 1.0000000180025095e-35 0.43296103452312534 1.0000000180025095e-35 1.0000000180025095e-35 1.0000000180025095e-35 1.0000000180025095e-35 1.0000000180025095e-35 1.0000000180025095e-35 1.0000000180025095e-35 1.0000000180025095e-35 0.56297379590937713 1.0000000180025095e-35 1.0000000180025095e-35 1.0000000180025095e-35 0.078947368421052641 1.0000000180025095e-35 1.0000000180025095e-35
decision_type=2 2 2 2 2 2 2 2 2 2 2 2 2 2 2 2 2 2 2 2 2 2 2 2 2 2 2 2 2 2
left_child=6 2 5 4 8 10 7 13 9 26 19 20 -5 -1 -8 28 -9 18 27 -2 29 -16 -15 -12 -11 -21 -3 -6 -7 -4
right_child=1 3 11 12 17 15 14 16 -10 24 23 -13 -14 22 21 -17 -18 -19 -20 25 -22 -23 -24 -25 -26 -27 -28 -29 -30 -31
leaf_value=-0.04521005912638993 0.025016425673377696 0.064081988430262568 -0.053704927045428077 0.18078555928158579 0.0037547293019763381 -0.053053918682736137 -0.016108347260630377 -0.090861178804137632 0.15123841324022838 -0.0056714624909513026 0.086894496136547969 0.027231414139322258 0.085433041422613307 -0.029524866897845409 0.088535142689490406 0.053277917930340847 -0.045822664828891933 -0.042011901974418009 0.097001974499318744 0.10670368861858087 -0.093408064034111227 -0.0061045256552518905 0.0043984024229846968 0.25980081341483374 0.050916639930343177 0.031624628856642856 0.10821610658076038 0.13112293676454195 -0.00029954294060416945 0.00088840913511338191
leaf_weight=13304 8568 8709 1528 862 2392 1624 4638 3718 700 1664 913 968 863 10018 694 654 3145 995 500 892 953 629 3253 99 1359 771 1387 147 1536 1342
leaf_count=13304 8568 8709 1528 862 2392 1624 4638 3718 700 1664 913 968 863 10018 694 654 3145 995 500 892 953 629 3253 99 1359 771 1387 147 1536 1342
internal_value=1.62777e-10 0.0350527 0.0122761 0.0581434 0.0509027 0.0257144 -0.0350767 -0.0408183 0.0632326 0.0585368 0.0390428 -0.0299576 0.133082 -0.0332247 -0.0028698 -0.0135752 -0.0702221 0.00866523 0.0252574 0.0326364 -0.0444381 0.0435402 -0.0212096 0.103809 0.0197679 0.0718955 0.0701452 0.0111289 -0.0274113 -0.0281773
internal_weight=78825 39426 19848 19578 17853 15057 39399 33438 13819 13119 11243 4791 1725 26575 5961 3814 6863 4034 3039 10231 3823 1323 13271 1012 3023 1663 10096 2539 3160 2870
internal_count=78825 39426 19848 19578 17853 15057 39399 33438 13819 13119 11243 4791 1725 26575 5961 3814 6863 4034 3039 10231 3823 1323 13271 1012 3023 1663 10096 2539 3160 2870
is_linear=0
shrinkage=0.1


Tree=25
num_leaves=31
num_cat=0
split_feature=67 68 191 192 191 190 68 187 188 187 190 190 187 191 187 191 191 7 188 188 188 188 186 186 7 7 7 188 7 7
split_gain=7850.36 1679.56 912.445 900.842 839.085 657.843 641.908 623.513 561.328 463.123 436.73 350.011 344.243 341.168 321.934 316.234 311.736 284.359 264.699 258.598 240.919 239.612 227.123 216.117 206.558 206.024 202.341 200.688 194.704 192.476
threshold=1.0000000180025095e-35 1.0000000180025095e-35 1.0000000180025095e-35 0.7828644298417714 1.0000000180025095e-35 1.0000000180025095e-35 1.0000000180025095e-35 1.0000000180025095e-35 0.83822479686362927 1.0000000180025095e-35 1.0000000180025095e-35 1.0000000180025095e-35 1.0000000180025095e-35 1.0000000180025095e-35 1.0000000180025095e-35 1.0000000180025095e-35 1.0000000180025095e-35 1.0000000180025095e-35 0.67072699502145772 0.45521924479458847 0.8559582011797171 0.78222232333069008 1.0000000180025095e-35 1.0000000180025095e-35 1.0000000180025095e-35 0.078947368421052641 1.0000000180025095e-35 0.60753663011775183 0.078947368421052641 1.0000000180025095e-35
decision_type=2 2 2 2 2 2 2 2 2 2 2 2 2 2 2 2 2 2 2 2 2 2 2 2 2 2 2 2 2 2
left_child=6 2 5 4 8 7 12 20 9 22 13 -4 21 -8 18 17 27 -12 25 -7 -2 -1 -3 -14 -11 -6 -15 -5 -24 -9
right_child=1 3 11 16 14 19 10 29 -10 24 15 -13 23 26 -16 -17 -18 -19 -20 -21 -22 -23 28 -25 -26 -27 -28 -29 -30 -31
leaf_value=-0.039803366503178256 0.023758681984753834 0.05723685701117727 -0.053894947090947623 0.15031072646379473 0.0066500354755667417 0.053609512146955987 -0.02063352324011869 -0.047483573464060257 0.13695714973382803 -0.0050192419141140473 0.064438680748533733 0.00016312105827760495 -0.088609828650105305 -0.08763696479894878 -0.04236702314453851 -0.018292315755119689 0.08047598662533742 -0.0041334955766249596 0.12126031742397561 0.13339845101756051 0.11411894602853744 0.016871674420346913 0.1115677210558175 -0.046434497912218042 0.047039083825158229 0.11933261221543903 -0.029895923228112159 0.29473023520106761 -0.050370147895020784 0.0020290609341408034
leaf_weight=13988 9057 8795 2404 648 2613 2027 12442 1704 841 1673 1305 2387 2423 1339 1024 2440 736 1127 249 508 305 788 1234 2437 1400 173 1110 113 79 1456
leaf_count=13988 9057 8795 2404 648 2613 2027 12442 1704 841 1673 1305 2387 2423 1339 1024 2440 736 1127 249 508 305 788 1234 2437 1400 173 1110 113 79 1456
internal_value=3.539e-10 0.0315474 0.0110485 0.0523291 0.0461569 0.023143 -0.031569 0.0137383 0.0577473 0.0526933 -0.0188459 -0.0269618 -0.0443745 -0.0273489 0.00611753 0.00714302 0.126878 0.032662 0.0224761 0.0695988 0.0267025 -0.0367809 0.0630286 -0.0674614 0.0186975 0.0136472 -0.0614661 0.171755 0.101824 -0.0246702
internal_weight=78825 39426 19848 19578 18081 15057 39399 12522 14022 13181 19763 4791 19636 14891 4059 4872 1497 2432 3035 2535 9362 14776 10108 4860 3073 2786 2449 761 1313 3160
internal_count=78825 39426 19848 19578 18081 15057 39399 12522 14022 13181 19763 4791 19636 14891 4059 4872 1497 2432 3035 2535 9362 14776 10108 4860 3073 2786 2449 761 1313 3160
is_linear=0
shrinkage=0.1


Tree=26
num_leaves=31
num_cat=0
split_feature=67 187 186 191 186 192 191 192 192 68 7 7 7 7 188 192 188 191 191 68 187 191 7 7 7 7 187 192 190 190
split_gain=6358.79 1373.49 1404.95 826.761 735.956 567.207 629.417 545.489 541.48 434.344 380.302 348.923 340.856 331.804 327.977 314.785 311.449 288.859 274.505 260.862 206.073 198.594 198.332 197.748 196.502 189.149 177.449 174.063 167.575 164.096
threshold=1.0000000180025095e-35 1.0000000180025095e-35 1.0000000180025095e-35 1.0000000180025095e-35 1.0000000180025095e-35 0.7828644298417714 1.0000000180025095e-35 0.85478906660972809 0.51990079260711031 1.0000000180025095e-35 1.0000000180025095e-35 0.078947368421052641 1.0000000180025095e-35 1.0000000180025095e-35 0.82745414561042274 0.71493036325355719 0.8705869054350649 1.0000000180025095e-35 1.0000000180025095e-35 1.0000000180025095e-35 1.0000000180025095e-35 1.0000000180025095e-35 1.0000000180025095e-35 1.0000000180025095e-35 0.078947368421052641 1.0000000180025095e-35 1.0000000180025095e-35 0.33597343403924135 1.0000000180025095e-35 1.0000000180025095e-35
decision_type=2 2 2 2 2 2 2 2 2 2 2 2 2 2 2 2 2 2 2 2 2 2 2 2 2 2 2 2 2 2
left_child=5 2 3 7 11 6 14 9 16 -2 -5 18 -9 -8 19 17 -4 25 29 26 -15 23 -18 -7 28 -6 -1 -20 -12 -3
right_child=1 4 8 10 15 21 13 12 -10 -11 24 -13 -14 20 -16 -17 22 -19 27 -21 -22 -23 -24 -25 -26 -27 -28 -29 -30 -31
leaf_value=-0.031271944355595813 0.021111498761550211 -0.033665425190623662 0.05920510748058419 -0.026371337155875599 0.0066876347740045198 0.070308656009994239 -0.074736160307970201 0.19423244098273432 0.15963519711133922 0.052169626580229202 -0.011759613730031529 0.073834395356126278 0.050988835280803592 -0.021333441846638528 0.016758182552104872 0.096323137364565048 0.18179776314003715 -0.03314515097958725 -0.12229964554533085 -0.017727289668815868 -0.076083750098595249 -0.012395660559502539 0.079691527710141 -0.001228532254500668 0.092260894219726733 0.053628213366744552 -0.058955457505230235 -0.04307667458675777 0.041486343323789768 0.024657712077444355
leaf_weight=10001 9065 2969 3250 3205 1863 845 4460 362 872 8947 1231 298 307 2870 1777 529 377 982 534 13194 904 1623 384 712 369 1592 3013 577 1137 576
leaf_count=10001 9065 2969 3250 3205 1863 845 4460 362 872 8947 1231 298 307 2870 1777 529 377 982 534 13194 904 1623 384 712 369 1592 3013 577 1137 576
internal_value=-1.00518e-10 0.0283927 0.039215 0.0294977 -0.00379726 -0.0284121 -0.0319674 0.0398321 0.0882158 0.0365388 -0.00299259 -0.0310679 0.128499 -0.0562703 -0.0248168 0.0234075 0.0726891 0.0147141 -0.037782 -0.0276357 -0.034448 0.0120811 0.130275 0.0375954 0.0243837 0.028317 -0.0376812 -0.081155 0.0138065 -0.0241889
internal_weight=78825 39426 29506 24623 9920 39399 36219 18681 4883 18012 5942 4954 669 8234 27985 4966 4011 4437 4656 26208 3774 3180 761 1557 2737 3455 13014 1111 2368 3545
internal_count=78825 39426 29506 24623 9920 39399 36219 18681 4883 18012 5942 4954 669 8234 27985 4966 4011 4437 4656 26208 3774 3180 761 1557 2737 3455 13014 1111 2368 3545
is_linear=0
shrinkage=0.1


Tree=27
num_leaves=31
num_cat=0
split_feature=67 68 187 188 186 192 187 191 191 187 7 190 188 187 7 7 191 7 7 187 192 7 190 190 191 191 191 192 192 192
split_gain=5150.62 1254.89 685.853 673.017 534.871 532.449 525.351 513.594 444.537 439.185 480.126 301.289 284.821 282.723 263.81 237.584 227.828 268.346 221.167 215.867 208.632 204.844 194.518 192.763 291.781 186.735 184.488 184.288 182.907 175.038
threshold=1.0000000180025095e-35 1.0000000180025095e-35 1.0000000180025095e-35 0.81866043654625265 1.0000000180025095e-35 0.76236084095369383 1.0000000180025095e-35 1.0000000180025095e-35 1.0000000180025095e-35 1.0000000180025095e-35 1.0000000180025095e-35 1.0000000180025095e-35 0.69382304919069659 1.0000000180025095e-35 1.0000000180025095e-35 1.0000000180025095e-35 1.0000000180025095e-35 1.0000000180025095e-35 0.078947368421052641 1.0000000180025095e-35 0.77020282140208352 1.0000000180025095e-35 1.0000000180025095e-35 1.0000000180025095e-35 1.0000000180025095e-35 1.0000000180025095e-35 1.0000000180025095e-35 0.40626736520739087 0.7828644298417714 0.83354968625438186
decision_type=2 2 2 2 2 2 2 2 2 2 2 2 2 2 2 2 2 2 2 2 2 2 2 2 2 2 2 2 2 2
left_child=4 2 8 5 6 7 16 13 11 10 23 -2 21 -3 -13 -8 29 22 19 -9 -5 -4 -18 -6 -25 -7 -11 -12 -10 -1
right_child=1 3 12 20 9 25 15 18 28 26 27 14 -14 -15 -16 -17 17 -19 -20 -21 -22 -23 -24 24 -26 -27 -28 -29 -30 -31
leaf_value=-0.022833483293233831 0.021091243960053505 0.050818536920443351 -0.058365280059516626 0.10108119570388899 0.027899661114722529 0.12948818529870501 -0.082755760399374101 0.0080451563282983984 -0.022048110088119639 -0.015516962920908463 -0.033995339468775233 0.099615974683104958 0.020249475489005537 0.015920830974052586 0.024492514618722861 -0.038269446637143809 -0.08644361399123035 -0.020595334138224865 0.095706870423133722 -0.050748133473997072 0.24999572575530588 -0.012426360649853953 -0.037835751646370805 0.15547402677647881 0.028057030775449483 0.059866526023612698 -0.060243495152317451 0.03288769680891767 0.038914960533608205 0.027494660142232098
leaf_weight=17777 9362 9993 2076 1212 1973 773 2631 2661 2993 3722 1748 1013 1124 3024 868 2208 1674 2841 229 816 102 1823 1620 341 380 768 1226 539 589 719
leaf_count=17777 9362 9993 2076 1212 1973 773 2631 2661 2993 3722 1748 1013 1124 3024 868 2208 1674 2841 229 816 102 1823 1620 341 380 768 1226 539 589 719
internal_value=-2.6423e-11 0.0255534 0.00783447 0.0435167 -0.0255709 0.0385436 -0.032334 0.0333606 0.0186548 -0.0054976 0.0154642 0.028429 -0.024101 0.0427114 0.0649498 -0.062457 -0.0264161 -0.0431152 0.00051661 -0.00575275 0.112641 -0.0368863 -0.0625381 0.0440699 0.0883194 0.0947903 -0.0265992 -0.0182324 -0.0120238 -0.0208771
internal_weight=78825 39426 19848 19578 39399 18264 29470 16723 14825 9929 4981 11243 5023 13017 1881 4839 24631 6135 3706 3477 1314 3899 3294 2694 721 1541 4948 2287 3582 18496
internal_count=78825 39426 19848 19578 39399 18264 29470 16723 14825 9929 4981 11243 5023 13017 1881 4839 24631 6135 3706 3477 1314 3899 3294 2694 721 1541 4948 2287 3582 18496
is_linear=0
shrinkage=0.1


Tree=28
num_leaves=31
num_cat=0
split_feature=67 68 188 191 68 192 187 187 188 192 192 191 7 191 188 187 7 7 187 188 190 190 7 190 7 191 191 7 190 7
split_gain=4172 1016.46 586.903 566.045 459.881 437.288 408.186 371.504 342.217 297.068 271.805 246.265 244.889 239.928 231.593 226.856 245.639 205.232 190.146 179.679 174.655 173.005 172.178 166.193 208.525 159.056 158.475 145.392 140.773 137.377
threshold=1.0000000180025095e-35 1.0000000180025095e-35 0.6293510945462063 1.0000000180025095e-35 1.0000000180025095e-35 0.80272238907804228 1.0000000180025095e-35 1.0000000180025095e-35 0.51191153731358174 0.5022417891765828 0.91168534554059 1.0000000180025095e-35 1.0000000180025095e-35 1.0000000180025095e-35 0.81636949599065822 1.0000000180025095e-35 1.0000000180025095e-35 0.078947368421052641 1.0000000180025095e-35 0.82138037615400539 1.0000000180025095e-35 1.0000000180025095e-35 0.078947368421052641 1.0000000180025095e-35 1.0000000180025095e-35 1.0000000180025095e-35 1.0000000180025095e-35 1.0000000180025095e-35 1.0000000180025095e-35 1.0000000180025095e-35
decision_type=2 2 2 2 2 2 2 2 2 2 2 2 2 2 2 2 2 2 2 2 2 2 2 2 2 2 2 2 2 2
left_child=4 3 6 5 11 7 10 14 20 18 13 -1 -5 23 -2 16 -10 26 22 29 25 -13 -4 -3 -25 -6 28 -15 -8 -9
right_child=1 2 9 12 8 -7 17 19 15 -11 -12 21 -14 27 -16 -17 -18 -19 -20 -21 -22 -23 -24 24 -26 -27 -28 -29 -30 -31
leaf_value=-0.027335116300291142 0.019012800009112762 0.03979901749522969 0.10585073889638359 -0.044028214030800372 -0.019359053207917743 0.091750100204903318 -0.0021566516750216652 -0.042934508325026696 0.072804582167015061 0.151009117677709 0.11888820989692912 -0.071945365984092235 0.0012905670423239708 -0.0067106537869305108 0.092388666555584142 -0.010139322957608242 3.9918100988447503e-05 0.09908618466519728 0.03673753118179527 0.043313590767974787 -0.00016943505571671074 -0.034621197109288085 -0.046324520632624627 0.1122934280347575 0.036268440944271001 -0.050205117171388702 -0.042545346425243109 0.037224629167059479 0.061501775082433596 -0.0011738845648164575
leaf_weight=14668 10245 8385 1053 2556 10183 736 2106 1688 1020 509 425 2459 2235 1673 449 1783 851 205 1100 462 3926 2509 80 766 682 2000 808 1370 416 1477
leaf_count=14668 10245 8385 1053 2556 10183 736 2106 1688 1020 509 425 2459 2235 1673 449 1783 851 205 1100 462 3926 2509 80 766 682 2000 808 1370 416 1477
internal_value=2.2474e-10 0.0229981 0.0391651 0.00705102 -0.0230138 0.016577 0.0321777 0.0127137 -0.0122447 0.0820678 0.0402049 -0.0338526 -0.022887 0.0376078 0.0220936 0.0153848 0.0397085 0.00197422 0.066353 -0.0149425 -0.0185119 -0.0530955 0.0951058 0.0452015 0.0764861 -0.0244228 -0.00400415 0.0130696 0.00834371 -0.0234462
internal_weight=78825 39426 19578 19848 39399 15057 16836 14321 19763 2742 13301 19636 4791 12876 10694 3654 1871 3535 2233 3627 16109 4968 1133 9833 1448 12183 3330 3043 2522 3165
internal_count=78825 39426 19578 19848 39399 15057 16836 14321 19763 2742 13301 19636 4791 12876 10694 3654 1871 3535 2233 3627 16109 4968 1133 9833 1448 12183 3330 3043 2522 3165
is_linear=0
shrinkage=0.1


Tree=29
num_leaves=31
num_cat=0
split_feature=67 192 191 188 187 188 7 187 68 7 7 192 187 188 7 68 186 7 190 191 187 7 7 188 191 191 7 190 186 186
split_gain=3379.32 864.522 903.481 598.56 533.09 418.243 395.76 394.426 316.298 271.457 264.472 250.74 224.444 222.725 206.583 196.526 188.854 183.635 175.504 170.392 167.992 242.323 147.512 146.629 141.72 132.984 185.867 124.667 119.864 119.141
