tree
version=v4
num_class=1
num_tree_per_iteration=1
label_index=0
max_feature_idx=192
objective=regression
feature_names=feature.geometry.long_edge feature.geometry.short_edge feature.geometry.orientation feature.geometry.orientation.cos feature.geometry.orientation.sin feature.geometry.aspect_ratio feature.geometry.wwr feature.geometry.num_floors feature.geometry.f2f_height feature.geometry.zoning feature.geometry.energy_model_conditioned_area feature.geometry.energy_model_occupied_area feature.geometry.attic_height feature.geometry.shading_mask_00 feature.geometry.shading_mask_01 feature.geometry.shading_mask_02 feature.geometry.shading_mask_03 feature.geometry.shading_mask_04 feature.geometry.shading_mask_05 feature.geometry.shading_mask_06 feature.geometry.shading_mask_07 feature.geometry.shading_mask_08 feature.geometry.shading_mask_09 feature.geometry.shading_mask_10 feature.geometry.shading_mask_11 feature.geometry.shading_mask_12 feature.geometry.shading_mask_13 feature.geometry.shading_mask_14 feature.geometry.shading_mask_15 feature.geometry.shading_mask_16 feature.geometry.shading_mask_17 feature.geometry.shading_mask_18 feature.geometry.shading_mask_19 feature.geometry.shading_mask_20 feature.geometry.shading_mask_21 feature.geometry.shading_mask_22 feature.geometry.shading_mask_23 feature.geometry.shading_mask_24 feature.geometry.shading_mask_25 feature.geometry.shading_mask_26 feature.geometry.shading_mask_27 feature.geometry.shading_mask_28 feature.geometry.shading_mask_29 feature.geometry.shading_mask_30 feature.geometry.shading_mask_31 feature.geometry.shading_mask_32 feature.geometry.shading_mask_33 feature.geometry.shading_mask_34 feature.geometry.shading_mask_35 feature.geometry.shading_mask_36 feature.geometry.shading_mask_37 feature.geometry.shading_mask_38 feature.geometry.shading_mask_39 feature.geometry.shading_mask_40 feature.geometry.shading_mask_41 feature.geometry.shading_mask_42 feature.geometry.shading_mask_43 feature.geometry.shading_mask_44 feature.geometry.shading_mask_45 feature.geometry.shading_mask_46 feature.geometry.shading_mask_47 feature.semantic.DHW feature.semantic.Walls feature.semantic.Region feature.semantic.Cooling feature.semantic.Heating feature.semantic.Windows feature.semantic.Lighting feature.semantic.Typology feature.semantic.Equipment feature.semantic.Thermostat feature.semantic.Age_bracket feature.semantic.Distribution feature.semantic.RoofInsulation feature.semantic.Weatherization feature.semantic.AtticVentilation feature.semantic.AtticFloorInsulation feature.semantic.GroundSlabInsulation feature.semantic.BasementWallsInsulation feature.semantic.BasementCeilingInsulation feature.weather.file feature.weather.annual.daily_max_median feature.weather.annual.daily_median_median feature.weather.annual.daily_min_median feature.weather.annual.daily_range_median feature.weather.annual.dd_cooling feature.weather.annual.dd_heating feature.weather.latitude feature.weather.longitude feature.weather.monthly.daily_max.01 feature.weather.monthly.daily_max.02 feature.weather.monthly.daily_max.03 feature.weather.monthly.daily_max.04 feature.weather.monthly.daily_max.05 feature.weather.monthly.daily_max.06 feature.weather.monthly.daily_max.07 feature.weather.monthly.daily_max.08 feature.weather.monthly.daily_max.09 feature.weather.monthly.daily_max.10 feature.weather.monthly.daily_max.11 feature.weather.monthly.daily_max.12 feature.weather.monthly.daily_max_median.01 feature.weather.monthly.daily_max_median.02 feature.weather.monthly.daily_max_median.03 feature.weather.monthly.daily_max_median.04 feature.weather.monthly.daily_max_median.05 feature.weather.monthly.daily_max_median.06 feature.weather.monthly.daily_max_median.07 feature.weather.monthly.daily_max_median.08 feature.weather.monthly.daily_max_median.09 feature.weather.monthly.daily_max_median.10 feature.weather.monthly.daily_max_median.11 feature.weather.monthly.daily_max_median.12 feature.weather.monthly.daily_median_median.01 feature.weather.monthly.daily_median_median.02 feature.weather.monthly.daily_median_median.03 feature.weather.monthly.daily_median_median.04 feature.weather.monthly.daily_median_median.05 feature.weather.monthly.daily_median_median.06 feature.weather.monthly.daily_median_median.07 feature.weather.monthly.daily_median_median.08 feature.weather.monthly.daily_median_median.09 feature.weather.monthly.daily_median_median.10 feature.weather.monthly.daily_median_median.11 feature.weather.monthly.daily_median_median.12 feature.weather.monthly.daily_min.01 feature.weather.monthly.daily_min.02 feature.weather.monthly.daily_min.03 feature.weather.monthly.daily_min.04 feature.weather.monthly.daily_min.05 feature.weather.monthly.daily_min.06 feature.weather.monthly.daily_min.07 feature.weather.monthly.daily_min.08 feature.weather.monthly.daily_min.09 feature.weather.monthly.daily_min.10 feature.weather.monthly.daily_min.11 feature.weather.monthly.daily_min.12 feature.weather.monthly.daily_min_median.01 feature.weather.monthly.daily_min_median.02 feature.weather.monthly.daily_min_median.03 feature.weather.monthly.daily_min_median.04 feature.weather.monthly.daily_min_median.05 feature.weather.monthly.daily_min_median.06 feature.weather.monthly.daily_min_median.07 feature.weather.monthly.daily_min_median.08 feature.weather.monthly.daily_min_median.09 feature.weather.monthly.daily_min_median.10 feature.weather.monthly.daily_min_median.11 feature.weather.monthly.daily_min_median.12 feature.weather.monthly.daily_range_median.01 feature.weather.monthly.daily_range_median.02 feature.weather.monthly.daily_range_median.03 feature.weather.monthly.daily_range_median.04 feature.weather.monthly.daily_range_median.05 feature.weather.monthly.daily_range_median.06 feature.weather.monthly.daily_range_median.07 feature.weather.monthly.daily_range_median.08 feature.weather.monthly.daily_range_median.09 feature.weather.monthly.daily_range_median.10 feature.weather.monthly.daily_range_median.11 feature.weather.monthly.daily_range_median.12 feature.weather.monthly.dd_cooling.01 feature.weather.monthly.dd_cooling.02 feature.weather.monthly.dd_cooling.03 feature.weather.monthly.dd_cooling.04 feature.weather.monthly.dd_cooling.05 feature.weather.monthly.dd_cooling.06 feature.weather.monthly.dd_cooling.07 feature.weather.monthly.dd_cooling.08 feature.weather.monthly.dd_cooling.09 feature.weather.monthly.dd_cooling.10 feature.weather.monthly.dd_cooling.11 feature.weather.monthly.dd_cooling.12 feature.weather.monthly.dd_heating.01 feature.weather.monthly.dd_heating.02 feature.weather.monthly.dd_heating.03 feature.weather.monthly.dd_heating.04 feature.weather.monthly.dd_heating.05 feature.weather.monthly.dd_heating.06 feature.weather.monthly.dd_heating.07 feature.weather.monthly.dd_heating.08 feature.weather.monthly.dd_heating.09 feature.weather.monthly.dd_heating.10 feature.weather.monthly.dd_heating.11 feature.weather.monthly.dd_heating.12 feature.extra_spaces.basement.exists feature.extra_spaces.basement.occupied feature.extra_spaces.basement.conditioned feature.extra_spaces.basement.use_fraction feature.extra_spaces.attic.exists feature.extra_spaces.attic.occupied feature.extra_spaces.attic.conditioned feature.extra_spaces.attic.use_fraction
feature_infos=[0.006679782351473644:1] [0.020488536796111977:1] [0:1] [0:1] [0:1] [0:1] [0:1] [0:1] [0:1] [0:1] [0.00011293925891075732:1] [0.00011090833661051994:1] [0:1] [0:1] [0:1] [0:1] [0:1] [0:1] [0:1] [0:1] [0:1] [0:1] [0:1] [0:1] [0:1] [0:1] [0:1] [0:1] [0:1] [0:1] [0:1] [0:1] [0:1] [0:1] [0:1] [0:1] [0:1] [0:1] [0:1] [0:1] [0:1] [0:1] [0:1] [0:0.94713381448359024] [0:0.93527432534788724] [0:1] [0:1] [0:1] [0:1] [0:1] [0:1] [0:1] [0:1] [0:1] [0:1] [0:1] [0:1] [0:1] [0:1] [0:1] [0:1] [0:3] [0:4] none [0:4] [0:5] [0:3] [0:1] [0:1] [0:1] [0:1] [0:2] [0:5] [0:2] [0:2] [0:1] [0:2] [0:1] [0:1] [0:1] [0:58] [0:1] [0:1] [0:1] [0:1] [0:1] [0:1] [0:1] [0:1] [0:1] [0:1] [0:1] [0:1] [0:1] [0:1] [0:1] [0:1] [0:1] [0:1] [0:1] [0:1] [0:1] [0:1] [0:1] [0:1] [0:1] [0:1] [0:1] [0:1] [0:1] [0:1] [0:1] [0:1] [0:1] [0:1] [0:1] [0:1] [0:1] [0:1] [0:1] [0:1] [0:1] [0:1] [0:1] [0:1] [0:1] [0:1] [0:1] [0:1] [0:1] [0:1] [0:1] [0:1] [0:1] [0:1] [0:1] [0:1] [0:1] [0:1] [0:1] [0:1] [0:1] [0:1] [0:1] [0:1] [0:1] [0:1] [0:1] [0:1] [0:1] [0:1] [0:1] [0:1] [0:1] [0:1] [0:1] [0:1] [0:1] [0:1] [0:1] [0:1] none [0:1] [0:1] [0:1] [0:1] [0:1] [0:1] [0:1] [0:1] [0:1] [0:1] none [0:1] [0:1] [0:1] [0:1] [0:1] [0:1] [0:1] [0:1] [0:1] [0:1] [0:1] [0:1] [0:1] [0:1] [0:1] [0:1] [0:1] [0:1] [0:1] [0:1]
tree_sizes=2885 2973 2995 2997 3000 2998 3008 3017 3010 3018 3014 3023 3013 3021 3007 3018 3035 3034 3025 3012 3044 3018 3033 3048 3016 3047 3035 3043 3062 3062 3067 3063 3052 3058 3035 3049 3064 3084 3057 3055 3061 3051 3074 3059 3073 3026 3041 3016 3056 3067 3059 3043 3050 3037 3062 3048 3046 3018 3044 3044 3045 3057 3048 3009 3042 3041 3020 3025 3049 3022 3045 3027 3032 3010 3015 3040 3006 3008 3003 3059 3029 2985 3018 3045 3004 2970 3024 3047 2983 3033 3037 3025 2961 3011 2975 3034 3016 3022 2976 3012 2987 3016 3040 3000 2983 3018 2997 3039 3063 3051 2963 2945 3033 2948 3045 2990 3000 3009 2945 3058 2993 2988 2948 2992 2947 2941 3004 2958 2977 2953 3043 2987 3018 3038 3021 2933 2971 2975 2985 3021 2953 2965 2985 3041 2953 2942 2927 3045 2987 3053 2935 2985 2957 2981 2977 2971 2987 3067 2945 3021 3026 2951 2961 2951 3018 2942 2959 3012 3024 3019 2949 2985 3021 3018 3050 3024 2996 3014 2944 3006 2986 2956 2975 3057 3042 2989 2953 2967 2937 2996 3028 2983 2985 2948 2973 2998 2944 3011 3055 2982 3019 2995 3005 3038 3025 2960 2974 2991 3092 3003 2980 3010 2999 2936 2951 2983 2960 3004 2977 2991 2994 2989 3018 2971 3065 2960 2965 2986 3004 2948 2940 2959 2989 3033 3016 3027 2994 3010 2958 3007 3009 3004 3006 2987 2968 2966 2949 2953 3037 2986 2984 3007 2976 2948 2967 2943 2998 3009 2992 2978 2991 2977 3040 2997 2977 3013 2954 2956 2992 2972 3007 2996 2995 2998 2989 2928 2959 2978 3005 3016 2999 2969 3020 3021 2988 2997 2943 2969 3037 3076 3036 2968 2994 2962 2985 2952 2970 3009 2979 3053 2978 2998 3021 3051 3066 3078 2960 2935 2980 3037 3014 2972 2989 3037 2996 3012 2995 2978 2977 2970 2989 2969 3014 3003 2985 2989 2985 2988 3054 3016 3016 2997 2988 3044 2969 3019 3026 2985 2989 2966 2955 2989 2988 2994 2990 2949 2968 3023 2986 3023 2988 2989 2972 2972 2976 2997 2941 2998 3020 2983 3013 3014 2952 2998 2955 2971 2991 2982 3005 2979 2966 3002 2967 2999 3028 3037 2977 2986 2975 2973 2954 2961 2981 2974 2994 3017 2964 2970 3016 3001 2988 2953 2989 2965 3000 2973 3004 3029 2983 3001 3025 2971 2954 3026 3024 2974 2977 2984 2983 2996 2950 2978 3040 3021 2985 2995 2998 2998 2962 2997 2981 3041 2996 2971 2963 2966 2958 3012 3003 3001 2996 3005 3011 2998 2985 2999 3009 3017 2953 2991 3028 3008 2981 2955 2969 2975 3028 2999 2987 3020 3008 2985 2972 2990 2990 3001 3035 3011 2980 2989 2970 2991 2963 2976 2990 2987 2985 2966 2964 3005 2984 2972 3006 2997 3006 2961 2979 2968 2968 2956 3018 3002 3054 3044 3032 2979 2998 2971 2984 2956 2953 3010 2980 2990 2992 3007 2987 3012 2986 2983 3010 2963 2966 2996 3019 3016 3053 3008 3011 2991 2969 3008 3013 2984 3001 2998 2968 2987 3000 2993 2991 3005 2964 3019 2974 2995 3043 3062 3030 2995 2999 3005 3031 2972 2987 2984 2989 2972 3002 2974 2974 2979 2968 3011 3001 2997 3016 3011 2997 2970 3005 2976 2977 2976 2979 2993 2970 2986 2984 3002 3014 3009 3051 3006 3029 2979 2960 2987 2982 2986 3029 3020 2966 3027 2988 2999 2980 2994 2995 2983 2997 2974 3029 2973 3014 2953 2971 2999 2977 3004 3029 2984 2954 2960 3020 2984 3003 2982 3016 2995 3061 3077 3008 2949 3055 3037 3045 2976 2957 2956 3025 3037 2986 2977 2977 3001 3018 2987 3075 2998 2983 2990 3085 3063 3075 3077 2989 3106 2972 2961 3079 3071 2961 3064 3066 3077 3013 2952 2984 2997 2989 2973 2976 3067 3021 2981 3010 2986 2977 2971 2988 2983 2993 3089 2997 2987 2984 2959 2985 2957 2997 3023 2976 2980 3018 3008 3083 2970 3011 2976 2997 3023 2978 2997 3055 2987 2985 2979 3005 3008 2993 2976 2982 2973 2968 3015 2968 3012 2978 2983 3004 3022 3004 2982 3004 2972 3032 3019 2979 3003 2977 2980 3019 3010 3011 3033 3020 3003

Tree=0
num_leaves=31
num_cat=0
split_feature=187 191 188 192 68 186 7 190 190 7 191 7 7 188 192 192 186 68 188 7 68 68 7 191 192 68 191 68 68 61
split_gain=395804 407705 128315 104032 31097.8 27118.3 24408.9 23936.1 19402.3 15165.3 14682.8 14436.6 11323.7 7535.07 6958.35 6913.19 6840.14 5630.62 4748.7 3890.79 3772.96 3755.15 3652.03 3592.92 4916.96 3483.75 3396.58 2769.24 2672.62 2655.11
threshold=1.0000000180025095e-35 1.0000000180025095e-35 0.34072539320059009 0.34460722797662396 1.0000000180025095e-35 1.0000000180025095e-35 1.0000000180025095e-35 1.0000000180025095e-35 1.0000000180025095e-35 1.0000000180025095e-35 1.0000000180025095e-35 1.0000000180025095e-35 1.0000000180025095e-35 0.6602571392500699 0.68400118453064707 0.34725353234837847 1.0000000180025095e-35 1.0000000180025095e-35 0.35691243156799241 1.0000000180025095e-35 1.0000000180025095e-35 1.0000000180025095e-35 1.0000000180025095e-35 1.0000000180025095e-35 0.34725353234837847 1.0000000180025095e-35 1.0000000180025095e-35 1.0000000180025095e-35 1.0000000180025095e-35 1.5000000000000002
decision_type=2 2 2 2 2 2 2 2 2 2 2 2 2 2 2 2 2 2 2 2 2 2 2 2 2 2 2 2 2 2
left_child=1 2 3 4 -1 9 8 12 13 23 15 14 18 27 28 19 22 -8 -3 -7 -15 -13 -9 24 -2 -16 -11 -4 -5 -6
right_child=5 7 6 11 29 10 17 16 -10 26 -12 21 -14 20 25 -17 -18 -19 -20 -21 -22 -23 -24 -25 -26 -27 -28 -29 -30 -31
leaf_value=13.751775875515163 13.097516831351864 13.100079239479479 14.167440825931459 14.185472849818295 13.910479495540363 13.401144252137847 14.057758775792525 13.4010754023923 15.045383016469932 13.398406488567181 13.236296121144804 14.025410086195423 13.397046904900202 14.444532451432599 14.457778783390317 13.731615912556322 13.72523918493639 14.3161673186932 13.400998303274873 13.560021011401693 14.745550668852514 14.256243436535561 13.558331733424817 12.953835864030527 13.400326031722102 14.760998952076111 13.196954828392151 14.435588499009578 14.438490950137547 13.992865423660087
leaf_weight=15620 3362 3314 814 841 7909 3323 1677 3206 669 3393 2454 1405 3389 802 770 1262 1319 1696 623 2875 866 1414 2738 1289 638 746 1111 731 829 7740
leaf_count=15620 3362 3314 814 841 7909 3323 1677 3206 669 3393 2454 1405 3389 802 770 1262 1319 1696 623 2875 866 1414 2738 1289 638 746 1111 731 829 7740
internal_value=13.72 13.8494 13.9997 13.9248 13.8516 13.3319 14.3845 13.3906 14.5554 13.2139 13.4485 14.306 13.263 14.4534 14.4519 13.5183 13.5192 14.1877 13.1477 13.4748 14.6008 14.1412 13.4735 13.099 13.1458 14.607 13.3487 14.2943 14.3111 13.9512
internal_weight=78825 59118 44529 37274 31269 19707 7255 14589 3882 9793 9914 6005 7326 3213 3186 7460 7263 3373 3937 6198 1668 2819 5944 5289 4000 1516 4504 1545 1670 15649
internal_count=78825 59118 44529 37274 31269 19707 7255 14589 3882 9793 9914 6005 7326 3213 3186 7460 7263 3373 3937 6198 1668 2819 5944 5289 4000 1516 4504 1545 1670 15649
is_linear=0
shrinkage=1


Tree=1
num_leaves=31
num_cat=0
split_feature=187 191 190 188 68 188 192 7 188 7 7 191 7 192 68 188 192 188 68 191 192 68 68 191 68 68 188 186 188 61
split_gain=320601 330241 104125 84207.9 25299.5 22169 19673.5 18924.1 16484.4 13272 12508.8 10847.7 9724.98 6041.58 5555.36 5009.56 4966.73 4223.74 4111.68 3514.34 4521.6 3347.19 3304.6 3123.51 3101.43 2945.7 2792.95 2279.71 2268.1 2185.76
threshold=1.0000000180025095e-35 1.0000000180025095e-35 1.0000000180025095e-35 0.36258042046211908 1.0000000180025095e-35 0.41345777438794923 0.39951913076920537 1.0000000180025095e-35 0.44056537694519349 1.0000000180025095e-35 1.0000000180025095e-35 1.0000000180025095e-35 1.0000000180025095e-35 0.63280491001412054 1.0000000180025095e-35 0.39008013869778513 0.34725353234837847 0.35691243156799241 1.0000000180025095e-35 1.0000000180025095e-35 0.36526190119904756 1.0000000180025095e-35 1.0000000180025095e-35 1.0000000180025095e-35 1.0000000180025095e-35 1.0000000180025095e-35 0.68831116260371172 1.0000000180025095e-35 0.70768506249819096 1.5000000000000002
decision_type=2 2 2 2 2 2 2 2 2 2 2 2 2 2 2 2 2 2 2 2 2 2 2 2 2 2 2 2 2 2
left_child=1 2 3 4 -1 9 12 8 13 19 14 16 17 -4 28 24 25 -3 -9 20 -2 -12 -15 -11 -8 -7 -16 -20 -5 -6
right_child=5 6 7 10 29 11 15 18 -10 23 21 -13 -14 22 26 -17 -18 -19 27 -21 -22 -23 -24 -25 -26 -27 -28 -29 -30 -31
leaf_value=0.029228287821239277 -0.54483437514153576 -0.54688388469469484 0.51826563583428453 0.42692247596909016 0.17185992398046648 -0.28053958763992892 -0.28258968306733262 0.31408672418867084 1.2553404680133737 -0.2798225348637135 0.26559843425476098 -0.42522705667132865 -0.28318244070559029 0.65576076181635534 0.66880195570365575 0.025223946647720222 0.024833149402498665 -0.27575890106390372 0.48103361649005683 -0.68090934974053952 -0.26745363948873419 0.48721908142692166 0.92578231509795972 -0.46180433828199502 -0.13164491186335792 -0.13351626850867246 0.93745972329698268 0.78596236351374038 0.66990147562067792 0.24649524067746309
leaf_weight=15683 3776 3620 1542 850 7926 2689 2737 1696 548 3805 1358 2152 3727 929 766 1114 1124 683 1428 1448 696 1368 885 1254 2708 2763 782 296 701 7771
leaf_count=15683 3776 3620 1542 850 7926 2689 2737 1696 548 3805 1358 2152 3727 929 766 1114 1124 683 1428 1448 696 1368 885 1254 2708 2763 782 296 701 7771
internal_value=1.0125e-09 0.11644 0.251724 0.183877 0.119059 -0.349301 -0.296479 0.596377 0.746827 -0.443868 0.533061 -0.230345 -0.40143 0.663792 0.6705 -0.167989 -0.16657 -0.503849 0.424635 -0.545507 -0.501664 0.376815 0.787497 -0.324931 -0.207519 -0.20603 0.804519 0.533388 0.536741 0.208809
internal_weight=78825 59118 44529 37205 31380 19707 14589 7324 3904 10979 5825 8728 8030 3356 3099 6559 6576 4303 3420 5920 4472 2726 1814 5059 5445 5452 1548 1724 1551 15697
internal_count=78825 59118 44529 37205 31380 19707 14589 7324 3904 10979 5825 8728 8030 3356 3099 6559 6576 4303 3420 5920 4472 2726 1814 5059 5445 5452 1548 1724 1551 15697
is_linear=0
shrinkage=0.1


Tree=2
num_leaves=31
num_cat=0
split_feature=187 191 186 192 68 186 7 190 190 7 191 7 7 188 188 192 192 68 186 7 68 68 68 192 191 191 68 68 61 61
split_gain=259687 267495 85242.1 67935.1 20410.6 18224.9 16062.4 15992.3 13160.6 9988.29 9665.11 9527.26 7456.09 5272.89 4592.17 4571.95 4534.01 3569.98 3138.97 3019.45 2940.77 2867.48 2561.47 2420.9 2561.15 2226.65 2178.86 2153.8 1985.27 4086.7
threshold=1.0000000180025095e-35 1.0000000180025095e-35 1.0000000180025095e-35 0.35241794786066133 1.0000000180025095e-35 1.0000000180025095e-35 1.0000000180025095e-35 1.0000000180025095e-35 1.0000000180025095e-35 1.0000000180025095e-35 1.0000000180025095e-35 1.0000000180025095e-35 1.0000000180025095e-35 0.59929393853020596 0.47006664901043466 0.34239207382040127 0.71229603926532448 1.0000000180025095e-35 1.0000000180025095e-35 1.0000000180025095e-35 1.0000000180025095e-35 1.0000000180025095e-35 1.0000000180025095e-35 0.5583050290928312 1.0000000180025095e-35 1.0000000180025095e-35 1.0000000180025095e-35 1.0000000180025095e-35 1.5000000000000002 1.0000000180025095e-35
decision_type=2 2 2 2 2 2 2 2 2 2 2 2 2 2 2 2 2 2 2 2 2 2 2 2 2 2 2 2 2 2
left_child=1 2 3 4 28 9 8 12 13 23 15 16 18 -4 20 19 27 -8 -3 -7 -9 -15 -13 24 -2 -11 -18 -5 29 -1
right_child=5 7 6 11 -6 10 17 14 -10 25 -12 22 -14 21 -16 -17 26 -19 -20 -21 -22 -23 -24 -25 -26 -27 -28 -29 -30 -31
leaf_value=0.061360997195926407 -0.49670134471289479 -0.50416575510596706 0.43575908492008852 0.37769081576322455 0.18693307786884572 -0.26267749299713472 0.27639510504194703 -0.2621646689583596 1.0777359767200687 -0.26145596750878786 -0.39094507595601613 0.24445467615567337 -0.26234359953922926 0.57008622387203123 0.032500904605144411 0.010097054340464581 0.60673844915468256 0.48076642207311571 -0.2627655425010631 -0.12253719179591782 -0.12463445669385845 0.81198695756502315 0.43636594982597771 -0.34950021199326314 -0.6889654703551038 -0.42456427557204457 0.85717723687257108 0.59957351366313061 0.061233205918342838 -0.082802973529863905
leaf_weight=3968 3582 3293 1296 881 15639 3318 1700 3148 674 3393 2454 1385 3389 944 1043 1277 707 1719 644 2865 3072 1019 1397 848 859 1111 683 869 7750 3898
leaf_count=3968 3582 3293 1296 881 15639 3318 1700 3148 674 3393 2454 1385 3389 944 1043 1277 707 1719 644 2865 3072 1019 1397 848 859 1111 683 869 7750 3898
internal_value=1.09361e-09 0.104796 0.226551 0.165024 0.106182 -0.314371 0.53768 -0.266831 0.675493 -0.41113 -0.218793 0.475577 -0.371079 0.592304 -0.161679 -0.162163 0.594965 0.379149 -0.464678 -0.197741 -0.19424 0.695658 0.340824 -0.504326 -0.53389 -0.30169 0.729796 0.487871 0.025312 -0.0100795
internal_weight=78825 59118 44529 37177 31255 19707 7352 14589 3933 9793 9914 5922 7326 3259 7263 7460 3140 3419 3937 6183 6220 1963 2782 5289 4441 4504 1390 1750 15616 7866
internal_count=78825 59118 44529 37177 31255 19707 7352 14589 3933 9793 9914 5922 7326 3259 7263 7460 3140 3419 3937 6183 6220 1963 2782 5289 4441 4504 1390 1750 15616 7866
is_linear=0
shrinkage=0.1


Tree=3
num_leaves=31
num_cat=0
split_feature=187 191 192 188 68 188 192 7 7 188 7 7 191 68 68 186 188 192 188 191 192 68 68 7 68 68 61 61 68 61
split_gain=210346 216671 69638.3 57195.6 17689.8 15148 13347.7 11858 9339.49 9326.17 8817.59 6865.48 6710.71 3682.78 3460.67 3136.17 2995.41 2983.05 2867.17 2811.52 3549.44 2373.08 2274.32 2195.13 2015.92 1999.5 1934.01 5610.24 1875.19 1749.77
threshold=1.0000000180025095e-35 1.0000000180025095e-35 0.43296103452312534 0.42806860768707966 1.0000000180025095e-35 0.46777846619334645 0.44910886710593828 1.0000000180025095e-35 1.0000000180025095e-35 0.47279422878639515 1.0000000180025095e-35 1.0000000180025095e-35 1.0000000180025095e-35 1.0000000180025095e-35 1.0000000180025095e-35 1.0000000180025095e-35 0.44056537694519349 0.39195851554316224 0.38473457352212898 1.0000000180025095e-35 0.4197469279435822 1.0000000180025095e-35 1.0000000180025095e-35 1.0000000180025095e-35 1.0000000180025095e-35 1.0000000180025095e-35 1.5000000000000002 1.0000000180025095e-35 1.0000000180025095e-35 1.5000000000000002
decision_type=2 2 2 2 2 2 2 2 2 2 2 2 2 2 2 2 2 2 2 2 2 2 2 2 2 2 2 2 2 2
left_child=1 2 3 4 29 8 11 9 19 14 13 16 17 -5 -4 23 -3 22 28 20 -2 -10 -7 -8 -13 -12 27 -6 -9 -1
right_child=5 6 7 10 26 12 15 18 21 -11 25 24 -14 -15 -16 -17 -18 -19 -20 -21 -22 -23 -24 -25 -26 -27 -28 -29 -30 -31
leaf_value=-0.0014191964657073884 -0.43327275281473332 -0.43628649159205057 0.47097313910661454 0.46017564354931068 0.22636322185057334 -0.22219013711494348 -0.22185511652514323 0.23803979128348601 -0.32243142182801132 1.0722674853122072 0.22915119772534981 -0.29379216677102993 -0.33661032439140953 0.68692206092787345 0.69134259278707511 0.025180006091072772 -0.20227592283075194 0.039043645911253838 0.59923215673662344 -0.55274256676758371 -0.18615812054344802 -0.19014130039308372 -0.087049721212244358 -0.087642869741750104 -0.15141150693809105 0.40683260234919461 0.2121312838168887 0.061987746125140568 0.41308943056785297 0.063749401282448562
leaf_weight=8296 4147 3947 1459 1409 4122 2461 2667 1234 2788 442 1247 2038 1949 1457 1393 1116 635 956 451 1569 676 2640 2521 2244 1942 1287 8149 4184 1214 8185
leaf_count=8296 4147 3947 1459 1409 4122 2461 2667 1234 2788 442 1247 2038 1949 1457 1393 1116 635 956 451 1569 676 2640 2521 2244 1942 1287 8149 4184 1214 8185
internal_value=-3.1258e-09 0.0943161 0.203896 0.153633 0.104175 -0.282934 -0.240148 0.515036 -0.354551 0.644849 0.455292 -0.320399 -0.175604 0.575448 0.578608 -0.126142 -0.403856 -0.122758 0.367535 -0.436464 -0.398637 -0.25809 -0.153806 -0.160529 -0.224319 0.319394 0.17752 0.143562 0.32485 0.0309456
internal_weight=78825 59118 44529 38336 32936 19707 14589 6193 11820 3294 5400 8562 7887 2866 2852 6027 4582 5938 2899 6392 4823 5428 4982 4911 3980 2534 16455 8306 2448 16481
internal_count=78825 59118 44529 38336 32936 19707 14589 6193 11820 3294 5400 8562 7887 2866 2852 6027 4582 5938 2899 6392 4823 5428 4982 4911 3980 2534 16455 8306 2448 16481
is_linear=0
shrinkage=0.1


Tree=4
num_leaves=31
num_cat=0
split_feature=187 191 190 186 68 188 186 192 7 7 7 191 7 7 188 192 192 186 68 68 188 68 191 192 191 68 68 192 7 68
split_gain=170381 175503 57340.9 45263.2 13341.5 12440.2 11265.7 11058.8 7064.15 6866.6 6334.53 6169.92 5791.31 4104.14 3870.4 3563.81 2952.1 2882.57 2489.27 2292.84 1949.88 1932.07 1922.87 1884.61 1907.15 1845.45 1772.29 1756.22 1740.61 1719.22
threshold=1.0000000180025095e-35 1.0000000180025095e-35 1.0000000180025095e-35 1.0000000180025095e-35 1.0000000180025095e-35 0.36790253539301571 1.0000000180025095e-35 0.52290646924588868 1.0000000180025095e-35 1.0000000180025095e-35 1.0000000180025095e-35 1.0000000180025095e-35 1.0000000180025095e-35 1.0000000180025095e-35 0.77508308018364547 0.74913171220811836 0.53019897339997668 1.0000000180025095e-35 1.0000000180025095e-35 1.0000000180025095e-35 0.36258042046211908 1.0000000180025095e-35 1.0000000180025095e-35 0.53019897339997668 1.0000000180025095e-35 1.0000000180025095e-35 1.0000000180025095e-35 0.36265226377894477 1.0000000180025095e-35 1.0000000180025095e-35
decision_type=2 2 2 2 2 2 2 2 2 2 2 2 2 2 2 2 2 2 2 2 2 2 2 2 2 2 2 2 2 2
left_child=1 2 3 4 -1 9 10 12 14 23 15 16 17 26 21 -4 19 -3 -9 -7 -14 -5 27 24 -2 -10 -8 -11 -13 -12
right_child=5 7 6 8 -6 11 13 18 25 22 29 28 20 -15 -16 -17 -18 -19 -20 -21 -22 -23 -24 -25 -26 -27 -28 -29 -30 -31
leaf_value=0.018660038062490097 -0.40151161671197677 -0.38722780765022108 0.39716070774602963 0.31378498800972693 0.14966720164702654 -0.21100336872522082 0.70805374625362927 -0.16816677260677992 0.18675661232451823 -0.23630060496501409 0.19696209372760598 -0.39075848431300342 -0.22468770070139832 0.51558211083134642 0.63658525897695473 0.6137174046439221 0.045733398361089458 -0.18662713856811006 -0.029388407083510037 -0.089351857950958277 -0.04018418392336575 0.50249214292137545 -0.35337853082019388 -0.27840566753378632 -0.56574943652813925 0.34763841696151609 1.0330003329495479 -0.044440014668181045 -0.21680254898160956 0.3522168528549478
leaf_weight=15524 3719 4215 2007 1117 15570 3065 316 2579 1429 3009 1425 1284 3662 567 1087 1223 885 863 2591 3133 679 1055 1174 956 873 1423 358 567 1042 1428
leaf_count=15524 3719 4215 2007 1117 15570 3065 316 2579 1429 3009 1425 1284 3662 567 1087 1223 885 863 2591 3133 679 1055 1174 956 873 1423 358 567 1042 1428
internal_value=1.14567e-09 0.0848845 0.183507 0.133158 0.0842605 -0.254641 0.439269 -0.216133 0.38196 -0.330585 0.383251 -0.17152 -0.280637 0.713855 0.482539 0.479157 -0.125115 -0.353136 -0.0986165 -0.14951 -0.195828 0.405445 -0.242335 -0.406142 -0.432735 0.267028 0.880651 -0.20588 -0.31283 0.274671
internal_weight=78825 59118 44529 37205 31094 19707 7324 14589 6111 10298 6083 9409 9419 1241 3259 3230 7083 5078 5170 6198 4341 2172 4750 5548 4592 2852 674 3576 2326 2853
internal_count=78825 59118 44529 37205 31094 19707 7324 14589 6111 10298 6083 9409 9419 1241 3259 3230 7083 5078 5170 6198 4341 2172 4750 5548 4592 2852 674 3576 2326 2853
is_linear=0
shrinkage=0.1


Tree=5
num_leaves=31
num_cat=0
split_feature=187 191 192 188 68 188 190 7 7 188 7 191 7 188 68 68 191 190 7 68 68 188 188 61 61 61 61 188 68 188
split_gain=138008 142158 46588.1 38825.2 11891.1 10440 9243.53 7582.71 7066.36 6084.9 5784.95 4015.69 4004.2 2951.63 2738.75 2567.86 2221.76 2905.86 2162.05 2124.4 1917.22 1803.82 1748.26 1646.27 4659.61 1464.29 3756.48 1456.86 1295.17 1290.35
threshold=1.0000000180025095e-35 1.0000000180025095e-35 0.462231464365501 0.45995677495542414 1.0000000180025095e-35 0.55402861492489797 1.0000000180025095e-35 1.0000000180025095e-35 1.0000000180025095e-35 0.53801489855299411 1.0000000180025095e-35 1.0000000180025095e-35 1.0000000180025095e-35 0.48340425512418184 1.0000000180025095e-35 1.0000000180025095e-35 1.0000000180025095e-35 1.0000000180025095e-35 1.0000000180025095e-35 1.0000000180025095e-35 1.0000000180025095e-35 0.34574891436058613 0.51441459502463383 1.5000000000000002 1.0000000180025095e-35 1.5000000000000002 1.0000000180025095e-35 0.39008013869778513 1.0000000180025095e-35 0.82421606929894764
decision_type=2 2 2 2 2 2 2 2 2 2 2 2 2 2 2 2 2 2 2 2 2 2 2 2 2 2 2 2 2 2
left_child=1 2 3 4 25 8 12 9 16 14 15 20 22 18 -4 -5 17 -2 -8 -10 -7 -9 -3 24 -6 26 -1 -14 -12 -17
right_child=5 6 7 10 23 11 13 21 19 -11 28 -13 27 -15 -16 29 -18 -19 -20 -21 -22 -23 -24 -25 -26 -27 -28 -29 -30 -31
leaf_value=0.063233270794711305 -0.34905948251966512 -0.36672516497280561 0.38599166628991233 0.38191482904086632 0.18969868782379617 -0.14383762107193529 -0.19462950603683471 0.27077904510439477 -0.25936762375337008 0.92409222445919026 0.1935202608754901 -0.26247929764082584 -0.2218140306763027 0.042957576284691781 0.58455743359823298 0.50949828126121732 -0.4465213028202768 -0.14899498028208039 -0.076522948829378226 -0.14074764442895552 -0.019443351061923336 0.49126140262881024 -0.16005672423730019 0.17736477408264797 0.041068338738786736 0.056343119610833804 -0.070092543174073083 -0.039027751511477429 0.34056068529694494 0.71488224528483213
leaf_weight=4272 4464 3473 1409 1328 4176 2479 3374 2312 3086 354 1176 1633 2875 1022 1370 942 1745 867 2867 2956 2477 442 464 8293 4262 8337 4182 514 1221 453
leaf_count=4272 4464 3473 1409 1328 4176 2479 3374 2312 3086 354 1176 1633 2875 1022 1370 942 1745 867 2867 2956 2477 442 464 8293 4262 8337 4182 514 1221 453
internal_value=7.17277e-10 0.0763961 0.165156 0.125232 0.0860581 -0.229177 -0.19452 0.427215 -0.280761 0.533621 0.381714 -0.126478 -0.273775 -0.114576 0.483881 0.481444 -0.348581 -0.316522 -0.140374 -0.201334 -0.0816656 0.306165 -0.342368 0.145724 0.114626 0.0266058 -0.00271995 -0.194091 0.268421 0.576193
internal_weight=78825 59118 44529 38642 33522 19707 14589 5887 13118 3133 5120 6589 7326 7263 2779 2723 7076 5331 6241 6042 4956 2754 3937 16731 8438 16791 8454 3389 2397 1395
internal_count=78825 59118 44529 38642 33522 19707 14589 5887 13118 3133 5120 6589 7326 7263 2779 2723 7076 5331 6241 6042 4956 2754 3937 16731 8438 16791 8454 3389 2397 1395
is_linear=0
shrinkage=0.1


Tree=6
num_leaves=31
num_cat=0
split_feature=191 187 190 186 192 68 186 186 7 7 7 7 68 7 188 192 190 187 7 190 68 187 188 68 186 192 68 68 188 187
split_gain=112230 114973 38605.5 30474 10409.2 8728.39 7619.11 7532.18 4781.6 4766.45 4234.87 3562.19 3336.89 2802.71 2606.05 2572.09 2455.64 2221.73 2097.96 1871.19 1682.89 1588.94 1704.8 1520.15 1460.14 1371.92 1353.47 1348.79 1306.82 1299.12
threshold=1.0000000180025095e-35 1.0000000180025095e-35 1.0000000180025095e-35 1.0000000180025095e-35 0.36044198394291166 1.0000000180025095e-35 1.0000000180025095e-35 1.0000000180025095e-35 1.0000000180025095e-35 1.0000000180025095e-35 1.0000000180025095e-35 1.0000000180025095e-35 1.0000000180025095e-35 1.0000000180025095e-35 0.75653225782122924 0.795581917571623 1.0000000180025095e-35 1.0000000180025095e-35 1.0000000180025095e-35 1.0000000180025095e-35 1.0000000180025095e-35 1.0000000180025095e-35 0.56011237228189337 1.0000000180025095e-35 1.0000000180025095e-35 0.34239207382040127 1.0000000180025095e-35 1.0000000180025095e-35 0.74844153550490389 1.0000000180025095e-35
decision_type=2 2 2 2 2 2 2 2 2 2 2 2 2 2 2 2 2 2 2 2 2 2 2 2 2 2 2 2 2 2
left_child=1 2 3 5 8 -1 10 11 17 14 15 19 29 27 -5 23 18 24 -9 -3 -10 22 -14 -4 -2 -13 -12 -8 -11 -6
right_child=4 7 6 9 12 -7 13 16 20 28 26 25 21 -15 -16 -17 -18 -19 -20 -21 -22 -23 -24 -25 -26 -27 -28 -29 -30 -31
leaf_value=0.014145828474431086 -0.33236974992614876 -0.33826975249361374 0.25192530952148673 0.32654624435987817 -0.16122528524103297 0.12011002801133795 0.57158067997875095 -0.18217856313144537 -0.26360197192587254 0.16441942530614206 0.15470317058641006 -0.19681458708664362 -0.064771483985879716 0.42046616580961454 0.51247603493566452 0.52636007562264453 0.023424392869461394 -0.45388220520414546 -0.065180317639070534 -0.15298456888100112 -0.14360683373658703 -0.1729316553043182 0.14772980413907436 0.41625705711184252 -0.17026804226709402 -0.024402238522739084 0.29245720526349606 0.85505704853121811 0.30409981038949868 -0.28205217046449266
leaf_weight=15524 3406 3349 1154 2075 3502 15570 316 3313 2386 1777 1425 2842 3043 567 1184 977 1295 1352 2852 651 2291 1175 431 1099 664 551 1428 358 1075 1193
leaf_count=15524 3406 3349 1154 2075 3502 15570 316 3313 2386 1777 1425 2842 3043 567 1184 977 1295 1352 2852 651 2291 1175 431 1099 664 551 1428 358 1075 1193
internal_value=8.31831e-11 0.0682772 0.14864 0.107328 -0.208529 0.0672063 0.3585 -0.17265 -0.27891 0.311477 0.312432 -0.244184 -0.132462 0.584314 0.394095 0.390849 -0.101758 -0.342818 -0.128054 -0.308115 -0.204823 -0.0724076 -0.0384076 0.332085 -0.305924 -0.168816 0.223653 0.722151 0.217069 -0.191927
internal_weight=78825 59382 44529 37205 19443 31094 7324 14853 10099 6111 6083 7393 9344 1241 3259 3230 7460 5422 6165 4000 4677 4649 3474 2253 4070 3393 2853 674 2852 4695
internal_count=78825 59382 44529 37205 19443 31094 7324 14853 10099 6111 6083 7393 9344 1241 3259 3230 7460 5422 6165 4000 4677 4649 3474 2253 4070 3393 2853 674 2852 4695
is_linear=0
shrinkage=0.1


Tree=7
num_leaves=31
num_cat=0
split_feature=187 191 192 188 68 188 192 7 7 188 7 7 191 188 68 68 186 68 191 68 190 68 68 188 61 61 68 68 191 192
split_gain=91119 92764.3 31448 26385.5 8393.39 7583.59 6776.78 4920.68 4889 3887.79 3804.31 3728.99 2433.55 1869.79 1842 1835.21 1790.97 1783.49 1745.97 1632.98 1521.6 1513.36 1445.93 1327.19 1293.47 3263.43 1247.6 1180.49 1132.23 1287.84
threshold=1.0000000180025095e-35 1.0000000180025095e-35 0.52771875458478867 0.53041765973421906 1.0000000180025095e-35 0.59666664939090508 0.62744543299056399 1.0000000180025095e-35 1.0000000180025095e-35 0.57784714193697073 1.0000000180025095e-35 1.0000000180025095e-35 1.0000000180025095e-35 0.50901264971301952 1.0000000180025095e-35 1.0000000180025095e-35 1.0000000180025095e-35 1.0000000180025095e-35 1.0000000180025095e-35 1.0000000180025095e-35 1.0000000180025095e-35 1.0000000180025095e-35 1.0000000180025095e-35 0.33824057690391957 1.5000000000000002 1.0000000180025095e-35 1.0000000180025095e-35 1.0000000180025095e-35 1.0000000180025095e-35 0.45675801642719638
decision_type=2 2 2 2 2 2 2 2 2 2 2 2 2 2 2 2 2 2 2 2 2 2 2 2 2 2 2 2 2 2
left_child=1 2 3 4 24 7 10 15 9 14 13 17 22 27 -4 -2 20 -5 21 -12 -6 -9 -7 -8 25 -1 -10 -3 29 -17
right_child=5 6 8 11 16 12 23 18 26 -11 19 -13 -14 -15 -16 28 -18 -19 -20 -21 -22 -23 -24 -25 -26 -27 -28 -29 -30 -31
leaf_value=0.057945787636693294 -0.33224197732289729 -0.32416489678449906 0.33041978655712401 0.32717718967391535 0.10809902451707526 -0.11159330225481739 -0.073563357794950296 -0.18722108813576821 0.19092887837853256 0.80679587318863677 -0.19048602941130011 0.23400777282591878 -0.20273662908548556 -0.10200143401697803 0.50328019598892204 -0.22727226649367546 0.25937883949109675 0.49972355268992391 -0.25448681099948778 -0.074456052097815431 0.2431138011187636 -0.074865649163023712 0.0025143917642590414 0.074693329043283657 0.052105599317509903 -0.063979838041500342 0.33367832149904825 -0.22704326318953633 -0.32722586951170562 -0.026600310690770609
leaf_weight=4438 3680 2504 1244 1166 15570 2222 3281 2456 1227 284 2479 2130 1477 708 1222 2442 911 1232 1549 2375 882 2342 2220 740 8657 4344 1222 2502 951 368
leaf_count=4438 3680 2504 1244 1166 15570 2222 3281 2456 1227 284 2479 2130 1477 708 1222 2442 911 1232 1549 2375 882 2342 2220 740 8657 4344 1222 2502 951 368
internal_value=1.92766e-10 0.0620759 0.133776 0.103222 0.0736778 -0.186218 -0.15677 -0.226863 0.364917 0.456429 -0.198811 0.330297 -0.0915392 -0.254111 0.416079 -0.282036 0.122895 0.415825 -0.162179 -0.133714 0.115337 -0.132378 -0.0545651 -0.0462791 0.0246753 -0.0023645 0.262158 -0.275623 -0.232911 -0.200992
internal_weight=78825 59118 44529 39330 34802 19707 14589 13788 5199 2750 10568 4528 5919 5714 2466 7441 17363 2398 6347 4854 16452 4798 4442 4021 17439 8782 2449 5006 3761 2810
internal_count=78825 59118 44529 39330 34802 19707 14589 13788 5199 2750 10568 4528 5919 5714 2466 7441 17363 2398 6347 4854 16452 4798 4442 4021 17439 8782 2449 5006 3761 2810
is_linear=0
shrinkage=0.1


Tree=8
num_leaves=31
num_cat=0
split_feature=191 187 186 190 192 68 192 188 7 7 192 7 7 188 187 68 192 187 186 7 188 68 68 61 61 68 68 192 192 68
split_gain=73928.5 75178 25992.7 20167.2 7709.09 5885.7 5614.29 5270.1 3883.6 3592.27 3369.14 3040.55 2971.42 2080.55 1970.27 1969.67 1808.15 1469.53 1404.96 1396.28 1295.42 1255.24 1196.25 1126.18 3480.49 1119.69 1105.76 1077.43 1019.6 914.039
threshold=1.0000000180025095e-35 1.0000000180025095e-35 1.0000000180025095e-35 1.0000000180025095e-35 0.54546942787188391 1.0000000180025095e-35 0.53291882940342894 0.66794019943546867 1.0000000180025095e-35 1.0000000180025095e-35 0.52290646924588868 1.0000000180025095e-35 1.0000000180025095e-35 0.80838669092512483 1.0000000180025095e-35 1.0000000180025095e-35 0.7852355703875884 1.0000000180025095e-35 1.0000000180025095e-35 1.0000000180025095e-35 0.33559622956634233 1.0000000180025095e-35 1.0000000180025095e-35 1.5000000000000002 1.0000000180025095e-35 1.0000000180025095e-35 1.0000000180025095e-35 0.57100559326088074 0.70395340881296076 1.0000000180025095e-35
decision_type=2 2 2 2 2 2 2 2 2 2 2 2 2 2 2 2 2 2 2 2 2 2 2 2 2 2 2 2 2 2
left_child=1 2 3 5 8 -1 9 10 14 13 11 26 16 21 18 -6 29 20 -2 -8 -10 -4 -11 24 -7 -13 -3 -9 -14 -5
right_child=4 7 6 12 15 23 19 27 17 22 -12 25 28 -15 -16 -17 -18 -19 -20 -21 -22 -23 -24 -25 -26 -27 -28 -29 -30 -31
leaf_value=0.010274672861667186 -0.25786150861122548 -0.29025631198870538 0.21232794584761985 0.20406653616148698 -0.13603548278048677 0.13749278653408298 0.64458587683907664 -0.055434140324863018 -0.15004615998990245 0.11766016806019408 -0.023614081290037128 -0.18210160441709511 0.12574878732918573 0.45498968454698724 -0.35738013443132394 -0.026727466398270512 0.42750993322681741 -0.24253857060910941 -0.11996558262363853 0.38996724219324119 -0.003892706431437526 0.35430865353355662 0.24334791141529669 0.12444724280603173 0.0044119859104853392 -0.082826221457194704 -0.19917799509441325 0.10981997088591258 0.2462261350904342 0.33318788553106377
leaf_weight=15524 4327 2666 1274 1121 3295 3913 481 3201 3735 1510 1324 2316 1602 960 1733 3299 1036 1439 891 390 724 1218 1519 7709 3948 2230 2666 450 1251 1073
leaf_count=15524 4327 2666 1274 1121 3295 3913 481 3201 3735 1510 1324 2316 1602 960 1733 3299 1036 1439 891 390 724 1218 1519 7709 3948 2230 2666 450 1251 1073
internal_value=-7.65461e-10 0.0554151 0.120399 0.0864229 -0.169247 0.0538463 0.292205 -0.139404 -0.214355 0.260169 -0.173411 -0.193489 0.252942 0.329908 -0.264997 -0.0813483 0.318628 -0.154672 -0.234315 0.530578 -0.126315 0.281723 0.180691 0.0972891 0.0706561 -0.133403 -0.244717 -0.0350659 0.178576 0.267215
internal_weight=78825 59382 44529 37177 19443 31094 7352 14853 12849 6481 11202 9878 6083 3452 6951 6594 3230 5898 5218 871 4459 2492 3029 15570 7861 4546 5332 3651 2853 2194
internal_count=78825 59382 44529 37177 19443 31094 7352 14853 12849 6481 11202 9878 6083 3452 6951 6594 3230 5898 5218 871 4459 2492 3029 15570 7861 4546 5332 3651 2853 2194
is_linear=0
shrinkage=0.1


Tree=9
num_leaves=31
num_cat=0
split_feature=187 191 188 192 186 68 192 190 7 7 7 7 7 191 68 188 68 61 61 68 192 7 68 188 68 61 61 191 192 191
split_gain=60291.2 60416.7 21283 17885.3 5907.15 5530.87 4793.24 3326.94 2584.06 2472.93 2353.59 2335.45 2069.22 1599.27 1387.34 1359.44 1321.36 1235.63 3401.22 1235.41 1230.11 1209.57 1080.26 1051.52 1047.97 1034.8 2639.37 981.541 1003.45 893.483
threshold=1.0000000180025095e-35 1.0000000180025095e-35 0.55402861492489797 0.5022417891765828 1.0000000180025095e-35 1.0000000180025095e-35 0.64064730022877914 1.0000000180025095e-35 1.0000000180025095e-35 1.0000000180025095e-35 1.0000000180025095e-35 1.0000000180025095e-35 1.0000000180025095e-35 1.0000000180025095e-35 1.0000000180025095e-35 0.67615591549216958 1.0000000180025095e-35 1.5000000000000002 1.0000000180025095e-35 1.0000000180025095e-35 0.59951506925074449 1.0000000180025095e-35 1.0000000180025095e-35 0.57579643720912699 1.0000000180025095e-35 1.5000000000000002 1.0000000180025095e-35 1.0000000180025095e-35 0.34239207382040127 1.0000000180025095e-35
decision_type=2 2 2 2 2 2 2 2 2 2 2 2 2 2 2 2 2 2 2 2 2 2 2 2 2 2 2 2 2 2
left_child=1 2 3 5 10 25 8 12 15 14 29 13 22 20 -5 24 -10 18 -7 -13 -6 -9 -4 -8 -3 26 -1 28 -12 -2
right_child=4 6 7 9 11 17 23 21 16 -11 27 19 -14 -15 -16 -17 -18 -19 -20 -21 -22 -23 -24 -25 -26 -27 -28 -29 -30 -31
leaf_value=0.049186840235783791 -0.22847036031650494 -0.26453727176213598 0.2627958795250141 0.25822011911538828 -0.12934567306050401 0.13538682986263204 -0.050291479008391551 0.6053608962618422 -0.15794681582059067 0.18780126652297982 -0.15067069910854669 -0.095906428396190971 0.19247455971094785 -0.23620942279929813 0.40472542508805004 -0.040827681252647657 -0.054385063328090455 0.12580087502941514 0.010701643162578931 0.0078647371127580339 0.051430058029153708 0.36049282240044134 0.40402689533344938 0.10854516374133527 -0.17579577390223575 0.043688823259252267 -0.060500514055534672 -0.2350193977143874 -0.0032178934484586546 -0.32420596502102839
leaf_weight=4435 4000 2663 1054 1312 3554 4333 3401 430 2525 2296 2842 2329 1903 1349 1274 459 2406 8602 4419 2261 421 380 1114 475 2660 8636 4341 1111 551 1289
leaf_count=4435 4000 2663 1054 1312 3554 4333 3401 430 2525 2296 2842 2329 1903 1349 1274 459 2406 8602 4419 2261 421 380 1114 475 2660 8636 4341 1111 551 1289
internal_value=-5.34841e-10 0.0504946 0.108359 0.0841017 -0.151476 0.0589331 -0.12612 0.305397 -0.160598 0.263334 -0.206563 -0.097062 0.268571 -0.142128 0.330396 -0.205953 -0.107416 0.0988856 0.0724316 -0.0447895 -0.110199 0.490485 0.335366 -0.0308262 -0.220192 0.0191137 -0.0050694 -0.153438 -0.126725 -0.251802
internal_weight=78825 59118 44529 39648 19707 34766 14589 4881 10713 4882 9793 9914 4071 5324 2586 5782 4931 17354 8752 4590 3975 810 2168 3876 5323 17412 8776 4504 3393 5289
internal_count=78825 59118 44529 39648 19707 34766 14589 4881 10713 4882 9793 9914 4071 5324 2586 5782 4931 17354 8752 4590 3975 810 2168 3876 5323 17412 8776 4504 3393 5289
is_linear=0
shrinkage=0.1


Tree=10
num_leaves=31
num_cat=0
split_feature=187 191 186 190 186 190 192 68 7 7 191 7 188 68 68 68 192 7 192 192 186 68 188 7 68 68 7 7 68 61
split_gain=48835.8 48937.5 17832.3 13678.3 4784.79 4062.1 3912.26 3843.27 2688.53 2029.78 1983.66 1906.41 1667.7 1653.96 1641.99 1479.06 1307.54 1216.89 1199.43 1154.1 1083.84 963.903 920.633 910.775 873.331 810.702 775.351 742.741 724.872 723.294
threshold=1.0000000180025095e-35 1.0000000180025095e-35 1.0000000180025095e-35 1.0000000180025095e-35 1.0000000180025095e-35 1.0000000180025095e-35 0.65835685458930737 1.0000000180025095e-35 1.0000000180025095e-35 1.0000000180025095e-35 1.0000000180025095e-35 1.0000000180025095e-35 0.59929393853020596 1.0000000180025095e-35 1.0000000180025095e-35 1.0000000180025095e-35 0.83860203406883238 1.0000000180025095e-35 0.34725353234837847 0.46815927984088768 1.0000000180025095e-35 1.0000000180025095e-35 0.82421606929894764 0.078947368421052641 1.0000000180025095e-35 1.0000000180025095e-35 1.0000000180025095e-35 1.0000000180025095e-35 1.0000000180025095e-35 1.5000000000000002
decision_type=2 2 2 2 2 2 2 2 2 2 2 2 2 2 2 2 2 2 2 2 2 2 2 2 2 2 2 2 2 2
left_child=1 2 3 7 11 12 8 -1 13 16 15 24 17 -4 -7 -6 28 -3 -12 -17 27 -10 -15 -13 -2 -11 -8 -16 -5 -9
right_child=4 5 6 9 10 14 26 29 21 25 18 23 -14 22 20 19 -18 -19 -20 -21 -22 -23 -24 -25 -26 -27 -28 -29 -30 -31
leaf_value=0.0073435887577253597 -0.26673066411160429 -0.22156352560551659 0.2090799404598217 0.17233838738006166 -0.10650296148782104 -0.10777967817234445 0.58643829888967147 0.056313840240133951 0.095244682551982512 0.091693662047247299 -0.23412747417472801 -0.1557233726658166 -0.022191212552319955 0.30221605609865226 -0.085105771798981697 -0.039363266400028053 0.37482362871375208 -0.13541956313846548 -0.094285597860085529 0.12286731038874368 0.10199189161737457 0.20589696579208075 0.46482744852195634 -0.023388512821557624 -0.18545331293845485 0.19830664540648346 0.35824842100342114 0.015787749384971007 0.28086921808723603 0.099422435352876204
leaf_weight=15524 2679 3559 1795 1261 3707 3653 332 7861 1575 1425 1247 3904 726 1335 1592 3246 767 3041 1207 507 671 1574 471 600 2610 1428 270 1347 1202 7709
leaf_count=15524 2679 3559 1795 1261 3707 3653 332 7861 1575 1425 1247 3904 726 1335 1592 3246 767 3041 1207 507 671 1574 471 600 2610 1428 270 1347 1202 7709
internal_value=2.48112e-10 0.0454452 0.0975229 0.0693814 -0.136329 -0.113508 0.239827 0.0425527 0.218042 0.20652 -0.0873558 -0.185906 -0.166048 0.277059 -0.0605129 -0.0617005 0.260809 -0.181872 -0.165346 -0.0174472 -0.012683 0.150553 0.344625 -0.138094 -0.226622 0.145056 0.484094 -0.0388643 0.225304 0.0776577
internal_weight=78825 59118 44529 37177 19707 14589 7352 31094 6750 6083 9914 9793 7326 3601 7263 7460 3230 6600 2454 3753 3610 3149 1806 4504 5289 2853 602 2939 2463 15570
internal_count=78825 59118 44529 37177 19707 14589 7352 31094 6750 6083 9914 9793 7326 3601 7263 7460 3230 6600 2454 3753 3610 3149 1806 4504 5289 2853 602 2939 2463 15570
is_linear=0
shrinkage=0.1


Tree=11
num_leaves=31
num_cat=0
split_feature=191 187 188 192 190 68 188 190 192 187 7 68 68 68 7 190 188 61 61 7 186 192 61 61 68 7 68 68 190 7
split_gain=40061.8 39288.2 14506.2 12269.7 5076.84 3813.58 3373.57 2506.83 2347.6 2055.94 1877.25 1801.35 1502.46 1454.56 1430.26 978.743 941.269 904.1 2287.5 841.597 835.871 833.731 824.103 1365.82 785.752 761.717 738.663 696.002 660.961 649.079
threshold=1.0000000180025095e-35 1.0000000180025095e-35 0.57291480644447945 0.57100559326088074 1.0000000180025095e-35 1.0000000180025095e-35 0.72211622743435921 1.0000000180025095e-35 0.57372218311423506 1.0000000180025095e-35 1.0000000180025095e-35 1.0000000180025095e-35 1.0000000180025095e-35 1.0000000180025095e-35 1.0000000180025095e-35 1.0000000180025095e-35 0.39988308665656158 1.5000000000000002 1.0000000180025095e-35 1.0000000180025095e-35 1.0000000180025095e-35 0.77020282140208352 1.5000000000000002 1.0000000180025095e-35 1.0000000180025095e-35 1.0000000180025095e-35 1.0000000180025095e-35 1.0000000180025095e-35 1.0000000180025095e-35 1.0000000180025095e-35
decision_type=2 2 2 2 2 2 2 2 2 2 2 2 2 2 2 2 2 2 2 2 2 2 2 2 2 2 2 2 2 2
left_child=1 2 3 5 9 17 7 10 14 13 27 25 29 -2 22 20 -15 18 -1 -14 -7 -13 23 -4 -12 -6 -10 -3 -8 -5
right_child=4 6 8 12 11 15 28 -9 26 -11 24 21 19 16 -16 -17 -18 -19 -20 -21 -22 -23 -24 -25 -26 -27 -28 -29 -30 -31
leaf_value=0.044012435268932698 -0.19350578099499333 -0.22138404351580576 0.33555607909040436 0.22221561275128493 -0.1526380533824403 0.069891946478510561 -0.028275551381076833 -0.020677946120217835 0.33217029289565814 -0.25625409544737832 -0.13861993134434022 -0.060074340400437243 0.34989708404957542 -0.12560496836681079 0.1682546974459839 0.17043183617965793 0.018071547675133623 0.039147154966830522 -0.056862972944708892 0.22291431920769225 0.16248821198931324 0.027564828873477124 0.34474189284597961 0.11279355697970526 -0.055361429096029771 -0.073491638725994721 0.58264128894596878 -0.14896897751117624 0.09267472766452603 0.11155195614441649
leaf_weight=4547 3704 2656 547 1129 2646 15570 2510 1948 221 2390 2300 3184 1099 3087 1961 1167 535 8862 4446 994 1040 1647 1141 554 2235 2250 252 2653 551 999
leaf_count=4547 3704 2656 547 1129 2646 15570 2510 1948 221 2390 2300 3184 1099 3087 1961 1167 535 8862 4446 994 1040 1647 1141 554 2235 2250 252 2653 551 999
internal_value=6.02541e-11 0.0407932 0.0877706 0.0682199 -0.124589 0.0491225 -0.100044 -0.124326 0.254399 -0.175717 -0.144836 -0.0735184 0.229433 -0.149443 0.230629 0.0819092 -0.104383 0.0164791 -0.00585881 0.289591 0.0756897 -0.0301961 0.285186 0.223467 -0.0975874 -0.116266 0.465614 -0.185197 -0.00650371 0.170264
internal_weight=78825 59382 44529 39853 19443 35632 14853 11792 4676 9716 9844 9727 4221 7326 4203 17777 3622 17855 8993 2093 16610 4831 2242 1101 4535 4896 473 5309 3061 2128
internal_count=78825 59382 44529 39853 19443 35632 14853 11792 4676 9716 9844 9727 4221 7326 4203 17777 3622 17855 8993 2093 16610 4831 2242 1101 4535 4896 473 5309 3061 2128
is_linear=0
shrinkage=0.1


Tree=12
num_leaves=31
num_cat=0
split_feature=187 191 186 190 188 192 190 68 186 7 188 192 7 7 7 68 191 192 7 7 188 68 191 192 191 7 7 192 68 68
split_gain=32453.4 31749.6 12038 9107.49 3612.33 3015.85 2851.58 2608.82 1814.88 1751.06 1678.07 1619.97 1423.36 1291.81 1099.1 1046.33 910.212 1000.57 907.479 874.68 761.369 757.841 743.461 772.294 700.984 689.26 669.623 662.992 643.161 632.779
threshold=1.0000000180025095e-35 1.0000000180025095e-35 1.0000000180025095e-35 1.0000000180025095e-35 0.51949734066330044 0.65561252796858749 1.0000000180025095e-35 1.0000000180025095e-35 1.0000000180025095e-35 1.0000000180025095e-35 0.80257765854490748 0.77801612807834919 1.0000000180025095e-35 1.0000000180025095e-35 1.0000000180025095e-35 1.0000000180025095e-35 1.0000000180025095e-35 0.59951506925074449 0.078947368421052641 1.0000000180025095e-35 0.61860376626863178 1.0000000180025095e-35 1.0000000180025095e-35 0.42536661610379523 1.0000000180025095e-35 1.0000000180025095e-35 0.078947368421052641 0.63280491001412054 1.0000000180025095e-35 1.0000000180025095e-35
decision_type=2 2 2 2 2 2 2 2 2 2 2 2 2 2 2 2 2 2 2 2 2 2 2 2 2 2 2 2 2 2
left_child=1 2 3 7 9 8 10 -1 12 16 14 19 -3 24 -4 -8 17 -2 22 -5 -7 -13 23 -11 27 -17 -14 -6 -12 -15
right_child=4 5 6 11 13 20 15 -9 -10 18 28 21 26 29 -16 25 -18 -19 -20 -21 -22 -23 -24 -25 -26 -27 -28 -29 -30 -31
leaf_value=0.004971347993042506 -0.17118912130953029 -0.17263767870270499 0.18110826336980732 0.17600631421814106 -0.084888331909123205 -0.029200072995790236 0.23719362108222508 0.062902751498369366 -0.02614218517423408 -0.11463321023872336 0.18709791971044185 0.18207969047980122 -0.10863872867085385 -0.051521606562257238 0.080007845038558317 0.51445521262770932 -0.24162835350661971 -0.021335109411908831 -0.0024911535355359297 0.083616459354710446 0.11526264357418901 0.30602481663647541 -0.18626739979825088 0.016444790782853821 -0.16767578952353993 0.30820561256511392 0.0099234854709442013 0.07638477605871212 0.30713137005894831 0.036131113464210204
leaf_weight=15524 4631 4867 2315 2151 2568 3311 587 15570 1809 3275 861 1017 3644 1669 2008 358 1678 493 779 1957 410 958 1224 521 960 296 548 283 927 1626
leaf_count=15524 4631 4867 2315 2151 2568 3311 587 15570 1809 3275 861 1017 3644 1669 2008 358 1678 493 779 1957 410 958 1224 521 960 296 548 283 927 1626
internal_value=-1.30284e-10 0.0370466 0.0789936 0.0558718 -0.111134 -0.0909853 0.195914 0.0339799 -0.117589 -0.143285 0.167849 0.167775 -0.13585 -0.0541212 0.134148 0.334115 -0.177705 -0.156771 -0.102912 0.131993 -0.0132824 0.242201 -0.118495 -0.0966428 -0.0937668 0.421107 -0.0931397 -0.0688798 0.24933 -0.00826718
internal_weight=78825 59118 44529 37177 19707 14589 7352 31094 10868 12601 6111 6083 9059 7106 4323 1241 6802 5124 5799 4108 3721 1975 5020 3796 3811 654 4192 2851 1788 3295
internal_count=78825 59118 44529 37177 19707 14589 7352 31094 10868 12601 6111 6083 9059 7106 4323 1241 6802 5124 5799 4108 3721 1975 5020 3796 3811 654 4192 2851 1788 3295
is_linear=0
shrinkage=0.1


Tree=13
num_leaves=31
num_cat=0
split_feature=191 187 188 192 190 68 188 190 68 187 68 192 7 68 68 61 61 61 61 190 188 188 7 7 68 61 61 68 68 7
split_gain=26420.3 25661.7 9777.6 8234.53 3773.67 2627.21 2415.01 1756.65 1723.54 1514.32 1447.31 1390.5 1282.82 1182.08 997.093 939.223 3027.09 751.356 1872.58 721.783 705.132 684.011 682.026 615.461 612.078 596.417 1139.31 570.92 562.899 561.655
threshold=1.0000000180025095e-35 1.0000000180025095e-35 0.56011237228189337 0.60691337858852024 1.0000000180025095e-35 1.0000000180025095e-35 0.7359412184321853 1.0000000180025095e-35 1.0000000180025095e-35 1.0000000180025095e-35 1.0000000180025095e-35 0.4197469279435822 1.0000000180025095e-35 1.0000000180025095e-35 1.0000000180025095e-35 1.5000000000000002 1.0000000180025095e-35 1.5000000000000002 1.0000000180025095e-35 1.0000000180025095e-35 0.61283473995350557 0.5567345720439093 1.0000000180025095e-35 1.0000000180025095e-35 1.0000000180025095e-35 1.5000000000000002 1.0000000180025095e-35 1.0000000180025095e-35 1.0000000180025095e-35 1.0000000180025095e-35
decision_type=2 2 2 2 2 2 2 2 2 2 2 2 2 2 2 2 2 2 2 2 2 2 2 2 2 2 2 2 2 2
left_child=1 2 3 5 9 17 7 12 23 13 -6 25 27 -2 -5 16 -7 18 -1 -17 22 -15 -12 -4 -14 26 -10 -3 -8 -16
right_child=4 6 8 14 10 15 28 -9 11 -11 20 -13 24 21 29 19 -18 -19 -20 -21 -22 -23 -24 -25 -26 -27 -28 -29 -30 -31
leaf_value=0.037572521388673605 -0.16243018517657898 -0.18338077894952917 0.19241937932885622 0.14370959900432684 -0.095463390081891308 0.1027975855279798 -0.043368800526643304 -0.014398215729581654 0.28287693061134367 -0.21437682281110912 -0.071345921584216154 0.44473641342509196 -0.1148422361098269 -0.097269760762615995 0.29770080117328512 0.08201806488992526 -0.012967684416376822 0.033481634427210132 -0.053398902743527966 0.19056396374191942 0.072976054300304696 0.042299900838813027 0.010483552847532423 0.089572208771890996 -0.041887545564476845 0.28466477856838773 0.073544148278052279 -0.11817428148949326 0.044643131313412548 0.18863415552117657
leaf_weight=4576 3704 2691 1234 1935 4896 4471 1440 1974 522 2390 2250 362 2334 3228 992 8210 4565 8922 4476 662 720 394 1861 1101 2267 1082 518 2680 1467 901
leaf_count=4576 3704 2691 1234 1935 4896 4471 1440 1974 522 2390 2250 362 2334 3228 992 8210 4565 8922 4476 662 720 394 1861 1101 2267 1082 518 2680 1467 901
internal_value=1.18317e-10 0.0331277 0.0710942 0.0547703 -0.101177 0.0398967 -0.0806953 -0.100587 0.205608 -0.145258 -0.0571465 0.263591 -0.117648 -0.122708 0.194189 0.0670054 0.0443128 0.0128876 -0.0074107 0.0901174 -0.0183142 -0.0820874 -0.0343027 0.143925 -0.0788961 0.232688 0.178613 -0.150844 0.00104589 0.245789
internal_weight=78825 59382 44529 39710 19443 35882 14853 11946 4819 9716 9727 2484 9972 7326 3828 17908 9036 17974 9052 8872 4831 3622 4111 2335 4601 2122 1040 5371 2907 1893
internal_count=78825 59382 44529 39710 19443 35882 14853 11946 4819 9716 9727 2484 9972 7326 3828 17908 9036 17974 9052 8872 4831 3622 4111 2335 4601 2122 1040 5371 2907 1893
is_linear=0
shrinkage=0.1


Tree=14
num_leaves=31
num_cat=0
split_feature=187 191 186 190 186 192 192 68 7 7 7 7 68 68 188 192 188 191 191 192 68 7 188 68 61 61 188 192 7 61
split_gain=21617 20552.6 8279.33 6177.02 2786.6 2229.81 2052.4 1724.67 1528.05 1467.57 1297.53 1154.11 1124.75 946.815 796.428 714.078 700.974 662.702 627.494 779.077 595.761 569.417 560.785 560.56 557.113 1122.56 545.572 544.285 519.753 509.564
threshold=1.0000000180025095e-35 1.0000000180025095e-35 1.0000000180025095e-35 1.0000000180025095e-35 1.0000000180025095e-35 0.66965570019074994 0.66088093351990473 1.0000000180025095e-35 1.0000000180025095e-35 1.0000000180025095e-35 1.0000000180025095e-35 1.0000000180025095e-35 1.0000000180025095e-35 1.0000000180025095e-35 0.5567345720439093 0.85191174849317719 0.74844153550490389 1.0000000180025095e-35 1.0000000180025095e-35 0.60970500378821735 1.0000000180025095e-35 0.078947368421052641 0.33559622956634233 1.0000000180025095e-35 1.5000000000000002 1.0000000180025095e-35 0.84353257923338587 0.63280491001412054 1.0000000180025095e-35 1.5000000000000002
decision_type=2 2 2 2 2 2 2 2 2 2 2 2 2 2 2 2 2 2 2 2 2 2 2 2 2 2 2 2 2 2
left_child=1 2 3 7 12 9 8 -1 13 16 17 15 -2 -4 21 -5 20 27 19 -14 -3 -11 -7 -12 25 -10 -15 -6 -8 -13
right_child=4 5 6 11 10 22 28 -9 24 14 23 29 18 26 -16 -17 -18 -19 -20 -21 -22 -23 -24 -25 -26 -27 -28 -29 -30 -31
leaf_value=0.0031942894966892291 -0.16182629457866818 -0.17038119126517154 0.13829161261064069 0.15303673704188736 -0.07846681999355927 -0.022950211300550583 0.42217077586541002 0.050296948071696018 0.13788851958838985 -0.083344654368882803 -0.048798726898659134 0.047354644863723136 -0.087846721970723185 0.2107632884511845 0.056831161289122259 0.26680658954055847 0.0037934788261206557 -0.14748180087316118 -0.15702965102303518 0.074891506519814494 -0.10496612949718734 0.02132865261311374 0.079000936183645815 0.021102110437045771 0.13673707830004028 -0.030282709957245069 0.34129943737330348 0.046792078286064985 0.2348307122601502 0.13190169058312751
leaf_weight=15524 4984 2781 1796 2524 3591 2897 331 15570 783 3926 2329 1393 3296 1390 561 706 374 1349 1190 323 2788 599 663 2261 1563 805 416 384 268 1460
leaf_count=15524 4984 2781 1796 2524 3591 2897 331 15570 783 3926 2329 1393 3296 1390 561 706 374 1349 1190 323 2788 599 663 2261 1563 805 416 384 268 1460
internal_value=2.30739e-10 0.0302355 0.0639848 0.0448095 -0.0907018 -0.0727753 0.160949 0.0267805 0.145213 -0.0949868 -0.0533286 0.136967 -0.128537 0.189704 -0.055555 0.177904 -0.128732 -0.0869194 -0.0940358 -0.0733221 -0.137633 -0.0694885 -0.00396324 -0.0143661 0.0943539 0.052638 0.240831 -0.0663663 0.338353 0.0906209
internal_weight=78825 59118 44529 37177 19707 14589 7352 31094 6753 11029 9914 6083 9793 3602 5086 3230 5943 5324 4809 3619 5569 4525 3560 4590 3151 1588 1806 3975 599 2853
internal_count=78825 59118 44529 37177 19707 14589 7352 31094 6753 11029 9914 6083 9793 3602 5086 3230 5943 5324 4809 3619 5569 4525 3560 4590 3151 1588 1806 3975 599 2853
is_linear=0
shrinkage=0.1


Tree=15
num_leaves=31
num_cat=0
split_feature=191 187 188 192 190 68 192 186 190 7 68 68 61 61 61 61 7 187 7 61 61 68 186 68 7 7 7 68 190 61
split_gain=17576.6 16632.7 6859.18 5783.95 2809.14 1902.73 1795.42 1545.04 1181.18 1174.87 1115.34 847.965 805.368 2573.72 781.02 1275.69 717.882 645.457 636.446 631.768 1619.56 614.475 588.961 538.695 520.309 516.031 465.571 437.03 426.506 425.884
threshold=1.0000000180025095e-35 1.0000000180025095e-35 0.64691443299706142 0.60970500378821735 1.0000000180025095e-35 1.0000000180025095e-35 0.57638277349737488 1.0000000180025095e-35 1.0000000180025095e-35 1.0000000180025095e-35 1.0000000180025095e-35 1.0000000180025095e-35 1.5000000000000002 1.0000000180025095e-35 1.5000000000000002 1.0000000180025095e-35 0.078947368421052641 1.0000000180025095e-35 1.0000000180025095e-35 1.5000000000000002 1.0000000180025095e-35 1.0000000180025095e-35 1.0000000180025095e-35 1.0000000180025095e-35 1.0000000180025095e-35 1.0000000180025095e-35 1.0000000180025095e-35 1.0000000180025095e-35 1.0000000180025095e-35 1.5000000000000002
decision_type=2 2 2 2 2 2 2 2 2 2 2 2 2 2 2 2 2 2 2 2 2 2 2 2 2 2 2 2 2 2
left_child=1 2 3 5 9 19 7 16 14 17 26 29 13 -7 15 -4 23 -2 -9 20 -1 -11 28 -3 -12 -10 -6 -8 -14 -5
right_child=4 6 8 11 10 12 27 18 25 21 24 -13 22 -15 -16 -17 -18 -19 -20 -21 -22 -23 -24 -25 -26 -27 -28 -29 -30 -31
leaf_value=0.033356925844164692 -0.13267940527863339 -0.14773802891149557 0.20168255389257139 0.068164170608248517 -0.10660757836744961 0.088454824687189904 -0.015369099696347685 -0.07154270704628167 0.39164968613950746 -0.1192516544372535 -0.040106514485067107 0.2087716170381842 0.062969218084886078 -0.017103775331624112 0.2088157353162374 0.024312073567993 0.021176765951299178 -0.21420786290135468 -0.0093367560990090595 0.029134829324548129 -0.050200822569300634 -0.045247119214925385 0.16071733595361273 -0.089002920272749433 0.025865545976338018 0.21236009571230988 -0.044730854609555615 0.088947345892380111 0.14956953299477552 0.16128128038986059
leaf_weight=4697 3937 3192 791 970 2646 4577 829 3523 344 2293 2659 1919 7709 4663 1626 832 388 1289 3085 9137 4583 2197 771 3057 2172 301 2250 779 614 995
leaf_count=4697 3937 3192 791 970 2646 4577 829 3523 344 2293 2659 1919 7709 4663 1626 832 388 1289 3085 9137 4583 2197 771 3057 2172 301 2250 779 614 995
internal_value=-3.85136e-10 0.0270202 0.0575863 0.0454367 -0.0825241 0.0331717 -0.0646162 -0.0767304 0.184371 -0.120556 -0.0445349 0.16149 0.0559769 0.0351843 0.159832 0.110757 -0.11081 -0.152789 -0.0425013 0.0104692 -0.00790872 -0.0830405 0.0771034 -0.119005 -0.0104457 0.307981 -0.0781716 0.0351673 0.0693579 0.115315
internal_weight=78825 59382 44529 40635 19443 36751 14853 13245 3894 9716 9727 3884 18334 9240 3249 1623 6637 5226 6608 18417 9280 4490 9094 6249 4831 645 4896 1608 8323 1965
internal_count=78825 59382 44529 40635 19443 36751 14853 13245 3894 9716 9727 3884 18334 9240 3249 1623 6637 5226 6608 18417 9280 4490 9094 6249 4831 645 4896 1608 8323 1965
is_linear=0
shrinkage=0.1


Tree=16
num_leaves=31
num_cat=0
split_feature=187 191 186 190 188 186 7 7 192 192 68 7 7 188 7 68 61 61 7 191 68 68 190 68 7 68 61 61 68 191
split_gain=14521 13199.9 5669.82 4180.55 2180.81 1730.81 1544.86 1357.41 1312.18 1216.11 1153.57 939.073 920.104 793.375 727.196 694.217 604.359 1520.94 602.765 594.64 578.372 528.081 500.644 486.778 482.706 428.729 406.283 1425.61 398.304 389.81
threshold=1.0000000180025095e-35 1.0000000180025095e-35 1.0000000180025095e-35 1.0000000180025095e-35 0.74106460157685838 1.0000000180025095e-35 1.0000000180025095e-35 1.0000000180025095e-35 0.75195092881374792 0.77268398978631858 1.0000000180025095e-35 1.0000000180025095e-35 1.0000000180025095e-35 0.87531221474390886 0.078947368421052641 1.0000000180025095e-35 1.5000000000000002 1.0000000180025095e-35 0.078947368421052641 1.0000000180025095e-35 1.0000000180025095e-35 1.0000000180025095e-35 1.0000000180025095e-35 1.0000000180025095e-35 0.078947368421052641 1.0000000180025095e-35 1.5000000000000002 1.0000000180025095e-35 1.0000000180025095e-35 1.0000000180025095e-35
decision_type=2 2 2 2 2 2 2 2 2 2 2 2 2 2 2 2 2 2 2 2 2 2 2 2 2 2 2 2 2 2
left_child=1 2 3 10 7 8 9 15 12 13 -1 16 28 20 19 29 17 -5 23 22 -4 -6 -9 -8 -14 -7 27 -12 -3 -2
right_child=4 5 6 11 21 25 18 14 -10 -11 26 -13 24 -15 -16 -17 -18 -19 -20 -21 -22 -23 -24 -25 -26 -27 -28 -29 -30 -31
leaf_value=0.0018376660217209228 -0.12939577286410273 -0.14472981953620911 0.09744536712198959 0.20048253031604779 -0.044085800547706257 -0.023397314024166501 0.058773619303858854 -0.068461258682504897 -0.0032483670479403941 0.40953188489712594 0.067139028198969442 0.069968858151359989 -0.068862238387490629 0.26276586513467298 0.021136369963067558 -0.089407607188439819 0.19287825289743751 0.0083669741780480287 -0.024808830145319011 -0.12535757295193059 0.18408604832502712 0.030369219264090877 0.018274921486574346 0.13976960804340408 0.026606639893496875 0.059228338731029784 0.056672297308518894 -0.018032780476858069 -0.089953768453875885 -0.20045129223570554
leaf_weight=15524 3236 2650 1548 841 1882 1261 1484 4007 2180 209 3913 2853 3976 642 980 4315 1581 808 451 1546 1534 1929 798 1484 611 1251 7709 3948 2660 1014
leaf_count=15524 3236 2650 1548 841 1882 1261 1484 4007 2180 209 3913 2853 3976 642 980 4315 1581 808 451 1546 1534 1929 798 1484 611 1251 7709 3948 2660 1014
internal_value=3.57432e-11 0.0247808 0.0518277 0.0359594 -0.0743387 -0.0577724 0.132069 -0.090627 -0.0734812 0.174808 0.0211274 0.111775 -0.0889513 0.161635 -0.0590411 -0.117662 0.148702 0.106347 0.0829042 -0.071413 0.140569 -0.00639917 -0.0540564 0.0992716 -0.0561455 0.0177511 0.0403602 0.0243635 -0.11729 -0.146349
internal_weight=78825 59118 44529 37177 19707 14589 7352 15896 12077 3933 31094 6083 9897 3724 7331 8565 3230 1649 3419 6351 3082 3811 4805 2968 4587 2512 15570 7861 5310 4250
internal_count=78825 59118 44529 37177 19707 14589 7352 15896 12077 3933 31094 6083 9897 3724 7331 8565 3230 1649 3419 6351 3082 3811 4805 2968 4587 2512 15570 7861 5310 4250
is_linear=0
shrinkage=0.1


Tree=17
num_leaves=31
num_cat=0
split_feature=187 191 188 192 188 188 68 192 191 192 190 68 61 61 68 190 61 61 68 61 61 7 61 61 7 68 186 7 7 192
split_gain=11762 10691.9 4749.23 4053.73 1790.27 1474.33 1256.78 1230.21 1064.67 951.34 901.638 829.327 737.198 2109.09 703.311 663.912 593.249 965.87 567.375 540.509 1733.35 512.026 497.755 1285.62 430.216 420.539 396.418 363.877 344.155 310.143
threshold=1.0000000180025095e-35 1.0000000180025095e-35 0.66517339395228214 0.58405711987069087 0.63939537694260007 0.6730603931831749 1.0000000180025095e-35 0.73129768602044976 1.0000000180025095e-35 0.68872712065713071 1.0000000180025095e-35 1.0000000180025095e-35 1.5000000000000002 1.0000000180025095e-35 1.0000000180025095e-35 1.0000000180025095e-35 1.5000000000000002 1.0000000180025095e-35 1.0000000180025095e-35 1.5000000000000002 1.0000000180025095e-35 1.0000000180025095e-35 1.5000000000000002 1.0000000180025095e-35 1.0000000180025095e-35 1.0000000180025095e-35 1.0000000180025095e-35 1.0000000180025095e-35 1.0000000180025095e-35 0.70148212890903106
decision_type=2 2 2 2 2 2 2 2 2 2 2 2 2 2 2 2 2 2 2 2 2 2 2 2 2 2 2 2 2 2
left_child=1 2 3 6 8 7 22 11 9 14 16 28 13 -5 -2 -10 17 -4 -6 20 -8 -13 23 -1 -16 -14 -21 -12 -3 -20
right_child=4 5 10 12 18 -7 19 -9 15 -11 27 21 25 -15 24 -17 -18 -19 29 26 -22 -23 -24 -25 -26 -27 -28 -29 -30 -31
leaf_value=0.028235827715181783 -0.104454172201998 -0.12795190079442403 0.1702952255939556 0.1870215061489838 -0.049827898191010009 0.052124803774910203 0.071448380917052079 -0.00040229272082227134 -0.17818650572662248 0.033684945319059793 0.33917237131649425 -0.076869593300900596 0.12751211443145333 -0.015273562277467368 -0.078479433899418888 -0.091424358068066203 0.17737378755105065 0.011722066340326317 0.0035230171115865879 0.055569023102263006 -0.015319543939848286 -0.014427595405755009 0.024337699668563358 -0.046230044538918692 -0.019592095674801871 0.21647211605654532 0.12912308590565413 0.18396732003424754 -0.077433423628530271 0.11263754080052078
leaf_weight=4690 5053 2876 754 1047 2656 1244 4566 2629 1688 823 324 2903 1078 1015 2713 1847 1537 783 2348 8265 4644 2398 9106 4585 2286 1048 804 283 2539 293
leaf_count=4690 5053 2876 754 1047 2656 1244 4566 2629 1688 823 324 2903 1078 1015 2713 1847 1537 783 2348 8265 4644 2398 9106 4585 2286 1048 804 283 2539 293
internal_value=5.94656e-11 0.0223028 0.0466449 0.0368413 -0.0669049 -0.0519952 0.0261937 -0.0617011 -0.0851788 -0.0696815 0.155436 -0.0767397 0.130045 0.0874437 -0.0781446 -0.132854 0.133443 0.0895127 -0.0171924 0.0447608 0.027697 -0.0486229 0.00772974 -0.0085756 -0.0515508 0.171364 0.0620899 0.266812 -0.104265 0.0156285
internal_weight=78825 59118 44529 40848 19707 14589 36660 13345 14410 10875 3681 10716 4188 2062 10052 3535 3074 1537 5297 18279 9210 5301 18381 9275 4999 2126 9069 607 5415 2641
internal_count=78825 59118 44529 40848 19707 14589 36660 13345 14410 10875 3681 10716 4188 2062 10052 3535 3074 1537 5297 18279 9210 5301 18381 9275 4999 2126 9069 607 5415 2641
is_linear=0
shrinkage=0.1


Tree=18
num_leaves=31
num_cat=0
split_feature=191 187 190 188 190 190 188 186 192 7 68 187 68 7 68 188 61 61 68 7 68 192 68 61 61 61 61 61 61 61
split_gain=9601.2 8624.38 3979.9 2813.38 1914.68 1261.72 1240.89 977.113 926.553 857.65 834.974 767.608 711.808 619.06 557.823 530.164 492.141 1018.58 451.27 441.802 434.141 414.978 385.673 341.103 1129.57 337.019 832.95 330.891 758.904 330.185
threshold=1.0000000180025095e-35 1.0000000180025095e-35 1.0000000180025095e-35 0.62697216191124217 1.0000000180025095e-35 1.0000000180025095e-35 0.7124507466573563 1.0000000180025095e-35 0.82188567154607906 0.078947368421052641 1.0000000180025095e-35 1.0000000180025095e-35 1.0000000180025095e-35 1.0000000180025095e-35 1.0000000180025095e-35 0.75116375098595356 1.5000000000000002 1.0000000180025095e-35 1.0000000180025095e-35 0.078947368421052641 1.0000000180025095e-35 0.7828644298417714 1.0000000180025095e-35 1.5000000000000002 1.0000000180025095e-35 1.5000000000000002 1.0000000180025095e-35 1.5000000000000002 1.0000000180025095e-35 1.5000000000000002
decision_type=2 2 2 2 2 2 2 2 2 2 2 2 2 2 2 2 2 2 2 2 2 2 2 2 2 2 2 2 2 2
left_child=1 2 3 10 9 7 8 19 13 11 25 15 29 27 -5 18 17 -9 -2 -3 -7 -14 -10 24 -12 26 -1 28 -4 -6
right_child=4 5 6 14 12 20 -8 16 22 -11 23 -13 21 -15 -16 -17 -18 -19 -20 -21 -22 -23 -24 -25 -26 -27 -28 -29 -30 -31
leaf_value=0.021294481006429444 -0.11665138763272608 -0.093852359265912483 0.14764832997200442 0.07321181342315243 -0.083059967834783852 -0.021725041949632307 0.25965960145856887 -0.0021063077507991047 0.1152992653060963 0.023211327199286556 0.058209157532124245 -0.15089607738339253 -0.0224930293169705 0.038983624157368189 0.15362539134061007 0.024712059675654235 -0.0030518220022330276 -0.11782076620305122 -0.063747971194183517 0.020001393240665535 0.061669495924117114 0.040346489431883563 0.20884556473635066 0.050030928565818415 -0.014789875768369702 0.018449182287559519 -0.041233836570864602 0.14431899520443447 -0.0027304812178105724 -0.031108488101407823
leaf_weight=4287 3274 5827 686 1673 2393 1285 511 1532 913 602 4222 2238 3286 2365 1781 425 3122 1511 3177 362 1214 1545 852 8353 4257 8397 4235 1340 657 2503
leaf_count=4287 3274 5827 686 1673 2393 1285 511 1532 913 602 4222 2238 3286 2365 1781 425 3122 1511 3177 362 1214 1545 852 8353 4257 8397 4235 1340 657 2503
internal_value=6.09602e-11 0.0199703 0.0419804 0.028716 -0.0609925 -0.0460155 0.109362 -0.0591241 0.0980891 -0.0923913 0.0199191 -0.100027 -0.0296293 0.076283 0.114676 -0.0834702 -0.030946 -0.0595643 -0.0905974 -0.087193 0.0187876 -0.00239635 0.160456 0.0356884 0.021559 0.00423086 -0.00977891 0.109161 0.0740825 -0.0565006
internal_weight=78825 59382 44529 37205 19443 14853 7324 12354 6813 9716 33751 9114 9727 5048 3454 6876 6165 3043 6451 6189 2499 4831 1765 16832 8479 16919 8522 2683 1343 4896
internal_count=78825 59382 44529 37205 19443 14853 7324 12354 6813 9716 33751 9114 9727 5048 3454 6876 6165 3043 6451 6189 2499 4831 1765 16832 8479 16919 8522 2683 1343 4896
is_linear=0
shrinkage=0.1


Tree=19
num_leaves=31
num_cat=0
split_feature=187 191 186 192 188 7 186 7 190 192 68 61 61 7 7 68 61 61 7 61 61 7 192 68 188 190 192 68 188 192
split_gain=7857.25 6899.19 3368.28 2386 1448.03 1200.25 1149.36 1065.62 794.208 787.108 777.596 559.523 1075.94 523.943 514.452 510.312 488.985 1275.75 481.438 426.969 823.346 415.225 339.795 335.294 332.847 331.161 301.352 299.047 273.575 260.262
threshold=1.0000000180025095e-35 1.0000000180025095e-35 1.0000000180025095e-35 0.6380135488381028 0.78222232333069008 1.0000000180025095e-35 1.0000000180025095e-35 1.0000000180025095e-35 1.0000000180025095e-35 0.77268398978631858 1.0000000180025095e-35 1.5000000000000002 1.0000000180025095e-35 0.078947368421052641 1.0000000180025095e-35 1.0000000180025095e-35 1.5000000000000002 1.0000000180025095e-35 0.078947368421052641 1.5000000000000002 1.0000000180025095e-35 0.078947368421052641 0.34239207382040127 1.0000000180025095e-35 0.8862862228968188 1.0000000180025095e-35 0.50984581375360483 1.0000000180025095e-35 0.8705869054350649 0.7650486767823349
decision_type=2 2 2 2 2 2 2 2 2 2 2 2 2 2 2 2 2 2 2 2 2 2 2 2 2 2 2 2 2 2
left_child=1 2 3 10 7 9 8 15 21 11 -1 12 -4 19 -10 -2 17 -5 22 20 -9 23 28 -3 -13 -12 -8 -6 -7 -17
right_child=4 6 5 16 27 18 26 13 14 -11 25 24 -14 -15 -16 29 -18 -19 -20 -21 -22 -23 -24 -25 -26 -27 -28 -29 -30 -31
leaf_value=0.0024972340984652079 -0.11433502571807191 -0.11006367654018823 0.16352803924073334 0.15480845312835004 -0.023918776652043158 0.039201413155668607 -0.0073576871222881743 -0.025439839529616422 -0.05539385921894481 0.32613829403367056 0.028600688901518734 0.14641869505533703 0.010086928850589226 0.027343466323516447 0.0036280386679741999 -0.073855209226546301 0.14533809160723379 -0.021945533857096022 -0.03997065054433175 -0.024378455331824991 -0.1261093413650119 0.022458026217420896 0.14682595301154486 -0.061799635905211175 0.26045857468589406 0.079359361702494191 0.063796760013624471 0.037165026429862184 0.12225149122797679 0.011534489418559796
leaf_weight=16922 4402 2904 919 833 1593 1980 1543 1640 3206 209 15570 1591 909 1025 2738 4098 1650 801 451 3335 1610 375 492 2854 305 1401 969 1613 496 391
leaf_count=16922 4402 2904 919 833 1593 1980 1543 1640 3206 209 15570 1591 909 1025 2738 4098 1650 801 451 3335 1610 375 492 2854 305 1401 969 1613 496 391
internal_value=-3.30337e-11 0.0182286 0.0377824 0.0255518 -0.0546831 0.0996291 -0.041454 -0.0666314 -0.0542551 0.137301 0.017666 0.126703 0.0872272 -0.0391633 -0.0282065 -0.0901419 0.106938 0.0681622 0.0562934 -0.0495155 -0.07531 -0.0795009 0.0709211 -0.0861412 0.164764 0.0327909 0.02009 0.00681365 0.0558383 -0.0664176
internal_weight=78825 59118 44529 37177 19707 7352 14589 16501 12077 3933 33893 3724 1828 7610 5944 8891 3284 1634 3419 6585 3250 6133 2968 5758 1896 16971 2512 3206 2476 4489
internal_count=78825 59118 44529 37177 19707 7352 14589 16501 12077 3933 33893 3724 1828 7610 5944 8891 3284 1634 3419 6585 3250 6133 2968 5758 1896 16971 2512 3206 2476 4489
is_linear=0
shrinkage=0.1


Tree=20
num_leaves=31
num_cat=0
split_feature=191 187 188 192 192 190 187 68 186 61 61 68 7 68 190 192 188 61 61 61 61 7 186 68 68 7 186 7 7 61
split_gain=6575.68 5437.85 2741.42 2331.6 1419.76 1002.04 947.307 860.444 714.126 690.23 1395.79 579.017 499.114 461.142 457.944 449.826 417.534 395.017 965.662 379.714 782.061 366.779 354.04 316.854 306.43 299.127 292.187 246.306 232.16 222.604
threshold=1.0000000180025095e-35 1.0000000180025095e-35 0.72489264736809667 0.70395340881296076 0.70148212890903106 1.0000000180025095e-35 1.0000000180025095e-35 1.0000000180025095e-35 1.0000000180025095e-35 1.5000000000000002 1.0000000180025095e-35 1.0000000180025095e-35 0.078947368421052641 1.0000000180025095e-35 1.0000000180025095e-35 0.50984581375360483 0.7877256646466374 1.5000000000000002 1.0000000180025095e-35 1.5000000000000002 1.0000000180025095e-35 1.0000000180025095e-35 1.0000000180025095e-35 1.0000000180025095e-35 1.0000000180025095e-35 1.0000000180025095e-35 1.0000000180025095e-35 1.0000000180025095e-35 1.0000000180025095e-35 1.5000000000000002
decision_type=2 2 2 2 2 2 2 2 2 2 2 2 2 2 2 2 2 2 2 2 2 2 2 2 2 2 2 2 2 2
left_child=1 2 3 7 6 8 9 17 25 10 -2 -4 13 -5 22 -13 21 18 -1 20 -10 -11 -9 -7 -6 -3 -8 -24 -16 -15
right_child=4 5 11 12 24 23 26 14 19 16 -12 15 -14 29 28 -17 -18 -19 -20 -21 -22 -23 27 -25 -26 -27 -28 -29 -30 -31
leaf_value=0.022808220408824589 -0.026311034092185756 -0.091792420909881031 0.080935488979748921 0.082400780348780317 -0.026545344450448816 -0.012728872891795888 -0.13714356066569622 0.02574062110218546 0.0017471973587570083 -0.056512268526565261 -0.1252455248582578 0.14920610369324147 -0.058364921236747774 0.12365356499939978 0.11490830161660291 0.31540620604983055 0.085459106600493398 0.020226634784083125 -0.040279881794125449 0.0010398977240042649 -0.099646186671934145 -0.0039251225198213661 0.10832050656803005 0.058515743394973008 0.026616844853261053 -0.047673840924415373 -0.081215954284246716 0.033322646083889788 0.045617625848681835 0.2035820446215397
leaf_weight=4905 2889 3349 1438 1439 2175 1285 1832 15570 1532 2903 2816 1360 162 706 1012 185 318 9579 4801 3122 1511 2442 932 1214 2162 2840 1906 826 926 688
leaf_count=4905 2889 3349 1438 1439 2175 1285 1832 15570 1532 2903 2816 1360 162 706 1012 185 318 9579 4801 3122 1511 2442 932 1214 2162 2840 1906 826 926 688
internal_value=1.00359e-10 0.016527 0.0340041 0.0273556 -0.0504759 -0.0358693 -0.0649552 0.0207525 -0.0475513 -0.0505954 -0.0751453 0.126603 0.112348 0.12211 0.0356997 0.169107 -0.0258634 0.00582015 -0.00839784 -0.0234618 -0.0485996 -0.0324865 0.0305437 0.0218814 -4.39257e-05 -0.0715473 -0.108626 0.0730826 0.0818004 0.163102
internal_weight=78825 59382 44529 41546 19443 14853 15106 38551 12354 11368 5705 2983 2995 2833 19266 1545 5663 19285 9706 6165 3043 5345 17328 2499 4337 6189 3738 1758 1938 1394
internal_count=78825 59382 44529 41546 19443 14853 15106 38551 12354 11368 5705 2983 2995 2833 19266 1545 5663 19285 9706 6165 3043 5345 17328 2499 4337 6189 3738 1758 1938 1394
is_linear=0
shrinkage=0.1


Tree=21
num_leaves=31
num_cat=0
split_feature=191 187 186 192 192 7 192 188 68 61 61 192 68 61 61 61 61 7 7 187 68 7 61 61 187 188 61 61 7 61
split_gain=5326.3 4404.66 2313.16 1570.07 1206.62 915.89 885.346 743.608 691.342 603.438 1154.77 588.284 555.44 499.847 1114.42 437.224 852.73 416.455 383.565 371.796 343.484 320.697 308.183 1000.9 293.622 321.042 277.768 808.457 277.085 275.024
threshold=1.0000000180025095e-35 1.0000000180025095e-35 1.0000000180025095e-35 0.70395340881296076 0.47909658239802894 1.0000000180025095e-35 0.73666773116957296 0.79751470336215502 1.0000000180025095e-35 1.5000000000000002 1.0000000180025095e-35 0.77268398978631858 1.0000000180025095e-35 1.5000000000000002 1.0000000180025095e-35 1.5000000000000002 1.0000000180025095e-35 0.078947368421052641 0.078947368421052641 1.0000000180025095e-35 1.0000000180025095e-35 0.078947368421052641 1.5000000000000002 1.0000000180025095e-35 1.0000000180025095e-35 0.74106460157685838 1.5000000000000002 1.0000000180025095e-35 1.0000000180025095e-35 1.5000000000000002
decision_type=2 2 2 2 2 2 2 2 2 2 2 2 2 2 2 2 2 2 2 2 2 2 2 2 2 2 2 2 2 2
left_child=1 2 3 12 8 11 7 9 19 10 -3 15 -1 14 -6 16 -4 24 29 -2 -11 26 23 -14 25 -10 27 -5 -15 -7
right_child=4 6 5 21 13 18 -8 -9 17 20 -12 -13 22 28 -16 -17 -18 -19 -20 -21 -22 -23 -24 -25 -26 -27 -28 -29 -30 -31
leaf_value=0.0020323993511432207 -0.075447040993828318 -0.026776152226708649 0.13863318173297892 0.14645114558637592 0.013445305175654822 0.026513744961172675 0.059029111115136923 0.016738061723844934 -0.041868629022902608 -0.049852504018397768 -0.11551369594032762 0.2780184320499452 0.048342225538190134 -0.013928616772170749 -0.095560476975735137 0.13924717423093469 0.0020321060131758681 0.062407666666095485 -0.041923231667758458 -0.13400880580655891 -0.0017691207912579575 -0.047819784534474219 0.040885520171695187 -0.01942309293474577 -0.087091261698416744 0.070757138850150211 0.13608009210376268 -0.013050935630884603 0.039709405315771204 0.087395361696837176
leaf_weight=17219 4492 2928 919 661 1897 1479 991 2053 3831 2996 2938 209 4323 2093 1855 1896 909 364 451 1429 2947 150 8562 4396 1427 271 1254 612 1784 1489
leaf_count=17219 4492 2928 919 661 1897 1479 991 2053 3831 2996 2938 209 4323 2093 1855 1896 909 364 451 1429 2947 150 8562 4396 1427 271 1254 612 1784 1489
internal_value=1.02809e-10 0.0148743 0.0306037 0.0204682 -0.0454283 0.0818563 -0.0322824 -0.0388103 -0.0654472 -0.0484674 -0.0712206 0.114765 0.0147437 -0.0144278 -0.0404475 0.105603 0.0707063 -0.0411991 0.0440006 -0.0895806 -0.026009 0.094243 0.0274094 0.0141759 -0.04802 -0.034428 0.102676 0.0697699 0.0107529 0.0570571
internal_weight=78825 59382 44529 37177 19443 7352 14853 13862 11814 11809 5866 3933 34500 7629 3752 3724 1828 5893 3419 5921 5943 2677 17281 8719 5529 4102 2527 1273 3877 2968
internal_count=78825 59382 44529 37177 19443 7352 14853 13862 11814 11809 5866 3933 34500 7629 3752 3724 1828 5893 3419 5921 5943 2677 17281 8719 5529 4102 2527 1273 3877 2968
is_linear=0
shrinkage=0.1


Tree=22
num_leaves=31
num_cat=0
split_feature=191 187 190 188 192 7 7 68 188 190 68 61 61 7 192 187 7 7 68 188 186 61 61 61 61 61 61 61 61 188
split_gain=4314.31 3567.77 1994.16 1362.46 1043.28 907.099 842.001 750.709 619.935 498.912 467.206 461.55 1335.15 432.855 402.258 366.381 328.052 319.597 292.656 285.657 284.853 281.673 677.22 261.365 490.278 245.002 510.108 241.744 716.233 216.571
threshold=1.0000000180025095e-35 1.0000000180025095e-35 1.0000000180025095e-35 0.72211622743435921 0.81144933199593472 1.0000000180025095e-35 1.0000000180025095e-35 1.0000000180025095e-35 0.82138037615400539 1.0000000180025095e-35 1.0000000180025095e-35 1.5000000000000002 1.0000000180025095e-35 0.078947368421052641 0.8951575039762244 1.0000000180025095e-35 1.0000000180025095e-35 1.0000000180025095e-35 1.0000000180025095e-35 0.79751470336215502 1.0000000180025095e-35 1.5000000000000002 1.0000000180025095e-35 1.5000000000000002 1.0000000180025095e-35 1.5000000000000002 1.0000000180025095e-35 1.5000000000000002 1.0000000180025095e-35 0.49640299818132733
decision_type=2 2 2 2 2 2 2 2 2 2 2 2 2 2 2 2 2 2 2 2 2 2 2 2 2 2 2 2 2 2
left_child=1 2 3 11 5 15 8 17 14 16 -7 12 -1 27 21 19 -9 -3 -5 23 -13 22 -4 24 -2 26 -12 28 -8 -19
right_child=4 7 6 18 -6 10 13 9 -10 -11 25 20 -14 -15 -16 -17 -18 29 -20 -21 -22 -23 -24 -25 -26 -27 -28 -29 -30 -31
leaf_value=0.029148272162782297 -0.046686251489730171 -0.07072571751613585 0.11898781823065992 0.054159741154223832 0.016173856617183634 -0.049345825650665212 0.091440588024688921 -0.039185968496596564 0.3049577096636456 0.052183949317626044 0.027437583671180522 0.020239603014033766 -0.026127846428088731 -0.055682523956579591 0.17821189875201998 -0.10667682129898177 0.00713732114716931 -0.04877338266986353 0.12222894017937014 0.030730194415639536 0.062447542136766315 0.11537956264607543 -0.010413702662288466 -0.044747991375471551 -0.12508465270595173 0.025603209837042923 -0.076047328957567537 0.080004024160904935 -0.048835267668014604 0.0025196493964663516
leaf_weight=8750 1628 3986 832 1233 2751 3898 748 3336 152 1214 935 15414 8729 423 547 2259 2822 2168 1295 329 1784 1586 787 3229 1564 1879 971 1540 709 1327
leaf_count=8750 1628 3986 832 1233 2751 3898 748 3336 152 1214 935 15414 8729 423 547 2259 2822 2168 1295 329 1784 1586 787 3229 1564 1879 971 1540 709 1327
internal_value=-6.89325e-11 0.0133868 0.0275434 0.0181541 -0.0408855 -0.0502894 0.0752397 -0.0290542 0.106975 -0.00640688 -0.0250461 0.0129872 0.00154342 0.0390134 0.0989542 -0.0718172 -0.0179576 -0.0513715 0.089029 -0.0601509 0.024618 0.0854272 0.0560854 -0.0648075 -0.0850995 -2.09734e-05 -0.0252822 0.0523789 0.0231801 -0.0292982
internal_weight=78825 59382 44529 37205 19443 16692 7324 14853 3904 7372 7683 34677 17479 3420 3752 9009 6158 7481 2528 6750 17198 3205 1619 6421 3192 3785 1906 2997 1457 3495
internal_count=78825 59382 44529 37205 19443 16692 7324 14853 3904 7372 7683 34677 17479 3420 3752 9009 6158 7481 2528 6750 17198 3205 1619 6421 3192 3785 1906 2997 1457 3495
is_linear=0
shrinkage=0.1


Tree=23
num_leaves=31
num_cat=0
split_feature=187 191 188 190 186 186 7 61 61 7 191 68 68 190 192 192 7 7 68 7 61 61 61 61 68 68 61 61 68 7
split_gain=3540.35 2843.35 1629.13 1316.49 944.592 824.63 559.097 509.624 1060.18 484.079 453.212 431.343 426.775 359.036 334.119 327.67 308.318 296.666 285.364 282.995 242.223 484.791 242.139 520.683 221.152 215.276 192.521 648.037 189.068 177.559
threshold=1.0000000180025095e-35 1.0000000180025095e-35 0.7124507466573563 1.0000000180025095e-35 1.0000000180025095e-35 1.0000000180025095e-35 1.0000000180025095e-35 1.5000000000000002 1.0000000180025095e-35 1.0000000180025095e-35 1.0000000180025095e-35 1.0000000180025095e-35 1.0000000180025095e-35 1.0000000180025095e-35 0.73927757530611615 0.88974665143983223 1.0000000180025095e-35 0.078947368421052641 1.0000000180025095e-35 0.078947368421052641 1.5000000000000002 1.0000000180025095e-35 1.5000000000000002 1.0000000180025095e-35 1.0000000180025095e-35 1.0000000180025095e-35 1.5000000000000002 1.0000000180025095e-35 1.0000000180025095e-35 1.0000000180025095e-35
decision_type=2 2 2 2 2 2 2 2 2 2 2 2 2 2 2 2 2 2 2 2 2 2 2 2 2 2 2 2 2 2
left_child=1 2 3 11 10 7 15 8 29 18 14 -1 -4 -14 17 25 -9 20 -6 28 21 -2 23 -11 -7 -5 27 -13 -8 -3
right_child=4 5 12 6 9 24 19 16 -10 22 -12 26 13 -15 -16 -17 -18 -19 -20 -21 -22 -23 -24 -25 -26 -27 -28 -29 -30 -31
leaf_value=0.00045479530228959497 -0.037742292652218193 -0.038242672281027401 0.056198875735023017 0.047306168409917422 -0.059430325381917129 -0.0035020428367548463 0.01392080865097774 -0.037345789720946619 -0.10003973849859155 0.033663184887509814 -0.096491491547746902 0.039683411037361394 0.10858238984192872 0.2334677069274568 0.036054564357188575 0.15607058938149032 0.00807650017943763 0.03023729237116711 -0.013099499532981269 -0.049989535973476121 -0.037724674903545558 -0.11455087672948404 0.031759546725252018 -0.061725315180140065 0.055840953604902981 0.10036571929297458 0.033419228758622799 -0.014917115810162487 0.066018383919137572 0.0098527998949924749
leaf_weight=17309 1638 1692 1516 1546 2570 1261 1373 3222 2971 1141 2400 4335 1339 278 460 571 2787 413 2754 396 3233 1649 2301 1148 1251 1513 8579 4360 1414 1405
leaf_count=17309 1638 1692 1516 1546 2570 1261 1373 3222 2971 1141 2400 4335 1339 278 460 571 2787 413 2754 396 3233 1649 2301 1148 1251 1513 8579 4360 1414 1405
internal_value=2.03778e-10 0.0122361 0.024789 0.0195269 -0.0367063 -0.0260785 0.0597053 -0.0369215 -0.0573635 -0.014947 -0.0587345 0.0116116 0.0943164 0.130053 -0.0464773 0.0865303 -0.0162787 -0.0519533 -0.0354643 0.0291132 -0.0571595 -0.0762751 0.00885136 -0.0141769 0.0260513 0.0735497 0.022791 0.0123047 0.0403528 -0.0164234
internal_weight=78825 59118 44529 41396 19707 14589 6813 12077 6068 9914 9793 34583 3133 1617 7393 3630 6009 6933 5324 3183 6520 3287 4590 2289 2512 3059 17274 8695 2787 3097
internal_count=78825 59118 44529 41396 19707 14589 6813 12077 6068 9914 9793 34583 3133 1617 7393 3630 6009 6933 5324 3183 6520 3287 4590 2289 2512 3059 17274 8695 2787 3097
is_linear=0
shrinkage=0.1


Tree=24
num_leaves=31
num_cat=0
split_feature=191 187 186 190 192 7 188 61 61 7 68 188 68 68 192 68 192 7 7 61 61 68 187 192 192 68 61 61 188 192
split_gain=2889.11 2295.53 1404.66 912.712 911.898 685.545 680.5 495.251 957.826 473.356 413.542 403.856 381.043 377.731 300.563 296.805 312.844 290.973 244.158 235.372 485.842 227.11 212.551 210.247 209.4 191.606 190.77 456.399 174.157 166.829
threshold=1.0000000180025095e-35 1.0000000180025095e-35 1.0000000180025095e-35 1.0000000180025095e-35 0.76801934074020839 1.0000000180025095e-35 0.82138037615400539 1.5000000000000002 1.0000000180025095e-35 0.078947368421052641 1.0000000180025095e-35 0.91031367176143796 1.0000000180025095e-35 1.0000000180025095e-35 0.6939558917951224 1.0000000180025095e-35 0.57859650349026437 0.078947368421052641 0.078947368421052641 1.5000000000000002 1.0000000180025095e-35 1.0000000180025095e-35 1.0000000180025095e-35 0.34239207382040127 0.36833649218230352 1.0000000180025095e-35 1.5000000000000002 1.0000000180025095e-35 0.7386009664958012 0.44132957935625156
decision_type=2 2 2 2 2 2 2 2 2 2 2 2 2 2 2 2 2 2 2 2 2 2 2 2 2 2 2 2 2 2
left_child=1 2 4 9 12 11 7 8 -3 13 28 15 26 22 18 -4 -17 23 25 20 -12 -6 -2 -7 -14 -9 27 -1 -5 -8
right_child=3 6 5 10 21 17 29 14 -10 -11 19 -13 24 -15 -16 16 -18 -19 -20 -21 -22 -23 -24 -25 -26 -27 -28 -29 -30 -31
leaf_value=0.01225008319298547 -0.069159788503791828 -0.012399477911132948 0.049301703515890041 -0.038503475803095433 0.046716456486800298 0.029005707562704316 0.019163758289777524 -0.04174117460039159 -0.089753548331204469 0.030746557377974978 0.029471079798401231 0.17606051533574951 0.017243470138039171 -0.04045092824385188 0.063583452185497338 0.09261996635191172 0.22592243359578612 -0.045339693090162898 0.05968869268775933 0.030668596627357481 -0.06108707871683481 0.11265277844582255 -0.12001230356934374 0.1005770088093946 0.052802226681658231 -0.004802191418685816 0.010630998295751723 -0.033318780224741988 0.024920899622860211 0.099404485663702469
leaf_weight=4452 3481 3193 1721 4416 1082 2476 1661 2819 3210 602 1249 486 15727 4557 487 1527 199 451 378 2455 1127 1010 1076 492 1851 2798 8714 4341 480 307
leaf_count=4452 3481 3193 1721 4416 1082 2476 1661 2819 3210 602 1249 486 15727 4557 487 1527 199 451 378 2455 1127 1010 1076 492 1851 2798 8714 4341 480 307
internal_value=1.49341e-11 0.0109548 0.0223101 -0.0334577 0.0144119 0.0622493 -0.0230882 -0.0314535 -0.0511792 -0.0551363 -0.0118036 0.0907203 0.0105875 -0.060809 -0.0119681 0.078688 0.107989 0.029498 -0.0181055 0.00895377 -0.0134831 0.07855 -0.0811671 0.04087 0.0209879 -0.0233407 0.000145031 -0.0102467 -0.0322854 0.031681
internal_weight=78825 59382 44529 19443 37177 7352 14853 12885 6403 9716 9727 3933 35085 9114 6482 3447 1726 3419 5995 4831 2376 2092 4557 2968 17578 5617 17507 8793 4896 1968
internal_count=78825 59382 44529 19443 37177 7352 14853 12885 6403 9716 9727 3933 35085 9114 6482 3447 1726 3419 5995 4831 2376 2092 4557 2968 17578 5617 17507 8793 4896 1968
is_linear=0
shrinkage=0.1


Tree=25
num_leaves=31
num_cat=0
split_feature=187 191 188 192 188 188 7 61 61 192 68 7 186 61 61 192 68 191 190 192 61 61 186 7 61 61 68 61 61 190
split_gain=2414.63 1795.02 1196.98 975.992 733.388 665.277 576.663 551.762 1479.93 484.064 465.597 422.462 393.765 337.469 690.427 294.329 268.408 242.63 241.707 236.505 230.143 357.646 222.635 194.381 187.241 417.118 177.495 167.058 349.447 143.514
threshold=1.0000000180025095e-35 1.0000000180025095e-35 0.83255977784385549 0.76236084095369383 0.80838669092512483 0.65461318272656066 0.078947368421052641 1.5000000000000002 1.0000000180025095e-35 0.84947227548282755 1.0000000180025095e-35 0.078947368421052641 1.0000000180025095e-35 1.5000000000000002 1.0000000180025095e-35 0.75480097001750535 1.0000000180025095e-35 1.0000000180025095e-35 1.0000000180025095e-35 0.37857682179756569 1.5000000000000002 1.0000000180025095e-35 1.0000000180025095e-35 1.0000000180025095e-35 1.5000000000000002 1.0000000180025095e-35 1.0000000180025095e-35 1.5000000000000002 1.0000000180025095e-35 1.0000000180025095e-35
decision_type=2 2 2 2 2 2 2 2 2 2 2 2 2 2 2 2 2 2 2 2 2 2 2 2 2 2 2 2 2 2
left_child=1 2 3 7 6 9 10 8 22 11 20 13 19 14 -3 24 -5 18 -12 -9 21 -2 29 -14 25 -4 -15 28 -6 -1
right_child=4 5 15 16 27 -7 -8 12 -10 -11 17 -13 23 26 -16 -17 -18 -19 -20 -21 -22 -23 -24 -25 -26 -27 -28 -29 -30 -31
leaf_value=0.018157094337806292 -0.046871321265565292 -0.021343291496260557 0.12537869615458594 0.045490751584075562 0.04008493280199861 0.047480474939123281 0.033700320067589884 0.015377731275318253 -0.025734931868809249 0.027010379535014457 -0.024549878096765787 0.040529997280505714 0.085962741523645914 -0.038758075672406245 -0.091970136468729535 0.26680999542772771 0.11142310246321008 -0.056035418042263065 0.030200844363396845 0.054024446084336923 -0.043247907767386407 -0.10730699587485015 0.067221262087773181 0.031425901939029062 0.12307596884004286 -0.01594235072952423 -0.0029697851961389622 0.041495748664645615 -0.058636188542055517 0.058470295500127258
leaf_weight=7851 1943 2814 429 1263 750 1316 1046 15630 10110 1472 4956 718 1417 2822 2724 100 1208 1986 963 1762 4010 1974 1286 1213 858 407 2723 1392 687 995
leaf_count=7851 1943 2814 429 1263 750 1316 1046 15630 10110 1472 4956 718 1417 2822 2724 100 1208 1986 963 1762 4010 1974 1286 1213 858 407 2723 1392 687 995
internal_value=1.37028e-10 0.0101052 0.0200791 0.0167199 -0.030314 -0.0203376 -0.0382119 0.0129761 0.00133365 -0.0270616 -0.0429631 -0.0338063 0.0247465 -0.0386221 -0.0560828 0.1001 0.0777232 -0.0257903 -0.0156421 0.0192931 -0.0600882 -0.0773283 0.0283434 0.0608094 0.0902586 0.0565777 -0.0211834 0.0168055 -0.00711159 0.0226915
internal_weight=78825 59118 44529 42735 19707 14589 16878 40264 20242 13273 15832 11801 20022 11083 5538 1794 2471 7905 5919 17392 7927 3917 10132 2630 1694 836 5545 2829 1437 8846
internal_count=78825 59118 44529 42735 19707 14589 16878 40264 20242 13273 15832 11801 20022 11083 5538 1794 2471 7905 5919 17392 7927 3917 10132 2630 1694 836 5545 2829 1437 8846
is_linear=0
shrinkage=0.1


Tree=26
num_leaves=31
num_cat=0
split_feature=191 187 188 192 192 192 68 7 7 186 7 188 188 192 68 187 188 61 61 187 61 61 7 61 61 190 61 61 7 68
split_gain=1956.19 1460.33 969.553 808.023 704.234 522.537 512.747 446.097 425.408 316.833 277.382 248.534 247.421 241.575 234.267 232.905 219.245 217.265 513.998 210.96 205.536 569.171 186.627 178.27 302.143 173.461 151.327 324.441 151.149 149.401
threshold=1.0000000180025095e-35 1.0000000180025095e-35 0.83255977784385549 0.82188567154607906 0.59463767179572324 0.7650486767823349 1.0000000180025095e-35 1.0000000180025095e-35 1.0000000180025095e-35 1.0000000180025095e-35 1.0000000180025095e-35 0.59929393853020596 0.62175120658473337 0.69879644299749277 1.0000000180025095e-35 1.0000000180025095e-35 0.87757959079047632 1.5000000000000002 1.0000000180025095e-35 1.0000000180025095e-35 1.5000000000000002 1.0000000180025095e-35 1.0000000180025095e-35 1.5000000000000002 1.0000000180025095e-35 1.0000000180025095e-35 1.5000000000000002 1.0000000180025095e-35 0.078947368421052641 1.0000000180025095e-35
decision_type=2 2 2 2 2 2 2 2 2 2 2 2 2 2 2 2 2 2 2 2 2 2 2 2 2 2 2 2 2 2
left_child=1 2 3 6 8 7 17 16 19 25 12 15 -6 26 -9 28 23 18 -1 29 21 -5 -11 24 -3 -8 27 -4 -10 -2
right_child=4 5 13 20 10 -7 9 14 11 22 -12 -13 -14 -15 -16 -17 -18 -19 -20 -21 -22 -23 -24 -25 -26 -27 -28 -29 -30 -31
leaf_value=0.012867934343644234 -0.063032131088979343 -0.030369869561736915 0.11119090558655756 0.12474192063145816 -0.030509224133255082 0.056198603408786324 0.014784471231465472 -0.022404104694241537 -0.026370261471978393 0.08017067234780817 0.024864627568828793 0.025923633002908661 0.046585245102649546 0.22838611647494581 0.015673861936375488 -0.071690539346041512 0.015169801732018155 0.011314312340146869 -0.031857114079534635 -0.085954666657841794 0.11465397721954756 -0.031815606954606827 0.026890210675009064 -0.02865312381723539 -0.089865984381364714 0.044431299821824449 0.10990355218380271 -0.014336388622560521 0.02922357290884299 -0.030119535308113954
leaf_weight=5183 2774 1660 421 470 2705 889 15570 3275 3638 1427 2705 961 492 118 3189 1043 669 10162 5096 1817 889 459 1219 3414 1757 2260 852 403 565 2743
leaf_count=5183 2774 1660 421 470 2705 889 15570 3275 3638 1427 2705 961 492 118 3189 1043 669 10162 5096 1817 889 459 1219 3414 1757 2260 852 403 565 2743
internal_value=7.19699e-11 0.00901421 0.0180712 0.0150479 -0.0275308 -0.0181385 0.0121494 -0.022871 -0.0400955 0.0233342 0.00129639 -0.0208288 -0.0186448 0.0900899 -0.00361842 -0.0293932 -0.0394642 0.000945487 -0.00930532 -0.0564015 0.080282 0.04739 0.0556246 -0.0448149 -0.0609624 0.0185423 0.080353 0.0497983 -0.0188969 -0.0466683
internal_weight=78825 59382 44529 42735 19443 14853 40917 13964 13541 20476 5902 6207 3197 1794 6464 5246 7500 20441 10279 7334 1818 929 2646 6831 3417 17830 1676 824 4203 5517
internal_count=78825 59382 44529 42735 19443 14853 40917 13964 13541 20476 5902 6207 3197 1794 6464 5246 7500 20441 10279 7334 1818 929 2646 6831 3417 17830 1676 824 4203 5517
is_linear=0
shrinkage=0.1


Tree=27
num_leaves=31
num_cat=0
split_feature=187 186 191 186 61 61 192 68 192 68 68 191 68 7 190 192 188 192 7 190 188 68 192 68 7 61 61 61 61 61
split_gain=1623.08 1243.78 1126.11 612.769 591.834 1459.5 509.867 329.855 324.162 312.687 290.564 271.734 248.802 214.548 202.163 195.745 186.981 181.793 171.426 158.389 157.843 137.17 129.457 128.365 125.145 117.951 283.601 112.205 264.519 105.569
threshold=1.0000000180025095e-35 1.0000000180025095e-35 1.0000000180025095e-35 1.0000000180025095e-35 1.5000000000000002 1.0000000180025095e-35 0.88696477160444387 1.0000000180025095e-35 0.75480097001750535 1.0000000180025095e-35 1.0000000180025095e-35 1.0000000180025095e-35 1.0000000180025095e-35 1.0000000180025095e-35 1.0000000180025095e-35 0.50984581375360483 0.87285461039226819 0.76008390975673501 1.0000000180025095e-35 1.0000000180025095e-35 0.71713095509713087 1.0000000180025095e-35 0.67521405856112382 1.0000000180025095e-35 0.078947368421052641 1.5000000000000002 1.0000000180025095e-35 1.5000000000000002 1.0000000180025095e-35 1.5000000000000002
decision_type=2 2 2 2 2 2 2 2 2 2 2 2 2 2 2 2 2 2 2 2 2 2 2 2 2 2 2 2 2 2
left_child=1 2 6 11 5 17 10 19 12 18 27 14 -6 -9 21 -12 24 23 -5 -4 -14 -2 -15 -3 25 26 -11 28 -1 -17
right_child=3 4 7 9 8 -7 -8 13 -10 16 15 -13 20 22 -16 29 -18 -19 -20 -21 -22 -23 -24 -25 -26 -27 -28 -29 -30 -31
leaf_value=0.0085265167009151415 -0.055016294899401033 0.038688943368161227 -0.056998678307651277 -0.043103924371767008 0.03325138020324294 -0.03780712416183174 0.081068125153939533 -0.025412655814649771 0.14629186064388264 0.017996304890948524 0.014033946900698103 -0.071831632385184405 0.05718216323795116 0.00039316097637176603 0.0043872229098299818 0.024582731058846896 0.05029725925782548 0.15753418566944366 -0.005646302940537664 -0.024757327329670158 0.11024250355835791 -0.025236506196667171 0.051410250771663557 0.086991146141261244 0.073070065892995889 0.013911282388325867 -0.059440491885866455 0.0074190246158151799 -0.025610212969247287 0.073860706605938908
leaf_weight=4594 3151 1112 3091 2570 2229 2483 994 3250 447 936 16373 2400 1291 2077 1204 866 945 222 2329 3005 991 3038 654 1089 227 1951 956 8990 4487 873
leaf_count=4594 3151 1112 3091 2570 2229 2483 994 3250 447 936 16373 2400 1291 2077 1204 866 945 222 2329 3005 991 3038 654 1089 227 1951 956 8990 4487 873
internal_value=5.80729e-11 0.00828492 0.00179381 -0.0248535 0.040697 0.0160728 0.0104119 -0.0247355 0.065063 -0.00732794 0.00847088 -0.0425956 0.0570139 -0.00805087 -0.0331046 0.017422 0.010225 0.0712869 -0.0252965 -0.0411054 0.0802246 -0.0403983 0.0126104 0.0625877 0.0009207 -0.00334105 -0.0211314 -0.000500535 -0.00834073 0.0493209
internal_weight=78825 59118 49254 19707 9864 4906 37177 12077 4958 9914 36183 9793 4511 5981 7393 18112 5015 2423 4899 6096 2282 6189 2731 2201 4070 3843 1892 18071 9081 1739
internal_count=78825 59118 49254 19707 9864 4906 37177 12077 4958 9914 36183 9793 4511 5981 7393 18112 5015 2423 4899 6096 2282 6189 2731 2201 4070 3843 1892 18071 9081 1739
is_linear=0
shrinkage=0.1


Tree=28
num_leaves=31
num_cat=0
split_feature=61 61 192 188 191 191 192 187 68 187 190 188 7 191 191 187 191 7 7 188 187 68 191 190 68 7 188 68 68 187
split_gain=1402.89 3397 882.627 675.663 625.473 561.707 533.694 493.97 387.335 366.415 260.241 232.834 228.394 213.019 192.255 186.121 179.901 176.928 165.812 163.847 143.802 138.002 123.071 132.475 113.715 111.672 105.986 102.777 98.5581 91.5867
threshold=1.5000000000000002 1.0000000180025095e-35 0.80551166049609757 0.81866043654625265 1.0000000180025095e-35 1.0000000180025095e-35 0.76008390975673501 1.0000000180025095e-35 1.0000000180025095e-35 1.0000000180025095e-35 1.0000000180025095e-35 0.68317918902603447 1.0000000180025095e-35 1.0000000180025095e-35 1.0000000180025095e-35 1.0000000180025095e-35 1.0000000180025095e-35 1.0000000180025095e-35 1.0000000180025095e-35 0.47768354276901132 1.0000000180025095e-35 1.0000000180025095e-35 1.0000000180025095e-35 1.0000000180025095e-35 1.0000000180025095e-35 0.078947368421052641 0.67072699502145772 1.0000000180025095e-35 1.0000000180025095e-35 1.0000000180025095e-35
decision_type=2 2 2 2 2 2 2 2 2 2 2 2 2 2 2 2 2 2 2 2 2 2 2 2 2 2 2 2 2 2
left_child=1 6 3 5 7 9 8 -3 14 10 19 22 29 21 20 -5 24 -12 -11 27 -1 -4 23 -10 -8 -14 -23 -2 -6 -7
right_child=2 4 13 15 28 12 16 -9 11 18 17 -13 25 -15 -16 -17 -18 -19 -20 -21 -22 26 -24 -25 -26 -27 -28 -29 -30 -31
leaf_value=0.012160226560438315 0.0038535374526383992 -0.022156557417899778 0.065490790925993358 0.087649606546183118 -0.088447945083166224 -0.025621917375586375 0.065762075956292673 -0.064389753303998362 0.021255386050400799 -0.023964415505962365 0.073802566625249658 0.069698328205950122 -0.0062102855462414942 0.040456139523382083 -0.031157264396905662 0.032238270695965188 0.03633339602690807 0.021158979796878353 0.0088966055825208234 0.046162299953939993 -0.020723995982196673 0.1140038108290336 -0.0035099508580788302 0.068737036896031639 0.13758495559148928 0.046357857256637068 0.23622332104930172 0.019821227151034976 -0.059804203120068761 -0.060478673477980222
leaf_weight=5320 8082 11165 711 1226 2405 3233 458 3683 5492 3313 1349 1052 3086 1401 2001 1199 874 1212 2862 1520 1773 572 1782 658 425 465 81 8042 2400 983
leaf_count=5320 8082 11165 711 1226 2405 3233 458 3683 5492 3313 1349 1052 3086 1401 2001 1199 874 1212 2862 1520 1773 572 1782 658 425 465 81 8042 2400 983
internal_value=-6.10801e-12 -0.0133152 0.0133663 0.00924759 -0.0427809 0.00562541 0.0158801 -0.0326324 0.0107664 0.0125847 0.0191001 0.0254933 -0.0180114 0.0678435 -0.00378238 0.0602524 0.0684963 0.0488889 -0.00873393 0.0147763 0.00394033 0.0959738 0.0196305 0.0263355 0.100331 0.000673462 0.129164 0.0118176 -0.074141 -0.0337491
internal_weight=78825 39488 39337 36572 19653 34147 19835 14848 18078 26380 20205 8984 7767 2765 9094 2425 1757 2561 6175 17644 7093 1364 7932 6150 883 3551 653 16124 4805 4216
internal_count=78825 39488 39337 36572 19653 34147 19835 14848 18078 26380 20205 8984 7767 2765 9094 2425 1757 2561 6175 17644 7093 1364 7932 6150 883 3551 653 16124 4805 4216
is_linear=0
shrinkage=0.1


Tree=29
num_leaves=31
num_cat=0
split_feature=68 188 191 192 187 187 61 61 187 190 7 188 61 61 191 192 61 61 188 192 187 7 191 61 61 186 186 7 186 186
split_gain=1183.2 772.143 739.665 595.095 514.227 467.25 310.836 875.265 270.228 247.353 225.226 181.464 170.369 429.44 166.721 162.54 157.702 263.184 150.362 143.543 141.064 127.748 123.481 104.054 274.454 101.193 100.62 96.2381 109.775 94.5492
